976 64
160 0.2546108 -0.23057798 0.21836537 0.46526358 -0.17184058 0.08660654 -0.1691932 0.22447565 -0.04186373 -0.10044232 0.09406602 -0.14495793 -0.18923284 0.12602815 0.020333044 0.13001777 -0.036746964 -0.15397125 -0.010866605 0.1237722 0.20768197 0.025287077 0.06163227 0.05012866 -0.012397201 -0.10703237 -0.22338434 -0.17893176 -0.04474849 0.24680692 -0.23790954 0.17568135 -0.18129091 -0.044674646 0.12230913 -0.104678094 0.14315628 0.06247655 0.013021384 0.35156024 -0.3315806 -0.28147262 0.19358933 -0.3252379 -0.16074616 -0.29917642 0.16210511 0.010387712 -0.092454225 0.21811223 -0.08821449 0.025968242 -0.05547078 0.09915774 -0.07835271 0.06661233 -0.025874648 0.13907675 -0.1931055 0.046805244 -0.033691097 0.15107258 -0.0040985853 0.22574055
82 0.12476047 -0.08158835 0.05450514 0.45984474 -0.3730153 -0.18678114 -0.10454218 0.16341214 0.0015351963 -0.031123292 -0.19293936 -0.13079782 0.1376567 -0.07733896 -0.0061749564 -0.14461103 0.04253319 0.0047372687 0.02825485 -0.086103536 -0.044212367 0.009081746 -0.164532 -0.14604917 0.11658534 0.10467692 -0.13240413 -0.26609144 -0.06987933 0.20354398 -0.22047098 0.15175542 -0.006430039 0.21231546 0.19330806 -0.020995352 0.2492981 -0.03157494 0.042913664 -0.18554007 -0.13937247 -0.42603472 0.008484655 -0.133559 0.019879172 -0.083635606 0.28521007 -0.019973023 -0.0026766323 0.3290413 0.053323667 -0.055726916 0.3044715 0.13040833 0.06312398 0.105766326 -0.10906752 0.28041422 -0.087163955 -0.18327576 0.102549165 0.18123437 0.02936436 0.037583336
121 0.079120934 0.0134593025 0.08617544 0.43063787 -0.16783746 -0.0802265 0.01853254 0.02327752 -0.032215655 -0.1491943 0.057756744 -0.022956625 0.2921404 -0.09297736 -0.18692411 -0.1817937 0.085929364 0.095862605 0.01365546 0.08370997 -0.13218804 0.05993195 0.022980109 -0.16220972 0.1377795 0.07119071 -0.14820805 -0.08065284 -0.1160935 0.33358368 -0.17048888 0.06642791 -0.05969747 0.11010086 -0.082316436 0.1763584 0.18206297 -0.19437556 0.009081623 -0.07967095 -0.03493413 -0.4011901 0.06482238 -0.18395676 0.178848 -0.04892751 0.15190102 0.08166145 0.18028638 0.2824236 -0.07152367 0.06392197 0.13453476 0.36652333 0.06982055 0.20156 -0.16546054 0.3137316 -0.049114298 -0.29677975 0.1756019 0.16707902 0.08979794 0.09281886
107 0.1435618 -0.42555675 0.13296732 0.40661484 -0.23787972 -0.0049873525 -0.0091406265 -0.014571867 -0.20953014 -0.020941399 -0.087870836 0.017519135 -0.24164756 0.116549276 -0.00859596 -0.24278136 0.059040006 0.040886417 0.038044553 0.04293296 0.15516512 0.23110658 -0.1816547 -0.03603088 0.18517068 -0.109354496 -0.2509475 -0.3041003 0.12057994 0.26375988 -0.065254904 0.036420282 -0.121590815 0.11005571 0.15044424 0.012416554 -0.08208286 -0.14830698 0.24114195 0.011107826 -0.28585207 -0.43682957 0.23852189 -0.07156425 -0.09238381 0.032004252 0.115887575 0.107516095 -0.0879995 0.17915799 -0.24583478 0.07608985 -0.05419034 0.13151588 0.05895063 0.03596778 -0.065149896 0.30635494 -0.16660003 0.17377642 0.15382652 0.13835798 0.068517484 0.12961088
86 0.12055675 -0.19522384 -0.05611985 0.37326849 -0.24175817 -0.11258744 -0.2209865 0.30659825 0.08271608 0.04344484 -0.24118516 -0.15881802 -0.15151921 0.056185286 0.016443713 -0.20958136 0.043191753 -0.18314965 -0.23319441 0.031638503 0.15280017 -0.02543778 -0.23073265 0.066706285 -0.021013675 0.23156458 -0.54861045 -0.33433375 -0.105799176 0.023121364 -0.167002 -0.12547852 -0.4979724 0.11596701 -0.05462215 0.159049 0.05299389 -0.18354176 0.05934674 0.17591913 0.06994916 -0.12687922 -0.085113436 -0.20643039 0.038584445 0.15636218 0.06983932 0.26585215 0.23266959 0.23829515 0.083578266 -0.19580762 -0.011940927 0.085377805 0.04504786 -0.12855779 0.015551393 0.32971048 0.0621737 -0.20945615 -0.12547533 0.35940003 -0.17914476 0.22659455
62 -0.02820309 -0.50023454 -0.017225515 0.45406407 -0.44000444 -0.09484135 0.11689303 0.21283935 0.030224381 0.072842516 0.012879148 0.012347663 -0.18101884 0.13914631 -0.027508603 -0.07766685 0.2517616 -0.028613701 -0.04773745 -0.13763212 0.18973912 0.12310964 -0.21467094 0.00084994937 0.091707 0.004043236 -0.15022704 -0.19125484 0.06254889 0.38619378 -0.15798295 -0.030516168 -0.25845483 0.2198691 0.027172737 -0.045637988 0.07635944 -0.31084606 0.023656351 0.1586986 -0.12852009 -0.29391643 0.056187555 -0.11757766 -0.13210292 0.049525123 -0.14277163 0.18290627 0.20585436 0.100979224 -0.07459926 -0.01764424 -0.0074954126 0.17138462 -0.027445374 0.22623022 -0.12976329 0.107499704 -0.08148524 0.0014517431 0.036743864 0.032010477 0.026101109 0.2521552
434 -0.033971682 -0.2305449 0.25982785 0.25098744 -0.36645892 0.06508727 0.009297682 0.097191684 -0.01193307 -0.25805444 0.12155135 -0.15213034 0.11297307 0.116557084 -0.11163352 -0.332365 -0.16091311 -0.018831735 0.045996647 0.14359707 0.059702117 -0.016970063 0.06403322 0.0509326 0.13309844 0.13726144 -0.037474465 -0.2344012 -0.040083267 0.26307938 -0.13312618 -0.04265096 -0.27086452 0.09538284 -0.3327252 -0.059844647 0.18361862 -0.15625279 -0.24143465 -0.06964966 -0.124626756 -0.069621556 -0.10614306 -0.0138607 -0.028378528 0.020554712 0.16749273 0.13690452 0.1653075 -0.107450664 -0.1369047 -0.013813179 -0.26307705 0.28106022 0.16283214 0.331347 -0.014903611 0.26093766 -0.06810717 0.14628348 0.017389514 0.09849564 -0.0044980277 0.027805442
13 0.046441477 0.099722005 0.28325635 0.39310712 -0.18548161 -0.26168752 0.21380113 0.08041898 -0.0738442 -0.32073382 0.25069222 0.081891075 0.3211686 0.123096414 -0.23261622 -0.035676368 0.045854464 0.1754629 -0.026353186 0.21697555 0.22603177 0.13233688 0.16698812 -0.14236468 -0.25705448 -0.24188629 -0.50630283 -0.19542743 0.016491085 -0.19650647 -0.07466063 -0.047386426 -0.25454718 -0.11788438 0.11643118 -0.26990327 0.3654203 -0.10431233 0.251754 0.4018661 -0.11861128 -0.3131017 -0.11920486 -0.28808975 -0.35062546 0.02396912 -0.020608272 0.049436424 0.1681117 -0.07046976 0.011732164 -0.122000426 -0.08093464 0.3656586 0.25374964 -0.083995044 0.027586184 0.018649079 0.093489714 -0.08062457 0.00126923 0.13619772 -0.039920583 0.19918811
166 0.10558302 -0.11460604 0.34020087 0.2290697 -0.15485623 -0.0029644202 -0.32402918 0.030605491 -0.10681339 -0.23142187 0.087386124 0.07981847 -0.12196942 0.21244472 -0.13166894 0.015814628 0.07455281 -0.14031613 0.0944358 0.12822218 0.046904713 -0.050995342 -0.083579645 0.12076306 0.120697595 0.3519728 -0.21366583 -0.28916338 -0.20693375 0.6198515 -0.04553223 0.3252533 -0.20176218 0.052619237 0.04822806 -0.05637138 -0.2349973 -0.018709756 0.036284856 0.1328776 -0.045967694 -0.02763768 -0.045488466 -0.35281903 0.06685425 -0.1099697 -0.012677582 -0.04532353 0.1198249 0.04019609 -0.1557691 0.008128726 -0.028792353 0.08002003 0.051894013 6.611942e-05 0.022681717 0.27743694 -0.45663053 -0.14596424 -0.12060778 0.06037091 0.03800838 0.44419855
5 -0.057982977 -0.34020033 0.15671666 0.32934698 0.008941299 0.341987 -0.15964758 0.28833914 0.27579364 -0.22280453 -0.083863504 0.28507265 0.36912918 -0.0069621587 0.12682867 -0.15298477 -0.35280526 0.005309098 -0.31814465 0.029617961 0.41839328 0.22510248 0.0031384404 0.10258724 0.16117556 0.11535328 -0.051074088 -0.0068172044 -0.029688967 0.034103896 -0.34971634 -0.039939526 0.02373489 0.029280985 0.22154903 -0.18919599 0.29756165 -0.071149305 0.38048083 0.091497965 0.03416903 -0.32197207 0.091566496 -0.25639337 -0.1086933 -0.27528214 0.38152754 0.53181934 0.05452549 -0.08921642 -0.10261297 -0.49283674 0.034992322 0.06635228 -0.14531212 -0.06756007 -0.19637284 -0.15923184 -0.24785623 -0.085001715 -0.038192254 0.14852786 -0.32109207 0.28126657
183 -0.041549627 -0.16204692 0.19290642 0.1656809 0.18360505 -0.08657082 -0.043191355 0.011115486 0.24167351 -0.28325704 -0.14568949 -0.15612903 0.23184162 0.17693532 0.1402295 -0.093310885 -0.2525868 0.05226051 -0.03445166 -0.19314884 0.1639702 0.07379223 -0.043340627 -0.022804348 -0.062275734 0.059089012 -0.36422974 -0.38022372 -0.044556398 0.14091022 -0.28915742 -0.030429222 -0.16635016 0.058345754 -0.23495743 -0.033025883 0.3318457 -0.01763666 0.22281441 -0.02218072 -0.39159462 -0.031500302 0.006107227 -0.27628836 -0.05634718 0.035728205 -0.107683934 0.23448221 -0.028275149 0.13575847 -0.0077678123 -0.08976587 0.076071985 0.21728125 0.30718967 0.16078027 -0.12284024 -0.058726285 0.030208487 -0.17474413 0.34478873 0.025849335 0.20391785 0.15754044
64 -0.14147152 -0.12950926 0.38358492 0.17067733 -0.018887958 -0.16205962 -0.14282522 0.2515089 -0.042329844 -0.3384202 0.02860136 -0.12277449 0.18540199 -0.044355616 0.3435642 0.10188492 -0.09355535 0.22355375 -0.013150374 0.1760052 0.14180659 0.14599654 -0.16776475 -0.023741331 0.11102237 0.20714858 -0.45896637 0.083820514 0.120023794 -0.07268864 -0.14097887 -0.15495266 -0.20737013 -0.14221211 0.03888749 -0.23868023 0.011632665 0.0010827506 0.10501204 -0.15881258 0.133472 -0.46459976 0.13922104 -0.1779662 0.10972824 -0.16451079 0.25507215 0.61912644 -0.0954363 -0.27973557 -0.16900764 -0.3159189 -0.37073106 0.047003362 -0.019541565 -0.062995434 -0.09534255 0.17804398 -0.0386448 0.05037158 0.17349418 0.27408686 -0.021497207 0.36739728
249 -0.029848527 -0.23729855 0.27588823 0.21567613 -0.08403441 0.112048835 -0.073357664 0.089031026 0.0066534984 -0.0860254 -0.123401195 -0.030284522 -0.052123096 0.015411908 0.0036329047 -0.22563484 0.039641332 0.020957349 0.08894455 -0.2047324 0.007816588 -0.0067293304 -0.24960317 -0.07409662 -0.17136976 -0.020876464 -0.014242043 -0.41726053 -0.028256318 0.34166 -0.32772177 0.18743788 -0.003378999 0.029682564 -0.27342436 -0.21715873 0.038640298 -0.08213939 0.15901476 -0.031251583 -0.14623497 -0.28681615 -0.00214328 0.08760191 0.235677 0.008986113 0.083798476 0.120320134 0.23087513 -0.041119773 -0.20250064 -0.14968722 -0.17208107 0.088889256 0.078065604 0.36879832 -0.044530343 0.06450481 -0.24807166 -0.22354843 -0.023965014 0.07626713 0.035761315 0.08172732
129 0.06204143 -0.09575538 0.21263179 0.27958176 0.12459372 0.07766676 -0.37133408 0.21670364 0.043783482 -0.18897744 -0.14281574 -0.39523798 0.09472983 0.17309259 -0.27781695 -0.16096914 -0.27898234 0.21179175 0.15908276 -0.039081432 0.2751576 0.16753899 0.07226721 -0.03708624 -0.06646752 -0.054207362 -0.02197042 -0.38807943 0.13973743 0.33363503 -0.19958128 -0.046695508 -0.2675796 0.075179495 -0.22462232 0.037433207 0.25029817 0.1284469 0.038425375 -0.10692095 -0.1474478 -0.07517052 -0.15819159 -0.123464294 0.010647129 0.34097853 0.022577127 0.12308114 0.08454717 0.03169836 -0.04314826 -0.2754555 0.29605317 0.2409828 0.13030028 -0.01755743 -0.18381831 -0.047240198 -0.07386696 -0.08694669 0.18734646 0.015798267 0.115976475 0.0940153
533 0.23300353 0.098433815 0.08025159 0.5184921 -0.18166476 0.104934454 -0.20994489 0.37235335 -0.022524148 -0.40549022 -0.075797275 -0.17053899 -0.03038453 0.17042375 -0.24981435 -0.13629858 -0.18146078 0.15939584 0.01332176 0.09355671 0.17620301 -0.12548488 0.028415889 0.03716132 -0.5437578 0.07844052 -0.45572138 -0.34853512 0.126042 0.20108008 -0.24719813 -0.07019675 -0.176121 0.051447876 0.028034752 -0.0271501 0.24926314 -0.20666926 -0.032348804 0.33440197 -0.012962292 -0.2554447 -0.102057554 -0.29321992 0.054596566 -0.122921675 -0.059089407 -0.042104192 0.15596126 0.17404974 0.16178873 -0.17372037 -0.24238427 0.069049545 0.07043289 0.14626509 0.19106185 -0.07887818 -0.4396695 0.1459067 -0.013662149 -0.022536078 0.07401421 -0.21817987
211 0.33145317 -0.17033757 0.25439632 0.28380108 0.12671761 -0.11549555 0.15961578 -0.08390487 0.2105004 -0.4868348 -0.009046742 -0.0750251 -0.0132352775 -0.048639446 -0.09403873 -0.28531605 0.087994576 0.044848204 -0.20588323 -0.13323326 0.16158782 0.14002888 -0.18035242 -0.29041582 0.14339858 -0.030412752 0.31569496 -0.35658726 0.22460863 -0.07614159 -0.02862425 0.06828017 -0.19596969 0.17997096 -0.11666769 -0.16046958 0.050392687 -0.16118573 0.19910794 0.010267401 -0.12249509 0.10392971 0.10521244 -0.40853405 -0.10208375 -0.1618564 -0.2256033 0.26051435 0.35696578 -0.22012185 -0.26256698 0.09840738 0.16131619 0.21061921 0.0709327 0.22097532 0.09610987 -0.41309687 -0.18800354 -0.1721054 0.049060956 0.27448657 -0.26718274 0.26413557
128 -0.34083775 0.07952581 0.018647509 0.18941154 -0.0741141 -0.06335538 -0.19222462 0.0782094 -0.23768023 -0.15643157 -0.05700369 0.0132436985 0.13262747 0.26611504 -0.0030872864 0.033856023 -0.24749188 0.23041224 0.0526713 -0.15708055 0.10935754 0.3275138 -0.297018 -0.26933542 0.03762131 -0.02804801 -0.15610553 -0.32985544 0.08312453 0.23465112 -0.20714928 -0.17664786 -0.13996826 -0.10596416 -0.2657079 -0.19259633 0.054305337 0.026456472 -0.0084763225 0.07816219 -0.24021019 -0.15978332 -0.09292021 -0.29852495 -0.13929577 -0.033027485 0.25900322 -0.08878662 0.14654739 0.02923228 -0.4040969 -0.0912222 0.14278656 0.23480129 0.12770173 0.21079275 0.29441243 -0.045370996 0.119716555 -0.10337655 0.07028894 0.105795085 -0.021700548 0.10934953
105 -0.06996952 -0.05543237 0.2984239 0.14877659 -0.25839305 0.04725851 0.10381542 -0.083989374 -0.06679981 -0.114010565 0.03464874 -0.103020765 0.18908727 0.21790493 -0.00015781488 -0.14832135 -0.12477437 0.05072126 0.25586924 -0.15471941 0.042478673 -0.22076641 -0.09848073 -0.12161514 0.05638685 0.12908635 -0.091282934 -0.45906106 -0.15096866 0.10501601 -0.35749844 0.22615916 -0.11502759 0.14782377 0.03093746 -0.16513263 -0.05528737 -0.07737345 -0.035158124 -0.018457597 -0.12834969 -0.38703778 0.034070875 -0.23210545 0.2831085 0.09799457 0.08425418 0.08252442 0.22026764 -0.029436368 -0.16536352 0.07666935 -0.2704176 0.07023398 0.16034311 0.23540261 -0.041794647 0.13776897 -0.19221924 -0.028137183 0.089124046 0.057005756 0.004611541 0.020935545
377 -0.20882319 0.027388439 0.3668009 0.24339859 -0.008303722 -0.41334322 -0.44598466 0.2531526 0.21008697 -0.22236215 0.12639643 -0.34695914 -0.029395713 0.10264739 0.15182991 0.1834624 0.045415465 -0.20946138 -0.043395314 -0.024573637 0.09300905 0.0326665 0.058128778 -0.4412948 -0.038394306 -0.07960604 0.18506691 -0.061903633 0.14615887 0.74835074 -0.25334617 -0.2834766 -0.073903576 0.26631594 0.04641154 -0.34864837 -0.053495258 0.1916937 -0.048490215 -0.069595136 0.12869261 -0.24133718 -0.18957824 -0.52544886 -0.30863303 0.10143216 0.2362319 -0.01904619 0.05800445 0.02333123 -0.13151993 -0.013999479 0.24097688 0.11403761 0.17809872 0.28589228 0.12532142 0.31449774 -0.12903184 -0.035211567 -0.021271037 0.59652275 -0.10617026 -0.2014129
83 -0.036234293 -0.009431502 0.5020048 0.31097668 -0.08046703 0.20465006 0.006843998 0.11640685 -0.15690312 -0.095437706 0.0038391904 -0.25989398 -0.10703262 -0.10367155 -0.18941452 -0.1455022 -0.13583384 -0.068382084 0.020245282 0.09826251 -0.15077434 -0.10318548 -0.41743025 -0.030252907 0.18108542 0.03012393 0.0065894304 -0.2145581 -0.31429914 0.087730035 0.07304406 0.16231833 0.04816063 -0.07633316 0.14581718 -0.10977682 0.08908037 -0.21323717 0.022459093 0.03830592 -0.165989 -0.29366618 0.045703717 -0.291718 -0.014622307 0.07374413 -0.096226074 0.21485996 0.21841568 0.31326267 -0.27065685 0.022578377 0.23832935 0.2924386 0.156632 0.23611674 0.104975566 0.32222286 -0.005285143 -0.09058673 -0.15481542 0.03365272 -0.085309505 0.17331095
420 -0.10358149 -0.40926722 0.12667587 0.5797079 -0.53533113 -0.07762001 -0.15000023 0.19836533 0.18300644 -0.13030562 -0.113308266 0.070372224 0.41223124 0.1680202 -0.06713915 -0.21162905 -0.14205107 0.03121339 -0.17458926 -0.051219787 -0.008431328 0.099290304 0.052480347 -0.3331491 -0.08634431 0.32419047 0.1618318 -0.05427094 -0.17938025 0.20431991 0.15310109 -0.032286108 0.15791558 -0.09262333 0.060940858 -0.42290366 0.119620964 -0.0783366 0.12183925 0.032793798 -0.23095533 -0.22946888 -0.1080408 -0.05415616 0.08340247 -0.117417745 -0.04834079 0.15955438 0.18100451 0.22052579 0.12146333 0.046388526 -0.116002984 0.2824688 0.14616439 0.06187727 -0.15828867 -0.05087601 -0.076920226 -0.5316491 0.068966046 0.1322191 -0.031020537 0.07120825
283 0.04882641 -0.13530983 0.13522807 0.2376157 -0.24301806 0.061767027 -0.28783607 0.0752255 0.11899466 -0.052836407 0.28184468 -0.018569723 0.06599937 0.018038495 0.075513184 -0.049818452 -0.12161158 -0.094489075 -0.021492157 -0.042269778 -0.2203575 0.0063328645 -0.41577038 -0.001774971 0.19309042 -0.016433885 -0.045266345 -0.40162206 0.016576948 0.47397316 -0.012609088 0.11179653 -0.12453138 -0.02184995 0.06364584 -0.10750831 -0.027965365 0.084309265 -0.05539456 -0.26444644 0.29716668 -0.24937189 0.15903477 -0.45849356 0.12253538 -0.16316164 0.18963484 0.15566765 0.13743755 0.025761697 -0.0311635 0.10578044 0.20874566 0.1827164 0.02507607 0.3175723 0.13584906 0.3004247 -0.060718276 -0.0023547353 0.014492744 0.2002059 -0.03243329 -0.16297667
114 0.039527986 -0.14323084 0.40495083 0.2360717 -0.3187935 0.100506365 0.021283953 0.28235602 0.113312736 -0.17581563 0.12510815 0.14466481 0.14709191 0.22221793 0.032945134 -0.20053029 0.17373466 0.099853955 0.08519882 -0.23366165 0.039199274 -0.04247076 -0.24979252 0.024922276 0.028678743 -0.017081354 -0.07072701 -0.27302307 0.01057811 0.008799825 -0.31131297 -0.0012033432 -0.38490376 -0.17515731 -0.06468148 0.15686776 0.33629894 -0.04677259 0.0849896 -0.19536765 0.11314017 0.08809402 -0.1866923 -0.15451467 -0.009927352 -0.23718488 0.24125491 0.06255974 0.18798941 -0.124529965 -0.21100219 -0.00411452 0.21648256 -0.090398766 -0.123866476 -0.048445053 -0.026764471 0.08291525 0.17166813 -0.18057624 0.1467134 0.088720046 0.40050453 -0.06908862
106 -0.051847786 -0.059417196 0.38600725 0.045671497 0.060706604 0.09322851 -0.020909464 0.23402745 0.16948815 -0.23385476 -0.21873397 -0.053215414 0.040610377 0.13953023 -0.3812284 0.090707175 0.25955942 -0.41829696 -0.10222612 -0.31183523 0.10044524 0.08069056 -0.1815376 -0.16114464 0.26721993 -0.029595269 0.031657163 -0.40826663 0.015907755 0.12262308 -0.29487607 0.090207316 -0.14465575 0.25013068 -0.14252824 -0.1608155 -0.23854445 -0.1693496 -0.24056542 -0.03140101 -0.08488564 -0.42464745 0.2989268 -0.119414285 0.06731781 -0.18370506 0.22047971 0.14206377 0.11533404 0.22367427 0.012859438 -0.117685504 -0.030481288 0.22995543 -0.10764889 0.22934881 0.1282707 0.14592825 -0.085726246 -0.07625991 0.120308176 0.11443059 -0.12338901 -0.10340516
142 0.19640504 -0.03965944 0.07566288 0.41295642 -0.23365165 0.07608727 0.0059568314 0.023505878 -0.06584817 0.04300806 0.061903164 -0.11229879 -0.0359147 0.25865415 -0.044196114 -0.21388327 0.081464715 -0.08710504 -0.06234243 0.115915745 0.25231475 0.0024699573 -0.28213248 -0.008092696 0.33942124 0.1589367 -0.17799747 -0.36270186 0.0028252986 0.41722786 -0.020093897 0.15130961 -0.07571991 0.057207998 -0.13529488 0.033316586 -0.20341988 -0.10101036 -0.059357766 0.19062828 0.10314303 -0.34442106 0.108011775 0.07224508 -0.06016683 -0.15175727 -0.311945 0.13411567 -0.10343984 0.0057242094 -0.18419136 -0.09564974 0.011717795 0.3170608 0.32564998 0.14618607 0.03460316 0.07968759 -0.07505084 -0.026465401 0.13542394 0.01567917 -0.01077812 0.048963908
21 -0.01939059 -0.09139778 0.18922952 0.14169356 0.028931784 0.35069254 -0.29682177 0.10194487 0.124529585 -0.34038603 -0.027761873 0.19200745 0.37818155 0.07075527 -0.407671 -0.09729349 -0.08296625 -0.100922115 -0.04418129 -0.054785434 0.042573474 0.027587088 0.06100012 -0.35374656 0.17494574 -0.04910482 -0.08949654 -0.39436862 -0.1271937 0.15420967 -0.26197723 0.11632901 0.120858505 0.17585543 -0.2852084 -0.15186526 -0.19853088 -0.14253365 -0.24735287 -0.15709439 -0.2847983 -0.16268511 0.13040355 -0.3608266 -0.0028133756 0.05183171 -0.062029164 0.10400549 -0.007590443 0.18137024 -0.21309114 -0.26405668 -0.086646095 0.21211109 -0.12340704 -0.26249582 0.08331278 0.086460255 0.101910904 -0.35464695 0.006225666 0.068966106 0.22172937 -0.15811983
87 -0.021143274 0.18576993 0.4099682 0.44702622 -0.1235141 -0.069972776 0.11737607 -0.09577063 -0.17304511 -0.12710552 -0.18934293 -0.31085315 0.20512159 -0.14332008 -0.1900917 -0.3515273 -0.04334452 0.031042684 0.12799005 -0.062403668 0.11312015 0.10013264 -0.049914442 -0.015695443 -0.09887873 -0.15591203 -0.05234955 -0.50609165 -0.029751375 0.2274137 -0.0016294455 -0.12083298 -0.028879654 0.099228516 -0.081112385 -0.16923495 -0.2065565 -0.3175197 0.09280055 -0.05336882 -0.13573302 -0.2049085 0.018379832 0.0610771 0.38544235 -0.018910002 0.12958494 0.24280329 0.10954791 -0.04801323 -0.14365004 0.015766542 -0.14772192 0.0109237945 -0.02112405 0.25555012 0.037151556 0.21738367 -0.040124968 -0.10766205 -0.025228128 -0.0012758325 0.09796399 0.10107471
282 0.17097446 -0.24371965 0.22226644 0.20951535 -0.26268843 -0.014030502 -0.1536647 0.021167014 0.033764996 -0.1008371 -0.082032636 -0.074913286 -0.0094621675 -0.07183098 -0.11064269 -0.095267706 0.08452411 -0.14798932 0.07301793 -0.059212737 0.056496553 0.18525997 -0.2108427 0.041573625 0.4262078 0.0940711 0.00839927 -0.17931849 -0.06646061 0.39618894 -0.1805543 -0.026890783 0.030116076 -0.060676545 0.044053536 0.16129999 -0.30157986 -0.30975646 0.147065 0.17815636 0.12871706 -0.32676876 0.11548519 -0.13793845 0.14654946 -0.16188097 0.028168185 0.095614836 0.087038554 0.06360999 0.11157926 -0.0017424816 -0.26099873 0.16467942 0.55772746 -0.027986074 0.06130711 0.23318154 -0.14925684 -0.033352003 0.06261432 0.2763668 0.22198403 0.031566955
333 0.07918739 -0.08041728 0.49228093 0.23059817 -0.2721148 0.38140416 -0.14648889 0.027722804 -0.09890296 0.004406108 -0.018164966 0.072548054 -0.008825741 0.11103817 0.17148565 -0.189363 0.041841462 -0.2892482 -0.08244159 -0.11039716 0.19283475 0.0664847 -0.041715804 -0.071857944 -0.19729082 0.21945192 0.280404 -0.48724443 0.02587419 0.21353169 -0.349222 -0.0865424 -0.015595774 -0.19567026 0.16330622 0.14314045 0.27848428 -0.38547146 0.06837781 -0.2014827 0.27225375 -0.19045849 -0.1084638 -0.28916225 0.1164544 -0.15958679 -0.008443146 0.13401544 0.4035037 -0.20841587 -0.23622763 0.08430506 0.19013022 -0.1740989 -0.21677941 -0.10817417 0.054137185 0.28506342 -0.02643301 0.010687367 0.0769646 0.021669218 0.32708913 0.047289692
424 0.24377528 -0.17206828 -0.10088447 0.18830334 -0.32117543 -0.08503183 0.11313734 0.080651246 0.14240626 -0.19713613 -0.19440737 -0.07305011 -0.039945 -0.13356951 -0.07487335 -0.0047303075 0.20980668 0.047344726 0.19445866 -0.16113748 0.27881935 0.03686012 -0.3168471 -0.06846401 0.15823647 0.2135811 -0.0034492621 -0.4042523 -0.06931027 0.29528224 -0.10211363 0.31387806 -0.03519894 -0.101895116 0.14973398 -0.12906733 0.019569486 -0.20148574 0.14234567 0.11536731 -0.15799505 -0.41939437 -0.15766302 -0.04420186 -0.12099256 -0.22286923 0.1744125 0.2962557 0.190663 -0.09409978 -0.055767223 -0.18801479 -0.06579546 0.14495394 0.3262729 -0.08893851 0.11708578 0.036258142 -0.11600511 -0.14926001 0.10444251 -0.032037694 0.20724009 -0.07380677
84 0.26275936 0.18634857 0.1202496 0.10317062 -0.50669384 -0.14357072 -0.311988 0.08071054 0.089354396 0.16637757 0.15695329 -0.44301772 0.0012317309 0.2772884 -0.40285796 -0.18915306 -0.13570717 0.0594833 -0.022555066 0.05296012 -0.23834752 0.037871324 0.15150048 -0.051244307 0.16266629 0.18447183 -0.030141355 -0.08531995 0.10880122 0.12362397 -0.30113682 -0.011001532 0.14748797 -0.050457742 -0.006565381 0.15778482 0.16745073 -0.47795403 0.29416147 0.064388946 -0.14741181 -0.047643322 0.3334711 -0.3553181 0.49893242 0.12682901 -0.19893476 0.2805101 0.6488343 0.24286756 -0.5130429 -0.009611194 0.24174355 0.20765315 0.099094525 -0.29490173 -0.36784187 0.40064743 -0.041038822 -0.05124218 -0.16079684 0.2677623 0.07599293 0.22911508
820 -0.08075056 0.10260545 -0.11633552 0.137916 -0.26580212 0.024386255 -0.14863743 0.19321653 -0.31693283 -0.17503208 -0.23334001 0.12639502 0.06435498 0.3201468 0.13538234 -0.11916882 -0.32782513 0.1191985 0.28529435 -0.12740363 0.111694224 0.33026886 -0.29283768 -0.25155795 -0.02668978 -0.007023304 -0.14698869 -0.1258764 -0.05006404 0.28669697 -0.43716326 -0.3776454 0.14713496 -0.27281052 -0.29937762 -0.23056608 0.06684036 -0.029804548 -0.019492265 0.16721137 -0.052463092 -0.12718566 -0.41598955 -0.19981511 -0.052345086 0.05042256 0.09762197 0.2732346 0.22281575 -0.07609881 -0.29488254 -0.1890012 -0.021606604 -0.03673615 0.13681035 0.16959065 0.018249094 0.20764437 0.06884983 -0.038488887 0.022440467 -0.015791453 -0.07940996 0.35948655
301 0.02465872 -0.15191329 0.18989204 0.45647568 -0.6323778 -0.13178098 0.20730172 0.27840766 0.026202638 -0.61075044 0.058405124 0.15490504 -0.095736064 0.021691157 0.1798469 0.21390629 0.07363554 -0.078158066 -0.2925653 -0.2396164 0.1920421 -0.06607279 0.26341864 0.17666745 -0.053013925 -0.24860865 -0.1797841 0.104381524 -0.07118061 0.114350684 -0.18370965 -0.03344357 0.09360569 -0.07354694 0.0177519 0.060196176 -0.17600465 -0.13341698 0.40416816 0.29685047 -0.33390388 -0.10614624 -0.08014535 -0.37415025 -0.10447469 -0.15712334 0.045949526 0.19522727 -0.22976111 0.16471632 -0.25314224 -0.22314669 -0.13069677 0.23446587 0.23193453 0.102732465 0.22873604 0.29372096 0.0033864656 -0.45226726 -0.2271898 0.047226034 0.34643966 0.17050989
115 -0.13699202 0.26192373 0.2725804 0.34798247 -0.3708445 0.19625299 -0.20194839 0.16618903 -0.046198815 -0.20520288 -0.034273278 -0.06379343 -0.14173691 0.15353844 0.0014268706 -0.23118544 -0.0058282902 -0.22946556 0.19848812 -0.029416187 0.0850977 -0.04826614 -0.40533936 0.058912374 -0.040396914 -0.0854072 0.110673785 -0.0995901 0.013037149 0.21615595 -0.23632614 0.03680306 0.032270633 -0.027787957 -0.037845872 0.011773915 0.41610035 0.05977396 0.04192452 -0.21968278 0.09770673 0.009703978 -0.03657004 -0.07130615 0.21973002 -0.15612498 -0.04099885 0.09803363 0.24980412 -0.025334831 -0.11109746 -0.08682508 -0.2968804 -0.1666842 0.057841823 -0.16006356 -0.13368402 0.28912005 0.16799194 -0.1652426 0.28449112 0.12521534 -0.15247375 0.24764985
256 0.21374111 -0.21582058 0.26002848 0.25665602 -0.36039764 0.21743484 -0.008326454 -0.036620673 0.20573525 -0.23478527 -0.17144887 -0.15044807 0.20651098 0.10061593 0.08726706 -0.08556264 -0.04355221 0.1522595 0.020194404 0.083384015 -0.07111903 0.13230908 -0.20891625 -0.07237049 0.023422172 -0.043133058 0.19892792 -0.50959796 -0.25986218 0.051389463 -0.34298202 0.082041726 -0.1598515 -9.5532596e-05 -0.2066396 0.053969577 0.060219005 0.05868605 -0.10549141 -0.12475639 0.12406452 -0.1560661 0.19825672 -0.017603178 -0.07759023 0.049957983 0.045369316 0.18314414 0.05155009 -0.1397903 -0.019837474 -0.14654176 0.022098659 0.46169358 0.16119273 0.18455966 -0.09823926 0.10835088 0.01322452 -0.20356655 0.16935752 0.035178654 -0.06891805 -0.11372031
58 0.27038622 -0.073483236 0.329821 0.21499078 -0.0538304 -0.014614728 0.11617778 -0.11645204 0.21176933 -0.4748466 0.019057408 0.13825807 0.118247055 -0.16877837 0.100931995 -0.4192461 -0.047531612 -0.05017225 0.0529587 -0.03679092 0.0027328418 -0.09129613 -0.11514058 0.06929168 0.22581662 -0.21323976 -0.03480487 -0.27107778 -0.048675846 0.26794627 -0.060953926 0.08341937 0.15806358 -0.35285932 -0.13769838 -0.0390516 0.059823066 -0.11022579 -0.06796202 0.15629444 0.040105514 -0.007641336 0.015040484 -0.14305517 0.35126123 -0.24859264 -0.13325718 0.025499998 0.3194522 0.037192304 -0.20073217 -0.029533487 0.19840844 0.08391136 0.070185624 0.03313125 0.059652578 0.106991634 -0.35729945 0.046314217 -0.025093641 0.41816902 0.008725184 0.44717655
63 0.21198161 -0.22428757 0.31891614 0.21076773 -0.16291414 -0.009861654 0.15037991 -0.09861611 0.3445937 -0.2846837 0.117867276 0.08203238 0.17803255 -0.12166635 -0.13040048 -0.4407401 -0.02387442 0.076492175 0.019452227 -0.035404652 0.06937313 0.009787826 -0.18695451 0.21980168 0.27182233 -0.44924918 -0.10778758 -0.36399186 -0.075867705 0.07377369 0.0010303207 -0.10778267 0.05225685 -0.19605713 -0.09894209 -0.17263281 0.09051049 0.15686783 -0.015052024 -0.18592551 -0.1359136 -0.16009672 -0.12548323 -0.3294139 0.04256632 -0.14998144 0.034853105 -0.10016529 0.17348431 -0.032214314 -0.24677949 -0.19724894 0.23892571 -0.025318468 0.0052138744 0.17141926 -0.101978295 -0.28900993 -0.16430666 0.024634957 0.14802854 0.37772518 -0.06588879 0.32914412
280 -0.074620955 -0.033811253 0.54285574 0.15727456 -0.101155646 -0.14683524 -0.30515048 0.46798795 -0.0337457 -0.17918839 -0.10246429 -0.45047125 0.2594443 0.07596066 0.05916929 0.32664707 -0.40343577 -0.0058918856 0.3525906 -0.019226387 0.05243727 0.0688117 -0.28525642 -0.21430641 0.041651625 -0.14291883 0.021525024 -0.12999457 0.020607596 0.26386532 0.0074903863 0.0130312685 -0.23351155 -1.1661746e-05 0.067818254 -0.18048836 0.11294093 0.17719407 -0.054179844 0.023796625 0.041069333 -0.053899348 -0.2560173 -0.0068133585 -0.1347349 -0.027713789 0.06723587 0.1405072 0.094713375 -0.037194695 -0.1901778 -0.15863413 0.2717806 0.30657765 0.2895811 0.14162761 -0.01233347 -0.009502819 0.11553393 -0.117415786 0.12989524 0.19658868 0.17953724 -0.0588051
405 -0.0140963895 -0.07350822 0.33184797 0.17143525 -0.010097602 0.24034841 -0.15422471 0.034727175 -0.17994407 -0.16403988 0.15950806 -0.26871103 0.44975173 -0.14793126 -0.1573517 -0.19105689 0.1421736 0.19039778 -0.26882416 -0.09422124 0.20286791 0.1288656 -0.10315663 -0.089658186 0.21117444 -0.15220517 0.08156014 -0.14273079 -0.1151181 0.4539029 0.009401107 0.29164144 -0.31834197 0.04099011 -0.51966965 0.09098392 -0.080307424 -0.09588413 -0.14118254 -0.26110256 -0.20775068 -0.3923113 0.12856975 -0.17332242 -0.0430467 -0.31567594 0.09753254 -0.012321867 0.112429805 -0.12838668 -0.073655404 0.08974288 0.039560374 0.192658 -0.010021211 0.17159961 0.014790456 0.14230794 -0.07705376 -0.22527014 0.28076464 -0.06351921 0.18244286 0.22527213
252 0.3013329 -0.07563441 0.19992404 0.37643754 0.02214122 -0.034984153 0.12760928 -0.16003296 0.43336967 -0.3368507 0.08046127 -0.14404558 0.1781764 -0.1779943 0.30195293 -0.38460988 -0.035005916 -0.03022876 -0.1262252 -0.027404806 0.08799934 0.019896451 -0.23137926 0.20577875 0.14686091 -0.10538468 -0.12224696 -0.38279048 0.03630916 0.04668091 -0.10717821 -0.06275243 0.067659944 -0.2186966 0.14359954 -0.07057416 0.08995109 -0.022368541 -0.24329549 0.13280272 -0.31144238 -0.12707506 -0.12831557 -0.4265095 0.15956156 -0.35243526 -0.30813813 0.14049658 0.3411003 0.064739645 -0.26525974 0.12691517 0.13900906 0.06937603 -0.11096996 -0.12847202 -0.22638766 -0.22921969 -0.31561714 -0.045969553 0.11377035 0.24790922 -0.17804512 0.3052211
96 0.1883957 0.13307267 0.14380044 0.5946983 -0.053687964 0.06978237 0.09287593 0.23148826 0.08382738 -0.14922637 -0.17495063 0.021526923 0.14413093 0.15813579 0.018866977 -0.37411448 -0.06215776 -0.14656165 -0.18823655 -0.106346704 0.014807787 -0.25850984 -0.32150432 -0.11124377 0.24552254 -0.006670015 -0.21540236 -0.16689019 0.027990982 -0.0010247177 -0.013986233 0.38249144 -0.2558193 0.047038227 0.526897 0.020478537 0.71358776 -0.1312348 0.32385874 0.15662393 0.08750685 0.033109255 0.093066014 -0.06793265 -0.2478399 -0.35175672 -0.1613256 0.3076832 -0.06256867 -0.13599543 -0.497347 -0.01991013 -0.2949006 0.13117793 -0.29750526 -0.23555444 -0.08338519 -0.28625265 0.23565727 0.049140237 0.13475813 0.15411174 -0.009470178 0.2055635
212 -0.026108392 0.004041283 0.3448097 0.2806073 -0.23209397 0.098458625 0.15013944 -0.07857033 -0.10190143 -0.022583546 0.019160543 0.044222068 -0.08252618 0.10859662 -0.14558789 -0.30788937 -0.12427859 0.0068391473 0.1016036 0.12548438 0.16947606 -0.10665667 -0.21243937 -0.12057809 0.24799606 0.20983584 0.08000168 -0.47198597 -0.14773026 0.22560902 -0.23801512 0.040715225 -0.07048572 0.09653877 -0.17100535 -0.13977592 -0.027070764 -0.056178417 0.034967743 -0.25395197 0.038545974 -0.2788142 0.07540512 0.025964625 0.13310221 0.13176884 0.043700878 -0.046216868 0.11947035 0.031377267 -0.2668828 0.20091034 -0.05594319 0.29762352 0.13567714 0.038775392 0.22730134 0.29712698 -0.28647727 -0.0138902515 0.15902068 0.057947285 -0.004858788 0.18448584
169 -0.25662446 0.114310294 0.039321788 0.21147202 -0.34715804 0.16568282 -0.2841845 0.25137547 0.009332469 -0.35600683 0.2516163 -0.009861354 0.114848725 0.05470859 -0.08447478 -0.19779883 -0.16396149 0.06585472 0.1989674 -0.1169068 0.24782774 0.07438528 -0.1498764 0.037126597 0.23442334 -0.1935941 0.06133409 -0.2767895 0.15721855 0.053501118 -0.18832514 0.0590272 -0.18972154 0.052170843 -0.31027228 0.03910529 0.3973027 0.065828584 0.100970715 -0.12709871 -0.021783106 -0.056724597 0.1717448 -0.19373357 -0.10647728 -0.1246815 0.10352013 -0.0342565 0.1758266 0.099024735 -0.32465512 -0.040142328 -0.108078174 -0.007549124 0.11647386 -0.23639949 0.045952786 -0.21654582 0.16211274 -0.19026971 0.39266565 0.08308452 -0.022121452 -0.06571955
165 -0.22534999 0.10525227 0.42231593 0.40422258 -0.17985815 -0.023852957 -0.15822056 0.22468437 0.089551955 0.017230306 0.13048756 0.06685078 -0.08531911 0.35586947 -0.14387643 -0.21074086 -0.22849174 0.1774853 0.078949444 -0.033526912 0.15090373 0.14644659 -0.105224036 -0.19212824 0.09102975 -0.26843446 -0.08655256 -0.1406093 0.050409306 0.22034034 -0.43151695 -0.14157745 -0.20545763 0.041316483 0.0136424005 0.120727725 0.32372823 0.013010074 0.16019583 -0.18468775 0.19151168 0.12231001 0.007670331 0.10278474 -0.0046643363 -0.0667042 0.039012376 0.02433266 0.31235483 0.001986808 -0.2716699 0.045955554 -0.17797633 -0.029198242 0.25199574 -0.14817996 0.018823419 -0.093042664 0.46281037 -0.2967107 0.35864556 0.038260188 -0.21785073 0.099618144
6 0.14103116 -0.35026515 0.42076412 0.021976843 -0.14311084 -0.035977893 -0.07544524 0.3171347 0.17039444 -0.095854014 -0.0120401485 0.10784954 0.22924845 -0.08076849 0.23663378 -0.10199957 -0.39737618 0.13843279 -0.19784115 0.29851985 0.5122175 0.05231365 0.0048679872 -0.0075127915 0.061755314 -0.03160063 -0.38328698 -0.17725143 0.040428523 0.20133793 -0.17850912 -0.045949828 -0.15300912 -0.30782494 0.0033407924 -0.35123873 0.2022616 0.23280428 0.12017709 -0.15970442 -0.11681869 -0.26814523 -0.11521291 -0.48864645 0.17873824 -0.16804121 0.1181837 0.008330422 -0.27978712 -0.43552798 0.009063218 -0.13780762 -0.08091974 0.31637996 0.05469212 -0.22100618 -0.24872196 -0.21342279 -0.4240397 0.26509902 -0.12733209 0.4621099 -0.25468442 0.42652225
81 0.19298786 -0.1260892 0.18488482 0.056399845 -0.23344176 0.058008432 -0.13668543 0.26593858 0.16349559 -0.15209353 0.12768964 -0.07127402 0.13015646 0.29980388 -0.004226916 -0.19566146 -0.22879928 0.015581862 0.14298415 -0.15852658 0.10795218 -0.18712056 -0.17656687 -0.13118845 -0.031875674 -0.1445557 -0.35808057 -0.5530555 0.013582586 -0.12637714 -0.25929058 -0.03733616 0.112671606 -0.09621128 -0.21067458 -0.20166013 -0.089038104 -0.078401536 -0.119138494 -0.19030684 -0.39330393 -0.28026995 0.29303494 0.07351868 3.0401558e-05 -0.12972763 -0.087374404 -0.16840208 0.09690438 -0.061516706 0.048126176 0.24988699 0.06273534 0.18551272 0.03374136 0.18206938 0.054104708 -0.059857227 -0.05507542 -0.12705168 0.18349226 0.3115945 0.401704 -0.012956147
494 -0.054882795 -0.14673783 0.2575046 0.27719954 -0.24852018 -0.38067964 -0.2586206 0.39467126 0.079453565 -0.103327796 0.17496271 -0.24410933 -0.04817741 0.025775673 0.09659547 -0.323939 -0.04704127 0.19904375 -0.20681553 0.12590861 0.24181402 0.040801648 -0.30680093 0.33926526 -0.027493948 0.5663322 -0.33946028 -0.1790351 -0.11223466 0.23222086 -0.17883968 -0.05308495 -0.33773547 -0.20598075 0.3627909 -0.033834815 0.043633256 -0.17781752 0.18258259 0.09747221 -0.17801152 -0.16023874 0.40301222 -0.014747634 0.12613933 0.25039536 0.079406634 0.089105345 0.043689493 0.22193125 0.1728248 -0.04979841 -0.13417944 0.03148406 0.20919353 0.03431304 0.41947475 0.23732688 0.1673856 -0.2168526 0.11931725 0.27821007 0.08017325 0.22804882
17 0.13959494 -0.040036485 0.31920296 0.08647903 -0.04908443 -0.03482364 -0.011077648 0.16143206 0.057105105 0.032441724 -0.1816641 -0.05735038 -0.079346575 0.024744317 -0.166667 -0.1981982 -0.18956013 -0.11247189 -0.12934127 0.20538774 0.12308326 -0.12664202 -0.21031733 0.0812846 -0.17639217 -0.032436084 0.102823414 -0.28391877 -0.013061859 0.37150472 -0.2915978 -0.06698813 0.17195016 0.35956734 -0.025320465 -0.11330233 -0.3451227 -0.16669539 -0.3388663 0.095020965 0.012214398 -0.21280028 -0.0014809627 -0.2928995 0.01609889 -0.19503547 0.2363613 0.20512512 0.1359834 -0.023334661 -0.3655126 0.15320544 0.092733115 -0.26907474 0.46563905 -0.044160813 0.020446464 0.4776696 -0.2645915 -0.2783631 0.04715862 0.24380189 0.1873267 -0.10544172
473 -0.04026477 0.097890384 0.3672147 0.16901322 -0.33951804 0.0025388403 -0.27521107 0.1455367 0.023928352 -0.25769842 -0.13778271 -0.041151233 -0.29746518 -0.120339185 -0.41364044 -0.24570927 -0.22707297 -0.057797037 -0.12477542 0.010275672 0.24294227 -0.2812761 0.047361158 -0.42771122 -0.12890911 -0.055519763 -0.13349946 -0.37536696 -0.13795993 0.016227428 -0.29669446 0.11893641 -0.20994648 -0.22997852 -0.27395645 -0.2765099 0.026744159 -0.45160916 0.01976771 -0.0659738 -0.20322862 -0.14865896 -0.03969261 -0.05201323 0.15534522 -0.1063791 -0.030830108 -0.111993946 -0.051393207 -0.20865571 0.14421546 -0.23371312 -0.16250896 0.2604728 0.0079542715 0.24699312 -0.33536285 0.14216216 -0.20352072 -0.123823024 0.08915303 -0.10654858 0.14970411 0.03659325
411 0.1690147 -0.043260295 0.10888879 0.38478297 0.13821127 0.10299918 -0.272367 0.23022524 0.1980625 -0.5278689 -0.10048642 0.13888025 0.23487145 -0.35524574 0.12066679 -0.43285972 -0.013629159 0.10110279 -0.40702534 -0.3562749 0.27782047 -0.26197636 -0.096938215 -0.094351985 0.35818082 -0.0032875391 0.2356564 -0.08153174 0.12442152 -0.014527205 -0.0061274557 0.06453191 -0.072016925 -0.24099994 -0.021363001 0.0979569 0.46568108 -0.09124067 0.37411225 0.12641552 0.01448766 0.010153481 0.22681445 -0.30011705 0.13721167 -0.30050763 -0.24997368 -0.058314398 0.36558756 -0.5820088 -0.11846256 -0.13035382 -0.1718977 0.35669503 0.019602222 -0.06298511 0.06572337 0.2552449 -0.10898656 0.25019214 0.34499142 0.2243564 -0.054505646 0.36993375
133 -0.20459953 -0.17951246 0.24239646 0.16597958 -0.28992224 -0.2646506 -0.50541246 0.27763134 0.0032980957 0.1512847 -0.30158547 0.14039712 0.2693472 0.30690643 0.018304672 -0.0013189669 -0.24319313 0.32392654 0.10847291 0.111150995 0.28224498 0.029575903 -0.017439196 -0.5300457 -0.027222538 -0.18384816 0.19387901 -0.22246858 -0.11149428 0.28844008 -0.458874 -0.039376035 -0.32071587 -0.06400375 -0.08326456 -0.057248868 0.061866228 0.16055363 0.14816198 -0.054707963 0.13352299 -0.023205668 0.04969304 -0.27949744 -0.14082006 -0.20781603 0.00018198014 0.12880522 0.081132725 0.057224542 -0.15255144 -0.10184926 0.16437909 0.005075661 0.26422906 -0.007906657 -0.27206022 0.10135284 0.21462202 -0.11684915 0.033547003 -0.21445467 -0.029047212 0.31612378
44 0.10054744 -0.16146752 0.32432556 0.13018617 -0.15837696 -0.067968346 -0.14314345 0.39389315 -0.44388208 -0.1451226 -0.19524522 0.043891456 -0.10064389 0.3006225 -0.12137497 -0.0090705035 -0.097068325 0.09309664 -0.17033415 -0.0820054 -0.12665148 -0.2365628 -0.2910138 -0.0023356688 0.13044567 0.10959432 -0.21256295 -0.373588 -0.11246479 0.23075475 -0.36727718 -0.06411439 -0.16164261 -0.042739328 -0.6357445 -0.018107459 -0.077522196 0.020784417 0.2818837 0.0031838035 -0.122200415 -0.30395734 0.14230822 -0.13990007 0.22550726 -0.189367 0.06344243 0.010333437 0.50788414 0.3391222 -0.1967724 -0.14942673 0.16142552 -0.14275134 -0.1506778 0.44085282 -0.06874715 -0.40731227 0.0044019856 -0.25700167 0.27393007 0.28517035 0.3028793 0.029054092
340 -0.11328979 0.07175992 0.016111733 0.19426039 -0.21992004 -0.0698326 0.038444694 0.43243963 -0.047236495 0.32040286 -0.26446092 -0.26828283 0.16471681 0.4497198 -0.027021686 -0.21042818 0.1194673 0.21867616 -0.055267908 -0.11956898 -0.16104788 -0.09015053 -0.43228072 -0.14574873 0.24384551 -0.3392503 0.27807018 -0.07747193 0.041188836 0.06700519 -0.3120084 -0.009299579 -0.3653955 -0.099658325 -0.35043347 -0.2212403 0.24218044 -0.27393526 0.028783916 0.30156967 0.16823888 -0.31408858 0.02440306 -0.20013517 -0.09402536 0.06258068 -0.0020302185 0.15855674 0.09488541 -0.09643499 -0.054945063 0.12881494 -0.14431323 0.13026616 0.15598659 -0.28963703 0.2595952 0.0153148165 -0.07000531 -0.51899153 -0.092051335 0.07608548 0.22690718 0.21927378
366 -0.15820472 -0.23396227 -0.07423717 0.454025 -0.37638852 0.13384204 0.16087668 0.094472565 0.084808365 0.0813277 0.057534244 0.10172735 0.108691305 -0.12001524 -0.043555897 0.024375768 0.26295418 -0.1277214 -0.15912949 -0.26714644 0.1575543 -0.17717424 -0.3783272 0.122951195 0.14903781 -0.103570804 -0.36440337 -0.14816192 -0.07473055 0.3635281 -0.2534693 0.17399238 0.08576183 -0.04389012 -0.15595655 0.05983223 -0.14557247 -0.43249828 -0.09279415 0.25677556 0.3398224 -0.07442793 0.30808806 -0.2805134 0.2868445 0.0018045343 -0.103865124 0.21953845 0.2350845 0.17995262 -0.1721524 -0.29225227 0.17492026 0.021014914 0.45903933 0.0885793 -0.007487747 0.24555455 -0.13602 -0.1315917 0.120637596 0.20402665 0.17487329 0.05580424
28 -0.13117298 0.08809014 0.28555107 0.3282821 -0.12308691 0.06114489 -0.13068181 0.57124853 0.12676601 -0.28426135 0.1333715 0.0018867208 0.029433329 0.030797776 -0.10210971 -0.05682618 -0.041203525 0.15280126 0.13583238 0.04841608 -0.07438952 -0.0132063385 -0.08745084 -0.022799488 0.23627329 -0.20701857 -0.16900833 -0.5003431 0.15757802 0.043165907 -0.39019364 -0.2649803 -0.2282907 -0.24700004 0.026033252 0.1421979 0.12351005 -0.0053076525 0.055793595 0.02454984 -0.08387984 -0.17980833 0.072245315 0.069439076 -0.0820522 -0.12644209 0.036722414 -0.32905897 -0.0006636517 0.08234019 -0.3882538 -0.17440382 0.005772914 -0.012960753 0.21135484 0.008903981 -0.1944218 -0.277545 0.3112329 -0.34699807 0.13749006 -0.10285953 0.16233061 -0.09126549
303 0.39797798 0.0351449 0.11473767 0.24703522 -0.12745403 0.11113831 0.28448242 -0.0036959045 0.20107561 -0.213786 0.08656654 -0.035775095 0.50664604 0.19343324 -0.07532329 -0.44093564 -0.19783087 -0.09095621 -0.06205273 -0.17970683 -0.0763484 0.07738005 -0.24878818 0.004811757 0.16243073 -0.2192249 -0.14758402 -0.40109855 0.18728328 0.30018824 -0.1768414 -0.004922632 -0.19457428 -0.16401425 -0.17274842 -0.1678782 0.15696529 0.15203243 0.020728717 0.09220127 -0.22002202 -0.2556163 -0.16950712 0.10737199 0.054598343 -0.28985634 -0.11450621 0.12824196 0.040523916 -0.17266092 -0.30019006 -0.08051127 0.17243363 0.2035339 -0.11703009 -0.028017621 0.029094674 -0.37610266 -0.29955658 -0.0037372846 0.12401687 0.062292695 0.17270821 0.023120036
546 -0.11084699 0.5112733 0.26388738 0.6608606 -0.20896535 0.16607279 0.099826224 -0.11749194 0.20570303 -0.19372807 -0.4308837 -0.10089356 -0.06660597 0.12243732 -0.33582902 0.082210936 0.10577819 0.107244164 -0.021126486 0.32550704 0.04788672 -0.076872066 -0.40266454 -0.06568374 0.22384486 0.18033837 0.0846881 -0.3638572 0.0808488 0.42129666 -0.09754235 -0.073455594 -0.07860919 0.18525563 -0.095658205 -0.0667801 -0.14763783 -0.15801197 0.22218867 0.046476137 -0.095337756 -0.130136 -0.44428587 0.016466554 0.25718805 -0.1783051 0.0027767424 -0.05591693 0.12390697 -0.1373774 0.06735021 0.091526665 -0.17627437 0.20748948 0.017006433 0.41091555 0.011688331 0.11622663 -0.22269064 0.063055605 -0.24112882 0.44175363 0.053196542 0.19801496
419 -0.16207074 -0.15802813 0.31293494 0.47300875 -0.18444166 -0.055805072 0.007373534 0.17477776 -0.09011432 -0.067769065 -0.37026334 -0.54370147 0.12088517 0.25610402 0.005812313 0.087316126 0.18231297 -0.043141566 0.0022656247 0.1018811 0.025905756 -0.0720905 -0.11262882 0.17100613 0.064267784 -0.08795207 0.23082933 -0.3274531 0.052663025 -0.19752188 0.039536063 0.08136069 -0.18857607 0.1775273 -0.31924158 -0.093521304 0.2593655 -0.49781844 -0.006320882 -0.033611994 -0.08589184 -0.2890632 0.17382881 -0.22912855 -0.15685 0.10850126 0.14738405 0.015157247 -0.06542092 -0.30146146 -0.29617348 -0.28595498 0.13962759 0.21861677 -0.027951766 0.23207171 -0.33995792 0.010934138 0.0031444335 -0.21989734 0.33998352 -0.12229576 0.07868543 0.24867992
329 0.2397415 0.028946295 0.25758833 0.21523833 0.23014139 -0.021312755 0.024008442 0.15445045 0.13819212 -0.10760229 0.30448738 0.09225348 0.08250758 0.24392034 -0.28494793 -0.09884439 0.03608674 -0.04010383 -0.057664946 -0.13498023 0.12724942 0.07095249 -0.31227112 -0.019884283 0.060293585 -0.046897132 -0.022841565 -0.550906 0.25168732 -0.10267493 -0.07081451 0.19602007 -0.1512828 -0.009624548 -0.24634461 -0.25488213 0.07914016 -0.28102854 0.06138639 -0.10661356 -0.07184503 -0.23669149 0.07983676 -0.13128883 -0.32995993 0.19094698 0.2826821 0.11773351 -0.091646746 0.13367398 -0.2433995 0.1305168 -0.2826868 0.112320326 0.0074816244 0.19109385 -0.17015843 -0.03476405 0.16990082 -0.06785029 0.33507872 0.16096242 0.38846874 0.1764908
971 0.36726582 -0.054103915 0.22334553 0.63507724 -0.36271152 -0.1864924 -0.033515275 0.36787543 0.0664372 0.2682421 0.0145269325 0.03839261 0.04010785 -0.17082515 0.15328018 -0.33407602 -0.08938442 0.059867095 0.08864991 -0.10292426 0.22866975 -0.16085827 0.028352926 -0.20325424 -0.1885557 -0.21626791 -0.32220718 0.020874104 -0.127286 0.14224032 -0.44991246 -0.06079934 -0.26033658 0.13918045 0.0021947853 -0.19635496 -0.34969136 -0.06341744 0.24844663 0.5203589 -0.28774437 0.082754046 0.26838714 -0.659984 -0.28354818 -0.15741569 -0.44538587 0.35351902 0.58535 0.010540956 0.35417846 -0.44718164 -0.31655845 -0.031482242 -0.49051803 0.33796564 -0.46188918 -0.19217128 0.3418575 -0.15327944 0.28564495 0.24426825 0.5834141 0.28282177
932 -0.006491152 -0.24306527 0.18713388 0.42530724 -0.29323035 -0.08719556 0.13695426 -0.16593803 -0.0037805338 -0.12208728 -0.0802148 -0.2152286 -0.17484151 0.12026761 -0.17886296 -0.51709086 0.08400572 0.12324487 -0.087319665 0.04301943 0.2823194 -0.12561323 -0.34597778 0.070196435 0.11929895 0.22313339 0.19900122 -0.42206457 0.016089741 0.32111055 -0.24009503 -0.038635354 -0.07041659 0.04647074 -0.06595889 -0.10176528 -0.18833292 -0.24142557 0.117980786 -0.23194396 -0.20768598 -0.3843333 0.071237445 -0.10317738 -0.07805197 0.13172479 -0.11544711 -0.08560326 -0.0043389886 0.22706738 -0.35867333 -0.17636365 -0.03058493 0.13231717 -0.011104221 0.02324186 0.044943336 0.2844748 -0.020389797 0.21077886 0.0999304 -0.013522454 -0.13402659 -0.09107954
170 -0.19452228 0.23785943 0.16783342 0.0065292944 -0.3382594 -0.10277632 -0.06530713 0.43381387 0.07135367 -0.30989954 -0.1070557 0.0019101545 -0.17589173 0.17670734 0.13342656 -0.25042966 0.1329913 -0.3058272 0.0010687015 -0.2260218 0.01903858 0.06269624 -0.083497286 0.106201276 -0.054204587 -0.2955103 0.2780667 -0.34074613 0.098358914 0.14789434 -0.29162842 0.18147133 -0.20452936 0.034835108 0.11506767 0.056434095 0.5096966 -0.09999102 -0.017132446 -0.017756004 -0.26243684 -0.079671346 0.16242139 -0.13722919 0.03274884 -0.13056207 0.013251862 -0.12586747 0.41375276 -0.06806203 -0.06358347 -0.23284231 -0.45434472 0.13249093 0.11903001 -0.16252571 -0.104371965 0.0874704 0.051074944 -0.14725395 0.5873795 0.029547209 -0.23124401 -0.17598782
2 0.18186438 -0.49581143 0.42201102 -0.018548993 -0.028433705 0.10852196 0.09728016 -0.07878942 0.15701039 -0.29086372 0.16912757 0.041559357 0.22628012 -0.069051825 -0.025496373 -0.5526487 0.048867125 0.29113796 -0.2373599 0.29353595 0.42620596 -0.16313264 -0.18803217 0.010387254 0.3728505 -0.49470726 -0.12515679 -0.22028838 -0.049232364 0.19168983 0.14615867 0.12370516 0.108910464 -0.21095781 -0.040682565 0.004566255 0.14737019 -0.13734224 0.14258572 -0.12555504 -0.046109784 0.06763066 -0.19462357 -0.35942551 0.020214655 -0.32311395 -0.16701625 -0.020454828 0.30552173 -0.12929977 -0.1358857 -0.031275302 5.4908756e-05 0.13840704 -0.07731451 0.12147505 0.18195948 -0.07285986 -0.1984163 0.07929501 -0.07884222 0.5603543 -0.08138399 0.447725
4 0.43200853 -0.29680428 0.22359633 -0.04610497 -0.19054322 0.06118985 0.21682882 0.16589949 0.23010977 -0.24665064 -0.024715321 0.11384118 0.21351689 -0.1387203 0.12158723 -0.5340693 -0.10837216 0.20179443 0.107374914 0.10812039 0.34084156 -0.14235611 -0.13896352 -0.023877228 0.19072428 -0.5659494 -0.035292182 -0.32016164 -0.11209482 0.04076144 0.19480829 0.15393825 0.03146957 -0.21681781 -0.13280779 0.12298923 0.2875128 0.07359485 0.0825073 0.05869473 -0.11690887 -0.0022477899 0.054918576 -0.38711718 -0.002680071 -0.30274504 -0.013258543 -0.14259009 0.28338692 0.0040142345 -0.26312572 0.079818696 0.036109034 0.13292567 0.14987706 0.15942892 -0.03021482 -0.07728572 -0.352365 0.21670441 0.2105732 0.50449926 0.14492014 0.3460816
172 -0.1078041 -0.19789796 0.17589016 0.2731343 -0.0793379 -0.20018958 -0.09052928 0.4434738 -0.059672873 -0.12605944 -0.14060944 -0.45301417 0.2583986 0.3120278 -0.058561143 0.12399915 -0.15787444 0.056991365 0.15712212 0.122880235 0.28774625 -0.036580846 -0.059551187 -0.303964 -0.27685216 -0.16374546 -0.05603947 -0.2862778 0.20043497 0.206575 -0.08888443 -0.1865665 0.07705736 0.0017243049 -0.00967691 0.13134213 0.24609856 0.3579338 -0.04015232 0.021082163 0.21850584 -0.12719767 -0.3467378 -0.104204856 -0.34776363 0.22829172 -0.040811315 0.21610713 0.28369993 -0.0666843 -0.396404 -0.14075029 0.32800847 0.15090789 0.2035539 0.30579045 0.042785335 0.08469544 0.258979 -0.04931162 0.16315633 -0.09142502 0.084206425 0.22418351
232 -0.05404005 -0.033526786 0.23883465 0.64515233 0.07362603 -0.22282422 -0.34385398 0.34672537 -0.038404286 -0.5450391 -0.17985015 -0.119871326 -0.059866503 0.19021893 0.08842327 0.32744235 -0.40233225 -0.12714861 -0.11235881 0.4771686 0.3536368 0.21363758 -0.13058716 -0.075689405 -0.3892698 -0.032147944 -0.01705915 0.123823434 0.02234429 0.18913311 -0.28199753 0.3258659 -0.6201825 0.002212144 0.10059884 -0.36212555 -0.3725019 0.06874719 -0.17658006 -0.026027987 -0.0046602585 -0.016187033 -0.17415743 -0.47803643 -0.08863318 0.14049785 -0.0830402 0.16004503 0.31600496 0.08079981 -0.1721853 -0.23345569 0.39333016 0.06557653 0.07216496 0.18615577 -0.049746368 0.10921775 -0.051321045 0.09931763 0.42171258 0.28692734 -0.017894628 -0.023731269
365 0.056092355 -0.42248595 0.4036526 0.28367737 -0.26124015 0.029799562 -0.15160652 0.31917408 0.15569846 0.03696462 0.016281942 -0.11323426 0.26560017 0.079797424 -0.2021809 -0.1460427 0.11493222 0.15889052 -0.031276744 -0.21686521 -0.2609152 0.25133586 -0.21682091 -0.016298966 -0.2636366 0.06636866 -0.23191905 -0.47953805 -0.2324651 0.22746308 -0.4133483 0.062223222 -0.18641432 0.12618874 -0.60986763 -0.057734337 0.075079486 0.22947381 0.2955441 -0.23911981 -0.25196788 -0.09153627 0.1544949 0.23132312 -0.15712829 -0.04237008 0.16650407 0.234506 0.22989331 -0.08626442 -0.21181259 -0.0974902 -0.17112243 0.031552117 -0.018834813 0.30064055 -0.028343773 0.094843246 -0.37425733 -0.25844464 0.13969235 -0.071929 -0.11962807 -0.11215143
65 0.027147833 -0.10371117 -0.03839322 0.12983425 -0.16151117 -0.036637366 -0.24607123 0.46196994 -0.17252293 -0.31959856 -0.4212759 -0.2977554 0.1503766 0.5789439 -0.24087267 0.081534445 -0.15748152 -0.06722863 0.09480411 0.26233917 0.12395355 0.23852676 0.17829257 -0.14470209 -0.022594452 -0.06897344 -0.23451254 -0.1888542 -0.4566172 0.15177001 -0.20683351 0.611779 -0.23744574 -0.23151408 0.1864337 -0.21405901 0.2846934 0.24103747 0.10112802 -0.030488895 0.36205098 0.049215015 0.012247338 -0.5502551 -0.20327638 0.2730549 0.09252525 0.21811071 0.33873594 0.15064882 -0.030508405 -0.08448264 -0.026460309 -0.03577515 0.66105884 0.30977026 -0.16826239 -0.1944038 -0.09338507 0.2728824 0.040670365 0.43774816 0.17861365 -0.12729226
41 -0.120784864 0.07495005 -0.08311726 0.28512207 -0.19321159 0.20586064 -0.25321293 0.078396805 -0.36656883 -0.024526263 -0.23499209 -0.1588319 0.0833049 0.43048602 0.059906084 -0.14820322 -0.33272654 0.03729717 0.29155052 0.107738845 0.025374237 0.24675119 -0.556729 -0.16219045 -0.025347577 0.08516289 0.049358897 -0.16731004 -0.025358867 0.28386822 -0.37907 -0.283982 0.036065668 -0.19270617 -0.015133062 -0.030471414 0.1032367 -0.0014812754 -0.06875326 0.37215304 -0.03285526 0.1791052 -0.25846094 -0.33269873 -0.21728167 0.09648168 0.13473023 0.124274515 0.19108103 -0.11700284 -0.3091536 -0.16168238 -0.07184176 -0.15826248 0.07942808 0.14977019 -0.009359735 0.22869593 0.34495577 -0.05335108 0.16475105 0.24677734 0.041051473 0.25874555
74 -0.018200133 -0.25033984 0.16280837 0.098152496 0.13797899 -0.11710423 -0.15544608 0.41179237 0.17219375 -0.075314336 -0.2679337 -0.0009921038 0.14861645 0.06715462 -0.29153892 -0.12886629 0.12698144 0.05764374 -0.3029761 -0.10797405 -0.029219495 -0.14747849 -0.07396828 -0.19698158 -0.12206735 0.09166997 -0.016437208 0.015803024 0.029150976 0.22420242 -0.35841647 -0.16078345 -0.10145467 0.46237376 0.023073075 -0.096128136 -0.33096042 -0.07949871 -0.43029675 0.2611016 0.135489 -0.03755005 0.1622113 -0.31279472 0.051711246 -0.14940974 0.21736026 0.31592327 0.054362804 -0.14985609 -0.21699491 -0.14882633 -0.042348064 -0.14154926 0.30994162 -0.48123288 -0.017334605 0.43482885 -0.25689507 -0.4188409 0.58630675 0.3269571 0.22925396 0.055973735
215 -0.28564084 -0.16858573 0.173979 0.48068208 0.13747266 -0.20187481 -0.1304199 0.05951683 0.029301215 -0.1865987 0.1409808 0.025815394 -0.18393749 0.16842379 -0.08287546 -0.27743733 -0.21311535 0.0038102043 -0.4420414 -0.4088306 0.07911383 -0.30970326 0.13369605 -0.03661991 -0.012288927 -0.013341414 -0.12250124 -0.33189434 -0.19131637 -0.07588089 -0.3567895 -0.0017109661 0.09955701 0.2856408 0.052073553 -0.29517978 -0.31035838 0.20395528 -0.34763855 0.16883211 0.15316752 0.010678965 -0.041222643 -0.06686964 0.11959497 -0.3275481 0.59469426 0.14159201 0.0017480196 -0.12975399 -0.30011553 -0.06433274 0.026321322 0.31454843 0.38824135 0.06313128 0.24912451 0.28520036 -0.14892627 0.14165968 0.15425713 0.33985952 0.064298 0.08186368
285 0.2285707 -0.30697227 -0.010293583 0.34227452 0.008097934 -0.07836307 0.1255761 -0.09211829 0.14136535 -0.33366585 -0.28201038 -0.05938303 0.12288819 -0.16646506 0.0074054697 -0.39812678 0.1518956 -0.0200434 -0.04449395 -0.083858624 0.15653962 0.04136733 0.14358707 -0.008901894 0.06828888 -0.43465877 -0.24657387 -0.35077095 0.040138222 0.17157738 0.25288954 -0.1269195 0.12939215 -0.37394026 0.08996714 0.06994913 0.36479253 0.27649203 0.28110412 -0.097499765 0.19475006 -0.014912141 -0.1807924 -0.46216193 0.0698523 -0.032667182 -0.15790735 0.32661158 0.13195552 0.074366234 -0.095211186 -0.1226403 0.19149914 0.19903164 0.2066964 0.13059312 -0.058759484 -0.22555421 -0.36879206 -0.008175005 0.31461823 0.5768155 0.09536604 0.31077072
498 0.117954664 -0.5343139 0.14444593 0.3954357 -0.16712362 -0.05998151 -0.1468451 0.4587102 -0.2522655 -0.40635225 -0.4714264 -0.36751133 -0.16517591 0.2199754 -0.18292738 0.050130624 -0.24509937 -0.1513657 -0.119017236 0.35748276 -0.13224971 -0.3233143 -0.1664476 0.033098288 -0.15957451 0.035655722 -0.53890705 -0.011096648 -0.45243558 0.061890207 -0.2848658 0.041371055 -0.1786852 -0.043697894 -0.5963381 -0.2561754 -0.22406548 0.019242609 0.17804936 0.15101425 -0.012314309 -0.4373637 -0.1799497 -0.39739075 0.17591538 -0.15831642 0.19976743 -0.056535874 0.71209764 -0.0978498 -0.19739848 -0.028874455 -0.22170481 0.101387724 -0.10412322 -0.00019946793 0.17950422 -0.15769903 0.15291491 0.2083754 0.18784629 0.2840495 0.1962908 0.23793662
371 0.09293937 -0.14947575 0.048460003 0.22404245 -0.22937943 -0.10673398 -0.123680815 0.3143134 -0.09144533 -0.3575633 0.04021525 0.043180116 0.14875722 0.24175256 -0.07621918 -0.4013261 0.12990905 0.21892159 0.30700162 -0.21807098 -0.08349294 0.16729227 -0.014723455 0.10841875 0.16138424 -0.08594871 -0.05538791 -0.44066918 0.038110595 0.11332844 0.16863638 -0.04907901 -0.22889031 -0.07118703 -0.103139 0.008056439 -0.076287836 -0.4283275 -0.07448008 -0.46127206 0.038848873 -0.23475729 0.019660633 -0.014121327 -0.1375575 -0.28027648 0.24753222 0.12254663 0.21135938 0.1980526 -0.13541421 -0.10931756 -0.050620314 0.09275283 0.036969196 0.28598604 0.13436125 -0.07810861 -0.49766618 -0.0777013 0.08822765 0.08988981 0.022681676 -0.07875954
493 0.06749972 0.025397282 0.28637165 0.14266632 0.033213377 -0.004669982 -0.45761168 0.22212945 -0.049525462 -0.2448185 -0.28016183 -0.59883076 0.049344763 0.16726264 -0.06909935 0.13193934 -0.3752862 0.13902566 0.27805012 0.2132568 0.29374242 0.0790267 -0.15574768 0.17977543 0.0015176159 0.014354831 0.4355753 -0.49056783 0.10963116 0.20087701 -0.29474252 -0.07628903 -0.083373226 -0.08087213 -0.08266804 0.07901196 0.13531277 0.25007737 -0.010731491 0.0024022087 0.14032602 0.026935553 -0.24800794 -0.031088773 0.20361376 0.18347451 -0.13822643 0.42722672 0.09484011 0.16762407 -0.0031137704 -0.34864777 0.21116096 0.18302935 0.325151 0.06907188 -0.30931735 0.14619242 -0.09999442 0.011331192 0.0052672955 0.2526773 0.42833444 0.15565163
93 -0.08652641 0.12946579 0.19038528 0.2919411 -0.25590926 -0.507408 -0.53325266 0.250957 -0.17956062 -0.14763585 -0.08517946 0.073125884 0.25966066 0.2498368 -0.15865885 -0.095942155 0.03018315 0.13003139 0.092596486 0.19013625 0.3272556 0.15606111 0.12350475 -0.10656004 -0.24064445 0.20962057 0.0402683 -0.26178077 -0.11700353 0.2939424 -0.30324167 0.34010172 -0.21990035 -0.20463884 0.068745874 0.0047624456 0.3324405 0.22768283 -0.35045913 0.05643325 -0.0365509 -0.08097101 -0.21319242 -0.15134984 0.18601118 0.12867084 0.05870023 -0.08547441 0.25715992 0.10349754 -0.0033054524 -0.34986165 0.12344463 0.091719605 0.22569166 -0.14336826 0.06641061 -0.16839 0.63539183 -0.2807936 0.20313166 -0.032475237 0.16576771 0.49656916
113 -0.09820717 0.0643512 0.5732957 0.3312963 0.014015933 -0.28091595 0.01724872 0.26264915 -0.15957469 -0.07326212 0.15237467 0.17839958 -0.045186136 0.31019175 -0.09903161 -0.13682179 0.12754679 -0.11873134 0.084189765 0.1113321 0.24122258 0.06543552 -0.22709769 -0.31540743 -0.1371417 -0.05188956 -0.025991155 -0.17486353 0.27132764 0.01875224 -0.50330716 0.28324458 -0.3616219 -0.4048459 0.24065012 0.16305478 0.05987767 -0.030166827 0.19263385 -0.1114844 0.06079343 0.011532101 -0.2798012 -0.05962201 -0.026655145 -0.10309351 0.03544924 0.21397012 0.36477464 -0.13480443 -0.3064013 -0.12775134 0.03956724 -0.032414507 -0.068768464 -0.35778028 -0.04749058 0.21463692 0.3656621 0.103792444 0.36955944 0.053752895 0.27951777 -0.28617007
137 0.4592582 -0.20266515 0.25712487 0.4197001 -0.13125792 0.09284094 0.14476568 0.07642373 0.43024763 -0.36404884 0.05150494 0.09863714 0.14037615 0.116706304 -0.3106643 -0.3217734 0.12386711 0.07647379 0.07463546 -0.20970927 -0.027623773 -0.06419512 -0.2032841 0.098971695 -0.072960146 -0.41537938 -0.20407179 -0.2530498 0.1865528 0.15079573 0.16002 0.021821314 0.04750858 -0.32130533 0.07312338 -0.0073469654 -0.083076276 0.08545574 -0.04206338 -0.086113945 -0.31848028 0.17641 -0.15067278 -0.4451005 0.14623076 0.04154784 -0.041033458 -0.14318122 -0.09053474 0.0011716966 -0.19640741 -0.20519117 -0.19273989 0.2501847 -0.056729164 0.13448168 0.22589497 -0.25184107 -0.3632818 0.0027162628 0.13973854 0.38158703 0.142253 0.294653
210 0.09901585 0.057515286 0.11432024 0.21488951 -0.39869028 -0.23861845 0.08974569 -0.11089845 0.24102546 -0.740194 0.13364597 -0.15026718 0.30367568 0.23069803 -0.17760678 -0.2725907 -0.124140725 -0.018591423 -0.10030326 -0.2302252 -0.109563306 0.0899986 -0.4280307 0.23552336 0.11974552 -0.2229384 0.005922386 -0.35626104 -0.011038741 0.2636125 0.000892755 0.08750964 -0.13314681 -0.119651824 -0.12421377 0.12141136 -0.35715947 -0.026014023 0.15705119 0.0117436 -0.15045592 -0.1924452 -0.019063395 -0.09753875 0.018141609 0.07502048 0.13596699 0.3427656 0.1357399 -0.08352358 -0.13320127 0.099033445 0.057526678 -0.027836526 -0.23852246 0.008173462 0.012833671 -0.16594738 -0.16019753 -0.005390808 -0.12210537 0.069556884 -0.029063616 0.051238976
409 -0.15507211 -0.22712532 0.22105476 0.08506737 -0.37398636 -0.29342934 0.16350564 0.24379571 -0.11634724 -0.1997241 0.14429432 0.058646135 0.103548504 0.3026076 -0.22865756 -0.005182942 -0.24708402 0.04164149 -0.04753647 0.36283454 0.1985983 0.32920775 0.22326846 -0.12768546 -0.24024633 -0.028267566 -0.58677864 -0.33003464 0.13808835 -0.13071643 -0.3515029 -0.16830471 0.056545254 -0.081773624 0.2522614 -0.34322992 0.3348291 -0.07388262 0.17726685 0.057531666 -0.30554613 -0.2206387 0.11299235 -0.36440668 -0.3946592 -0.24355192 0.040950745 0.057613846 0.6353232 0.19783522 0.34875426 -0.23371585 -0.3692174 0.19583519 0.14626786 -0.1379665 0.016116938 0.03540883 0.6220324 -0.27010792 -0.37530684 0.34380865 0.17710765 0.066876605
209 -0.1915437 -0.18705882 0.4093486 0.14012945 0.004918192 -0.27798048 -0.09561112 -0.3887865 0.21791866 -0.51850235 0.03852412 -0.25652385 0.22482386 0.37015465 -0.11285629 -0.23201619 -0.22816016 0.16115046 -0.1905634 -0.19935524 -0.3302348 -0.0111699775 -0.2401068 -0.038810257 0.09705033 -0.40366194 -0.07767436 -0.08933529 -0.100205906 0.32221612 0.013350924 0.26281103 0.021196716 -0.11629235 0.19532399 0.2300778 0.006071859 -0.031563163 0.19985335 0.057206117 -0.40706834 -0.487396 -0.32654282 -0.19961566 0.17886107 -0.47606578 -0.1937489 0.23375794 0.17995875 0.27947137 -0.15119728 0.1877341 0.19597217 0.12537387 0.09175257 0.090884835 0.042105045 -0.2047574 -0.27163634 0.13670696 -0.1849635 0.28104508 0.009351522 0.25429565
269 0.3017303 0.2772576 0.35128722 0.15525036 -0.39250433 0.09812441 0.19881922 0.13472667 -0.19086663 -0.52080244 0.008774623 -0.06849787 -0.12743865 0.20101759 -0.060189042 -0.3176473 0.18280132 0.20066397 -0.0057313717 0.10348539 -0.19869627 0.034694172 -0.27563852 0.10906019 -0.058920763 -0.17843987 0.010467673 -0.26843366 -0.18116587 0.44712645 -0.074353956 -0.042998742 0.37908345 0.03859956 0.024822071 -0.31136423 -0.22429447 -0.35017633 -0.108444124 -0.13322444 -0.32285514 -0.1916675 -0.29766962 -0.40523496 0.05844051 0.055333402 -0.007125827 0.6395496 0.06503088 0.020350507 0.05680942 0.0600321 -0.113416635 0.14330979 0.13157712 -0.22041045 0.14776258 -0.24120939 -0.18411632 0.11807233 -0.01132137 -0.21479653 0.03931362 0.14230117
295 -0.10684691 0.042011578 -0.03324374 0.091707624 -0.42276606 -0.48152465 -0.2617076 0.36712256 0.3642557 0.16647309 0.20670773 -0.1809992 -0.40263876 0.18807293 0.095465265 0.05941901 -0.16509297 -0.32274535 -0.36904436 0.05901025 0.04672503 -0.18944573 -0.02429818 -0.020913133 0.36115932 -0.14590837 0.17262049 -0.57545906 0.35395554 0.33920076 0.19987676 -0.039519276 -0.21454597 0.08861488 -0.2343242 -0.4110749 -0.120018214 0.34224746 -0.141661 0.020452483 -0.054211993 -0.23227014 0.039697036 -0.671753 0.033422828 0.1176406 0.38056692 0.40666932 0.09734742 -0.050787706 -0.45916528 -0.05674539 0.27565205 -0.0013002652 0.21949415 0.19109772 0.27868342 0.47577807 -0.13859034 0.020068476 0.042830054 0.13079952 0.0186066 -0.22039519
290 0.27617857 0.03509192 0.051982377 0.119996056 -0.030402677 -0.14418057 0.25054944 0.49926588 -0.19329922 -0.2330948 -0.07114809 -0.4398474 0.29972252 0.20454656 0.0064236494 0.1500691 -0.20424421 -0.040101644 -0.2293711 -0.04999467 0.36483243 0.35746452 -0.42181903 -0.08642287 0.17004053 -0.28102437 -0.019352576 -0.44192132 0.13147447 0.39244863 0.029529108 0.23130272 -0.38315862 0.07532391 -0.2400693 0.010645381 0.102576196 -0.1497743 -0.14158696 -0.13319843 0.09893323 0.07474942 -0.3173596 -0.045707177 0.21945314 0.2483984 0.37480956 0.079167984 -0.040989723 0.18792315 0.31661725 -0.14439245 0.08840795 0.23602104 0.21169879 -0.2371815 -0.170003 0.1437241 0.15782937 -0.20965886 -0.040642466 0.24292308 0.055573016 0.07844207
393 0.25201952 0.20875221 0.1522424 0.24848679 -0.16664708 -0.038335282 -0.018220883 0.16821355 -0.10499316 -0.12872592 0.28148592 -0.17260925 -0.26717737 0.06805677 0.14612493 0.09702132 -0.28939214 -0.11419686 -0.0976245 0.20701942 -0.16492283 -0.4236826 -0.12910613 -0.25323296 -0.038047574 -0.18754545 0.2535532 -0.4882622 0.19616774 0.6510549 0.1058855 -0.13457936 0.16108958 -0.16013193 -0.10827575 -0.23648436 0.11493463 0.054162186 -0.12925978 -0.10060676 -0.08817732 -0.35307735 -0.042200036 -0.47582904 0.20362101 0.012139301 -0.009576748 0.47196466 0.14294411 -0.0781229 -0.21118112 -0.16014396 0.06861413 -0.26945233 0.14397 0.20160428 0.08334569 0.5907843 -0.026322933 -0.21484531 -0.157845 0.33505496 -0.035285197 -0.35225925
180 0.11356167 0.119137876 0.496234 0.37418872 -0.12622233 -0.024488531 0.02613747 0.43238074 -0.20098686 -0.33183107 0.297221 -0.11561404 0.08328016 0.20566642 0.21190923 0.022405533 -0.060974963 -0.19224788 0.34993848 0.063464366 -0.19312665 0.0351602 -0.034184016 -0.35485047 -0.26751605 -0.14050533 0.26233593 -0.37106088 -0.17853864 0.33927867 -0.19350141 -0.29964164 0.29239994 -0.07530222 -0.2744855 0.00073242007 -0.11244272 0.14260514 0.0044002994 0.3045453 0.035496492 -0.2519327 0.13180612 -0.085453846 -0.17907533 0.4134914 -0.049068034 0.07327579 0.0767742 -0.070259504 -0.17034398 -0.2727935 0.4310566 -0.0015792107 0.2683914 -0.15395026 -0.09801246 0.5379153 -0.31302685 0.12589397 -0.008218932 0.28423834 -0.2356776 0.24917652
254 0.03744151 0.0017132611 0.064651474 0.6612723 -0.2928943 0.21208371 0.30092555 -0.114904806 -0.013691949 -0.104544185 -0.016072318 -0.08507656 -0.14592436 0.058951188 -0.19145136 -0.36043438 0.035335045 0.14527147 0.0672554 0.25146183 -0.039995372 0.0043338225 -0.24476738 0.12139299 0.18851969 0.019646743 0.2229601 -0.32743606 -0.09767334 0.34229445 -0.2109056 -0.11539284 -0.026480986 0.19473772 -0.11609338 -0.15301798 -0.20153168 -0.123858124 0.10216802 -0.30993995 0.07591268 -0.2227006 0.06352284 -0.258884 0.10601951 0.06691078 0.025400296 -0.20801327 0.031867206 0.19200574 -0.35157618 -0.11449571 0.076094836 0.39839122 0.16736259 -0.08664009 -0.014732249 0.15458798 -0.12188698 -0.0744997 0.17767419 0.094771706 0.06668648 0.052493643
404 0.39827105 -0.014600232 0.027929284 0.109975845 -0.067235656 -0.07319086 0.06370759 0.49942538 -0.12337654 -0.41333526 -0.017551677 0.043896765 -0.074739695 0.14531778 0.07392837 -0.57542944 0.11752112 0.03150176 0.22788309 0.056988258 -0.020567032 0.12408535 -0.18266521 0.0015574303 0.17344373 0.01606179 -0.020043314 -0.17764379 -0.09294604 0.19931093 0.19746587 -0.15887803 0.06391742 -0.13689114 0.06501234 0.055404156 0.08820033 -0.5692638 -0.2568456 -0.21136788 0.0041227294 -0.5095659 -0.051721573 0.08022954 0.21856086 -0.13594775 -0.05857494 0.50747347 0.27916664 0.17754604 -0.16914687 -0.25725377 0.012996758 -0.37952268 0.33384404 0.116776854 0.017666178 0.3362295 -0.26049554 -0.08163606 -0.23358907 0.14368957 0.14578952 0.24802247
141 0.13732654 -0.51393384 0.3939881 0.27198207 -0.13033059 -0.060249507 -0.36201015 0.65273476 -0.42317155 -0.09117373 -0.19925922 0.14619339 0.11417615 0.15791696 0.12987596 -0.11903276 -0.4931169 -0.069337204 -0.13219398 0.2731464 -0.3225349 -0.20216033 -0.33702263 -0.17329787 -0.09286939 0.07446078 -0.38427237 -0.23852608 -0.2026913 0.12146561 -0.19272691 0.14279245 -0.14852509 -0.20697473 -0.29207283 -0.21700001 -0.17559986 -0.18352218 0.25624695 0.15393591 -0.3094466 -0.35312963 0.049952734 -0.059778947 0.41853628 0.09715709 -0.0654049 0.000988262 0.5631934 0.30294544 -0.21870814 0.02226775 -0.072033234 -0.027469577 -0.10968239 0.15795355 0.0533005 -0.16455764 -0.080017775 -0.1747268 0.39956987 0.12355474 0.13913983 0.21456784
173 0.03896911 -0.08592585 0.2700362 0.4407204 -0.08921095 0.16621503 0.057833374 0.12644386 -0.321302 -0.082687594 -0.3143 0.14247482 0.24995683 0.090846054 -0.018944811 -0.1677979 0.154915 0.1760409 0.12175157 0.17138188 0.0008982639 -0.30404347 -0.3339582 -0.28525046 0.21055949 0.0015428744 0.02487917 -0.38869515 -0.11959456 0.021383425 -0.11177153 0.02587761 -0.043812074 0.24555607 -0.2934744 0.09289903 -0.1948597 -0.18699047 -0.31081498 -0.09975782 -0.07570761 -0.34494773 -0.13454121 -0.09828714 0.14204742 -0.05313565 -0.1987206 0.23423892 -0.17833614 -0.012382446 -0.2817786 -0.26194254 -0.3604704 -0.058326825 0.092584506 -0.4256861 0.08975462 0.06090699 0.024342796 -0.1374603 -0.37621614 0.5887188 0.33282813 -0.042635173
438 -0.12548581 0.04299109 0.33790138 0.44343784 -0.14692457 -0.07851481 -0.3343423 0.20457466 -0.1809674 -0.24158105 0.10717708 -0.00502808 -0.088171236 -0.033229902 0.12403927 -0.3081774 -0.1690568 -0.13280919 -0.1659206 0.44230407 0.34299892 -0.13362584 -0.0009238908 0.08450513 0.013308946 -0.41117507 -0.026660435 -0.036384027 0.22773835 0.22787775 -0.33378252 -0.06181369 -0.37881684 0.079592474 -0.049363825 0.3814528 0.5295222 0.06645652 0.15276408 0.069309 0.10138561 -0.173868 -0.02133294 0.0067093913 0.03706007 -0.10756358 0.18991604 -0.049613237 0.06242008 -0.20488542 -0.34301278 -0.18868253 -0.21786831 0.013474404 0.15093727 -0.3512377 -0.07062528 -0.18532296 0.300302 -0.47547913 0.40930727 -0.032972764 -0.020805974 0.04970742
495 -0.022791395 -0.29610258 0.16807216 0.032178946 0.08305281 0.03135198 -0.17007665 0.24181288 -0.19729306 -0.25477585 -0.030477384 -0.28249344 0.03247583 0.28105974 -0.11485276 -0.35616028 -0.0737868 0.23929714 0.21414922 -0.39573762 0.0710704 -0.36728403 -0.27858812 -0.0146192545 -0.17478986 -0.17275086 0.23404218 -0.3157355 0.07304269 0.16327791 0.03537876 -0.044233523 0.17223464 0.4088083 0.00079075125 -0.31979668 -0.13741605 -0.06307104 0.0706734 -0.024356054 -0.1334248 -0.19234052 0.089484185 -0.39408767 -0.14323393 -0.09151482 0.7274653 -0.00412016 0.0835159 -0.051744916 -0.22313131 -0.0005020174 0.18767676 0.25705937 -0.106776655 0.0754344 -0.20616654 0.08583804 0.10977124 -0.39211026 0.205797 0.29390255 0.13999605 -0.2231578
549 0.06313974 0.102466136 0.04755781 0.2249579 -0.22807536 0.09069747 -0.20004162 0.46227136 0.06565193 0.017081227 -0.11255165 -0.012470397 -0.3069515 0.42380065 -0.19177932 -0.18091889 -0.30871168 -0.01834647 -0.22067042 -0.04942784 0.2136802 -0.45665652 0.12699784 -0.596617 0.14977244 -0.06524288 -0.5197444 -0.22980192 0.0838456 -0.30745107 -0.045287088 0.15148482 0.0076888264 0.1114688 -0.17702372 -0.13176785 -0.2060845 -0.33629727 -0.49197903 0.37132916 -0.41311404 -0.058750976 0.09595327 -0.32918423 0.26911956 -0.22479188 0.082969405 0.15724659 0.034599073 0.21174021 0.25265038 0.22559153 -0.05056331 0.6118625 -0.04308265 0.102041475 -0.20260718 0.13462138 -0.4126493 -0.29610682 0.33499348 0.15810588 0.36340663 -0.0033601678
116 -0.14098394 0.18801832 0.26048127 0.3947505 -0.18868618 -0.09501194 -0.30972266 0.34925613 -0.014060246 -0.18865506 -0.038669515 -0.013566143 0.0046232603 0.35506165 -0.11723641 -0.16905287 -0.042036083 -0.05925766 0.12363287 0.13357517 0.050653573 -0.024186665 -0.16791028 -0.016578374 0.09173062 -0.2885021 -0.006797982 -0.032443743 0.19973166 0.15886782 -0.34432617 0.1595851 -0.085653245 0.16815847 -0.085033484 0.1720898 0.55342925 0.03198204 0.033559002 0.07436216 -0.05521691 0.09509477 -0.025149945 0.0013296809 -0.083844595 -0.42003173 0.06354286 -0.20887595 0.32146975 -0.23694141 -0.18801159 -0.033334613 -0.24124925 0.14813928 0.08861178 -0.2883928 -0.10603945 0.14120144 0.49537876 -0.4325158 0.24638855 -0.06254866 -0.11991392 0.12649468
367 -0.06515036 0.008223089 0.36664596 0.32681176 -0.10048393 -0.00756445 -0.08181001 0.28905597 -0.09075564 -0.14293727 0.03154748 0.19520865 -0.034650292 0.28793362 -0.016324323 -0.05601538 0.22786732 0.027058184 0.20027302 -0.089568414 0.109304905 -0.20851475 -0.32064584 0.011717513 0.11712437 0.058431145 0.07558346 -0.24971808 0.18296322 0.4742664 -0.20028685 -0.030713068 -0.29902858 -0.1265387 -0.05803161 0.059255283 0.19082257 -0.13753413 0.11618957 -0.14163297 -0.031047296 -0.25647214 0.049274337 0.023759414 0.12720239 -0.2733393 0.1342299 -0.07151137 -0.035692405 -0.17655672 -0.17050573 0.053785104 0.13205233 0.12446977 0.13635993 -0.12694539 -0.18765756 -0.42383564 0.40940008 -0.28295943 0.2532496 0.19232589 0.06409867 -0.12312629
474 0.3414977 0.20563066 0.15609558 0.18108836 0.17458647 0.020068977 0.09366072 0.059265908 0.06259141 -0.25697502 0.36578667 0.08874364 -0.1581805 0.3286765 -0.15211177 0.11484571 -0.11134481 0.063107215 -0.13694926 0.035134844 -0.03935202 0.13413773 -0.23211218 0.047704898 -0.09404964 0.0507023 0.2954927 -0.5893532 -0.07645045 0.023217045 -0.23795278 0.20584911 0.0926542 -0.027550962 -0.022425909 -0.10644678 -0.021646898 -0.4107444 -0.096695855 0.0128070135 0.03015318 -0.3672167 -0.11949432 0.041196544 0.1015647 0.116447374 -0.2092277 0.28270417 0.018806787 0.12385796 -0.25865325 0.08720007 -0.25201398 -0.03893219 0.36273056 -0.057915688 -0.13523209 0.14975119 0.1994606 -0.04656992 0.28761038 0.35169873 0.196197 0.44505528
184 -0.14469215 0.055284645 0.35811162 0.1912494 -0.3355308 0.17569277 -0.15718335 0.4043042 0.23486681 -0.07273056 -0.024900276 -0.017633304 0.035500642 0.23116736 -0.4191694 -0.038213883 0.02298232 -0.257633 -0.23918267 -0.16969003 0.28834134 -0.1069193 -0.089958146 -0.40711874 0.20353581 -0.15138532 -0.31193537 -0.44722244 -0.08761301 -0.109083965 -0.13123994 0.031662155 0.17075624 0.09903441 -0.039303504 0.08882886 -0.22449082 -0.119376265 -0.2633991 -0.25460136 -0.28627956 -0.09069876 -0.07094958 -0.1315571 0.21783507 0.2441215 -0.09774327 -0.033644114 -0.025004335 -0.09545151 0.3839038 0.03923886 0.0027598199 -0.097789176 -0.033950824 0.22785598 -0.18883191 0.033867795 -0.17185341 -0.24968605 0.25507358 0.1941804 0.19246924 0.29456338
157 -0.15466025 0.18683527 -0.050383892 0.1883713 -0.036181312 -0.19428565 -0.12095785 0.22830574 0.13914017 -0.27827552 0.4809309 -0.13931435 0.09767835 0.23513304 0.23958467 0.081912756 -0.051987525 -0.27639243 0.06815861 0.28522328 -0.03167511 -0.16488348 0.120699026 -0.7311689 -0.06260361 -0.23649314 0.11886226 -0.35553542 0.08351802 0.603705 -0.09372622 0.06253303 -0.12476877 -0.10680867 -0.25448844 -0.4757099 -0.19171058 0.20616753 0.22750117 0.004896948 -0.2030185 -0.082640216 -0.0340419 -0.81599873 -0.05961071 0.002824629 0.33288333 0.2308927 -0.10615825 -0.21297069 -0.16989285 -0.4290818 0.4506294 0.09150243 0.14122613 0.18972589 0.18159725 0.37880576 -0.1908025 -0.20550938 0.033657983 0.34612077 -0.40152693 -0.025547246
14 -0.019253014 -0.22024779 0.21966633 0.3217905 -0.10790574 -0.28765503 -0.28816402 0.7103182 -0.13853504 -0.0724546 -0.31436136 -0.31292984 -0.03531817 -0.044754013 -0.013370205 0.5385086 -0.4679448 -0.022951284 0.27361223 0.20167805 0.13609739 0.06917248 -0.22314377 0.14593951 -0.09205829 -0.15725547 -0.08229169 -0.09999477 -0.016767807 0.28567 0.012359716 0.0047906847 -0.6585389 -0.25801885 -0.18415509 -0.1744012 -0.07646571 -0.06796007 -0.13792142 0.035103943 0.030371841 0.24876206 -0.22877048 -0.29286787 -0.11310131 -0.07846711 -0.09787942 0.23406154 0.009299207 -0.2461161 -0.10816406 -0.26236403 0.32285255 0.358353 0.22138302 0.1694497 -0.08906175 0.36197647 0.29573917 -0.075336866 0.20221107 0.45453015 -0.19137518 0.07561093
155 0.19269885 0.15022178 0.46989998 0.60336435 -0.098191276 0.105134636 -0.3320269 0.25531557 0.24173835 -0.24962328 -0.044144142 0.03846646 -0.255061 0.115930974 0.043515798 0.046900436 -0.022929415 0.39937693 0.06251369 -0.5712468 0.24049819 -0.3340884 -0.04167376 0.038475305 -0.44146386 -0.031069947 -0.3085886 -0.36001113 -0.22858897 0.061730746 0.11453847 -0.007545496 0.03796152 -0.030102111 -0.14455876 -0.29744732 0.039951444 -0.29282463 0.00639947 -0.09956929 0.017336164 -0.095896766 -0.22197807 -0.22961745 0.103172705 -0.48897597 0.036517352 0.13500318 -0.45842484 0.1947196 -0.36682692 -0.17001584 0.2198352 0.15061468 0.32828328 0.19985172 -0.09063465 -0.16278493 -0.11819034 -0.11849716 -0.113510355 0.3372086 -0.21870537 -0.35845578
23 -0.3119096 0.13342282 0.4152158 0.05928943 -0.13609195 -0.008689084 -0.18126039 0.33575138 -0.056776393 -0.3347732 0.13153218 0.2457848 -0.39252493 -0.062015064 -0.17086774 -0.3414468 0.013773275 0.19195077 -0.08696381 0.15631217 0.030303188 0.09641115 -0.1146507 -0.0721122 -0.06617089 0.06409013 -0.022497715 -0.5391487 0.20042235 0.20271079 -0.41792056 -0.32613605 -0.13884275 -0.1540236 0.17109384 0.18159313 0.2806767 -0.020948503 0.12562229 0.36306694 0.15628503 -0.12230277 -0.11423469 0.13752383 0.04596185 -0.13113312 -0.01637132 -0.057955008 0.22934206 0.21857022 -0.242803 -0.22271058 -0.13524018 -0.2510253 0.23071076 -0.124155745 -0.07245313 0.2302614 0.40362808 -0.2893268 0.24588235 0.13593674 0.07047113 0.107856326
168 -0.32767427 -0.12926345 0.24950407 0.1960854 0.02771385 -0.21369486 -0.12830038 0.6100929 -0.054316342 -0.32648763 -0.08850039 -0.40468147 0.36178106 0.13576964 0.12254979 0.18471564 -0.07183294 0.04174399 0.00017576167 -0.065846056 0.47125167 0.24550827 0.1323522 0.012888703 0.16947481 -0.101418324 0.13768429 -0.2906497 0.4598124 0.20843811 -0.20465063 -0.028212553 -0.19710577 -0.21334046 -0.0719074 0.02926585 0.18149388 0.17259234 -0.16416252 0.11665317 -0.05666231 0.13951157 -0.5215104 -0.15403083 0.06950948 0.37049985 -0.13501139 0.2879658 0.04080088 0.23890951 -0.054632463 -0.19894817 0.31180072 0.50679976 0.16584532 0.07920247 -0.14365405 0.15347856 0.0046626637 -0.08777502 0.27246925 -0.03172366 0.07135901 0.11322315
11 0.088502005 -0.6327555 0.5688444 0.48096076 0.16514839 -0.22124161 -0.18232422 0.49184063 -0.16955349 -0.4687225 -0.109555885 0.18561812 0.08665351 0.2162683 -0.16824394 0.2228631 -0.40796483 -0.16983388 -0.09071156 -0.15890597 -0.35194045 0.06692542 -0.018399587 0.10405318 -0.13107891 0.018790575 -0.205898 -0.30575064 -0.34021312 0.03812286 -0.18733582 0.037736002 -0.39057493 0.41598552 -0.40530464 -0.012101608 -0.22232738 0.016670803 0.3795067 -0.019749504 -0.22932783 -0.42306378 0.12783758 -0.49166375 0.33263776 -0.055672146 -0.32185805 0.2176912 0.27942473 0.2966409 -0.22158492 -0.008449515 -0.38558233 -0.062390037 -0.15117927 0.18919016 -0.0031562715 -0.32302484 0.05362327 0.08268203 0.11455752 0.15802556 0.16572374 0.25666827
189 0.027325854 -0.05444949 0.024918256 0.13986653 -0.3700185 0.07202714 -0.32568908 0.34622148 0.031639088 -0.25043783 -0.07387005 -0.094286166 -0.22068658 0.17213175 -0.45484114 -0.2101906 -0.017249199 -0.62027925 -0.14608727 -0.27156082 0.24842672 -0.23680899 0.19143032 -0.32184628 0.023949588 -0.062611476 -0.22449823 -0.10951362 -0.018265866 0.09616408 -0.5066096 -0.094150074 0.19716452 0.28838053 0.17291309 -0.22788966 -0.32537815 -0.32856837 -0.43493626 0.0044274344 -0.38334352 0.028112775 0.13244677 -0.069399185 -0.006110822 -0.06432324 -0.117573835 0.1100907 -0.06323787 0.15518084 0.21522328 0.10784586 -0.02229797 0.31437173 -0.18534812 0.32119936 0.25872943 0.15681997 -0.19688454 -0.3925368 0.28543687 0.5365955 0.10748899 0.042901635
16 0.09442062 0.05696273 0.13148901 0.19206025 -0.30207938 -0.049155805 -0.05603426 -0.12085614 0.27613968 -0.1428125 0.14235258 -0.3215504 0.10488645 -0.24061635 0.0051154858 -0.0022707593 0.2769402 0.036908 0.086130925 -0.099456586 0.337097 0.21147762 -0.3760135 -0.061219864 0.2951361 0.09212408 -0.03358232 -0.29291925 -0.13051929 0.30396825 0.09706604 0.1983663 -0.14333126 -0.073080234 -0.059910666 -0.27640763 -0.04866393 -0.019791136 0.21988694 0.008636853 -0.2124764 -0.43570283 0.011918121 -0.06576195 0.08220278 -0.27024275 0.38047266 0.5092927 0.007123795 -0.21453963 0.10347482 -0.2661921 -0.23691855 0.20729169 0.35823867 0.24405178 0.14042683 -0.2426176 0.025200838 -0.28134552 0.47397557 -0.011668463 -0.12022272 -0.1489539
20 -0.11328047 -0.29943138 0.121664084 0.1569663 0.21599413 0.29825062 -0.23022331 0.24354729 0.2071855 -0.14035533 -0.3326248 0.10998808 0.23491883 -0.07622211 -0.47046384 -0.11223975 -0.052285243 -0.16100901 -0.15913762 -0.3067932 0.014503719 -0.26205358 0.05054342 -0.41173106 0.1659877 -0.01225961 -0.08363424 -0.6945724 -0.22385427 0.17998263 0.036240615 0.14347365 0.14453228 0.17152895 0.07567737 0.074085176 -0.26215222 -0.14897878 -0.23277095 0.12801406 -0.17003281 -0.115550995 0.17199092 -0.24995261 0.022687173 -0.16066347 -0.20535521 0.04807984 -0.036271837 0.41317534 -0.2372725 -0.38745788 -0.19394292 0.15265921 -0.14966893 -0.268871 0.2600667 0.2411824 0.14603312 -0.23803808 0.11258231 0.32525197 0.32770425 -0.06510755
300 -0.08542078 -0.19046947 0.21945666 0.07764264 -0.26757723 0.41798633 -0.3068005 0.23184158 -0.18499324 -0.40670487 0.2069149 -0.052203137 0.3232745 0.3892798 0.024578864 -0.30645406 0.19839858 0.4257254 -0.24562727 -0.015460345 0.24111591 0.17287436 -0.18354847 0.15073797 0.10568065 0.095399216 0.025172492 -0.19848049 -0.093306266 0.015261596 0.3970967 0.1755642 -0.50340396 0.2704607 -0.24264485 0.105861075 -0.10558193 -0.513506 0.009983802 -0.10518486 -0.27298433 -0.17528848 0.24677773 -0.20458701 -0.0267174 -0.4850606 0.08685841 0.22507754 -0.11709177 -0.05619594 -0.19262117 -0.17575024 0.12519164 0.09517004 -0.07835842 0.18743339 -0.06804534 0.015905552 -0.10578825 -0.108498566 0.31359744 0.28245407 0.29178292 -0.08629751
859 0.20701368 -0.05030524 0.34470943 0.22080855 -0.025934676 0.21572334 0.2937544 -0.11642581 0.22514533 -0.22272354 -0.01644767 -0.044033565 0.13231875 -0.16651538 0.12042844 -0.37199503 0.08164366 0.2849199 -0.026274858 0.05930098 0.31283075 -0.19721316 -0.19903286 0.08056194 0.39530805 -0.3671623 0.010016561 -0.29121774 -0.0979864 0.29447553 -0.25326854 -0.07170396 0.2743861 -0.32156432 0.04065024 -0.21333718 -0.008329934 -0.13699971 -0.03290431 0.06967538 -0.07302043 0.102838255 -0.064402424 -0.25243792 0.28088662 -0.18290113 -0.124508 0.085570484 -0.08194795 0.17601976 -0.36225 -0.23196883 -0.037184466 -0.12392344 -0.08317242 0.15920772 -0.072752036 -0.029477585 -0.3651229 0.09981618 0.19434811 0.37304944 -0.042139266 0.5945732
342 -0.024084615 -0.059250914 0.42516324 0.60691345 -0.15597428 -0.045789905 -0.17294115 0.37656742 -0.3551274 -0.04629212 0.104568385 -0.25349697 0.101952165 0.26016697 0.255762 0.13676487 -0.21611355 -0.024250168 0.37871847 0.08072522 -0.055964727 0.1391125 0.030605158 -0.3359333 -0.18145394 -0.28291732 0.2012746 -0.18167591 -0.050977796 0.3201658 -0.23709622 0.023975803 0.16761084 0.22841407 0.060031842 -0.15227047 -0.20980816 0.14336342 0.13904631 0.32718 -0.050761484 -0.30737078 -0.36388144 -0.42020917 -0.49083573 0.3271314 0.26400757 0.0029025467 -0.26552913 -0.14548296 -0.13235787 -0.16571723 0.20017982 0.21830198 0.18917403 0.08080918 0.088170104 0.44850084 -0.23644193 0.15312105 0.049461633 0.45602605 -0.25517318 0.023396326
450 -0.14680569 -0.22915393 0.15318738 0.17377451 -0.10119668 -0.37041253 -0.34390783 0.34355476 -0.11789604 -0.19268312 -0.28317112 -0.4299221 0.15570882 0.35988018 0.098166324 -0.15822288 -0.15477858 0.1868356 -0.032616835 0.2731697 0.27418786 0.16230527 -0.003976969 -0.0017234213 0.076944105 0.080775924 0.22800829 -0.35715374 0.19941261 0.017978378 -0.39914626 0.19189619 -0.023234226 -0.12903269 -0.05143067 -0.12138974 0.22070524 0.30936986 -0.1969336 -0.14523903 0.08523133 -0.17004901 -0.00027677082 -0.20305578 -0.35659304 0.5532336 -0.31638142 0.30685768 0.06300519 0.07095245 -0.15956278 0.011946847 0.23309234 0.28020653 0.17739752 -0.06265258 0.003048455 -0.056975003 0.003578712 -0.035461042 0.2932306 0.1314756 -0.010787177 -0.025307667
486 -0.16914766 -0.14315905 0.14716835 0.4267508 0.11628809 -0.18206912 -0.25873458 0.3702667 0.26085338 0.0031209544 -0.15951627 0.20276894 0.018134315 0.15697004 -0.15465958 -0.048567355 -0.11911916 -0.5098887 0.26590154 -0.12758185 0.12764774 0.3399753 0.06377574 -0.029690113 0.049813595 0.06864174 -0.31609857 -0.37130293 0.1347184 0.2261918 -0.3921201 0.28796148 -0.13627648 -0.18623748 -0.27111647 -0.21410415 0.50991535 0.0046720626 0.17175126 -0.3582251 -0.35431817 -0.01590043 -0.03002467 -0.35722724 0.08804395 -0.08517133 0.12709118 0.17798215 0.021713411 -0.10932151 -0.13672213 -0.1533747 0.3908623 0.06127139 0.11298006 0.31472537 -0.19716316 -0.02663565 0.29780132 0.24321634 0.0021384966 -0.0068925032 0.27641433 -0.061077636
518 -0.04554208 0.0106893545 0.25269395 0.38989857 0.078611284 0.2604465 -0.24825321 -0.08846344 0.16371089 -0.37285823 -0.3393756 0.04768832 0.07755966 0.13184544 0.110863805 0.0207885 0.2142096 0.0006062695 0.1828247 -0.19438867 0.020067764 0.28923285 -0.25074336 -0.09079819 -0.053308196 -0.21000177 -0.010487692 -0.6252447 -0.39603958 0.21166682 -0.0047219824 -0.2770834 -0.16582799 0.09793362 0.09288538 -0.09395485 -0.20910855 -0.13763122 -0.026034836 -0.0039874064 0.15080577 -0.25249207 0.33488962 -0.23639415 0.54520607 -0.14007163 -0.33375365 0.20008825 0.16170684 -0.12084593 -0.011597483 0.23610085 0.012665033 0.102710366 0.17691565 0.29944152 0.14810868 0.084729984 -0.22877122 -0.1898878 0.11449531 0.010967422 0.12662934 -0.09800437
46 0.16447732 -0.004810551 0.2832953 0.15294206 -0.3167081 0.24888676 0.10283764 0.17096774 -0.15478005 -0.44037992 0.076615445 -0.26063558 -0.10756199 0.09143815 -0.21015526 -0.27434674 0.29948977 0.18886122 0.010417314 -0.1319491 -0.26761827 0.079651676 -0.34225175 0.22257082 0.13374016 -0.4115742 -0.12097774 -0.4435683 0.04728682 0.28083366 -0.045559533 0.14309342 0.05100109 -0.10276146 -0.035136126 -0.30174962 -0.18660301 -0.066298425 0.045298044 -0.25533682 -0.21509247 -0.30299285 -0.11923297 -0.4456655 -0.30265635 -0.30259007 0.20967793 0.1669549 0.11551111 0.13897729 0.13240692 0.041417163 0.04864933 0.30286714 -0.010676261 -0.18102287 0.23719317 -0.37310103 -0.012866263 0.16820852 0.07069603 -0.14764264 0.13797699 0.012324181
296 0.02938607 0.11477264 0.33293843 0.20700881 -0.2977334 -0.32504943 -0.15218787 0.21869327 -0.3418754 -0.08335287 0.30320758 -0.10743646 -0.033282325 0.001946164 0.2316748 0.047385737 -0.35088894 -0.0080063455 -0.08927258 0.017097322 -0.23816396 -0.25893587 -0.19225818 -0.1984797 0.11514778 -0.06909067 0.15032013 -0.37832132 0.20141074 0.56179756 0.21259135 -0.26820746 -0.075605586 -0.19801866 0.00013573824 -0.5065323 -0.054357056 0.18545677 -0.26848936 -0.060197238 -0.04107329 -0.07607271 0.08351423 -0.39738387 -0.080498375 0.17423525 0.1618276 0.4536666 0.018164814 -0.20407422 -0.01746935 -0.1586382 -0.10813773 0.17528349 -0.23862088 0.2906013 -0.17153077 0.24816106 -0.12429783 -0.2753036 0.13500239 0.36158362 -0.076430924 -0.09183742
7 0.15582177 -0.37509608 0.16523522 0.3391233 -0.17184316 0.06531964 -0.30986115 0.83184516 -0.2368562 -0.3127225 -0.14991274 0.3087814 0.13569482 0.096962824 -0.18014649 0.06284255 -0.21069854 0.07165909 -0.40909714 -0.109955475 -0.09750958 -0.23607469 -0.23777106 0.066935085 -0.07588862 0.13470443 -0.15640138 -0.37181523 -0.25567278 0.11159437 -0.28554106 0.08053363 -0.016169062 0.12649687 -0.4929711 -0.34149796 -0.16141908 -0.010940023 0.5037035 0.14055604 -0.2677788 -0.30738565 -0.14190991 -0.021819828 0.44145235 0.09583031 -0.1700727 0.121365 0.773086 0.15554905 -0.1783307 -0.019308336 0.012767107 -0.12255195 -0.044588633 0.2965724 -0.03476481 0.06039553 -0.08373874 -0.20364404 0.53861743 0.080571644 0.039968986 0.24693404
459 0.038532026 0.025321743 0.36522874 0.13688827 0.38751885 -0.15377487 -0.38465667 0.36339888 0.20837928 0.09151447 0.03040739 0.053725384 -0.24429403 0.103160486 -0.59674853 -0.4020646 -0.096152715 -0.29978478 -0.5068518 -0.19269978 -0.0010786095 0.10020142 -0.04338937 0.12967455 -0.14661707 -0.03747421 -0.070131175 -0.1831423 -0.2156695 0.23335063 -0.10755992 -0.023448613 -0.2267484 0.15471894 -0.22901411 -0.4930822 -0.19523638 0.07953146 -0.25734362 0.40422383 0.17904072 -0.47205445 0.19132292 -0.037042793 -0.07726434 -0.24543658 -0.014977589 0.21504834 0.26671445 0.11485288 -0.049029317 -0.14251836 -0.36687145 0.32870755 0.06874024 0.20894481 -0.03698805 0.29259473 -0.11744323 -0.47470817 0.1764482 0.20558894 0.2505326 -0.15721287
42 -0.44806382 0.18996204 0.5370653 0.19852562 0.013840677 0.13642249 0.009753691 -0.049980678 -0.22663097 -0.041555353 -0.029624144 -0.08005099 -0.056081418 0.32756758 -0.27176943 -0.21296307 -0.17640392 -0.33530778 -0.0715253 -0.13763848 -0.035102967 -0.10252084 -0.2639282 0.13443068 -0.022833612 0.004459826 -0.05561495 -0.3611565 -0.031427376 0.034798678 -0.07569257 0.09590855 0.09862429 0.10585477 -0.15410852 -0.025021974 -0.23329006 -0.058576398 -0.053557064 0.056174554 -0.07624068 -0.17482172 0.05019399 -0.33364642 0.05052904 -0.13946734 0.21742165 0.1170031 0.06503898 0.067518264 -0.045178823 -0.15725553 -0.2582474 0.19894807 -0.03316673 0.52096885 -0.17358917 0.47110415 -0.066025905 -0.035179105 0.3719856 -0.012608933 0.07319803 0.2629565
174 0.388818 -0.17917162 0.20092948 0.2236646 -0.15970238 -0.29969117 0.03991385 -0.104910456 0.32633436 -0.30105734 0.34418526 -0.09429402 0.07271636 -0.1528776 -0.23957917 -0.39850762 0.094885744 0.20956165 0.08828121 -0.089277476 -0.03672136 -0.12198709 -0.37280723 -0.06410427 0.34554598 -0.19318056 -0.058579743 0.03455328 -0.13874543 0.3861529 0.014323978 -0.3169047 0.02423402 -0.45093808 0.1986328 -0.29576132 -0.099178165 0.17953974 0.23961508 -0.14153296 -0.17127082 -0.17653106 -0.12242959 -0.5716492 0.044794064 -0.11298354 0.02207166 0.099258624 -0.0029782755 -0.11726304 -0.16146757 -0.18061952 -0.05210276 0.0981162 0.006748781 -0.012678726 -0.11919689 -0.23150559 -0.32536077 0.1196249 0.1621129 0.45571357 0.091926716 0.13932429
412 0.41322654 -0.17760655 0.47235382 0.11530415 -0.09772965 0.030029826 0.28506804 -0.0009962156 0.49067634 -0.42928067 -0.1932811 -0.07348016 0.13518149 -0.1642106 0.24146657 -0.5818804 -0.05107559 0.14351341 0.14679581 0.11045713 0.4523748 -0.12213958 0.105102696 0.11842506 0.28625548 -0.54007024 -0.061520558 -0.21844122 -0.05950721 -0.024294538 0.009691905 -0.16123758 0.28835246 -0.31730974 0.011280571 -0.24457136 0.026436735 -0.111835636 -0.12872665 -0.011083964 0.11592191 -0.17303376 -0.05526008 -0.3475046 0.16624516 -0.26779252 -0.26557034 0.032730002 0.20269479 -0.17410149 -0.2909394 -0.15372752 -0.026474534 0.07352675 -0.18466045 0.3679964 0.1041714 -0.08901915 -0.17105788 0.1068464 0.23220083 0.39256975 -0.113626786 0.5398793
440 -0.6627568 -0.47355855 -0.22791949 0.45851454 -0.15737103 0.16019721 -0.067200094 0.38873196 -0.13113686 -0.63682395 -0.36664593 -0.32940573 0.15586556 0.22888061 -0.01469462 -0.06568045 -0.031077519 -0.015554202 -0.014951458 0.39703482 -0.12713735 -0.18246818 0.25138626 0.084322415 -0.4841198 0.0917197 -0.091684915 -0.16664936 0.15092152 0.42077327 -0.28900856 0.17046578 -0.50440156 -0.34030467 -0.039069984 -0.30207187 0.12931877 -0.016775452 -0.21500447 0.29317197 0.042862937 0.045456335 -0.080550544 -0.36946544 0.038604315 0.28091872 -0.15616462 0.46536723 0.4193901 -0.12538634 -0.07991984 0.24747832 -0.06705423 0.23358518 0.09004375 0.29518574 0.20280376 -0.03840473 -0.08083516 0.2528498 0.2764133 0.1997917 0.09936279 0.008478167
80 0.1582695 -0.1259777 -0.08279216 -0.031256717 0.0090363175 0.34592393 0.014745225 0.15213525 0.48806947 -0.09569073 0.059686955 0.011063261 -0.080639645 0.17330754 -0.35183823 -0.0009747583 -0.115095146 -0.2184298 0.21014926 -0.16173004 -0.13767022 -0.292331 -0.111235976 -0.3304739 0.2525103 0.06927663 -0.21359979 -0.44405973 0.29052258 0.25555223 -0.12782773 0.1470419 0.055621874 -0.13729934 0.09031554 0.031564757 -0.10399073 -0.05964593 0.008000732 -0.038841866 -0.12786584 -0.61087453 -0.031025171 -0.16863544 0.22579804 0.12368683 0.1837545 -0.070738286 -0.055911113 -0.24559094 -0.07314201 -0.19806673 -0.2623977 0.15492451 -0.00234032 0.12047327 0.2124172 0.051486317 -0.057959978 -0.2396377 0.4636656 0.42621762 0.3520206 0.2967682
3 0.29495218 -0.325778 0.28445816 0.005740167 -0.074088365 -0.0039942507 0.10981003 0.047891807 0.3012297 -0.36356124 0.22330993 0.11655133 0.2186309 -0.030534303 0.08065567 -0.53385925 -0.13568203 0.4030258 -0.029701645 -0.03462207 0.24848735 -0.19946945 -0.30542225 0.10822198 0.26697156 -0.45285666 -0.14607075 -0.35646877 -0.15661328 0.19866376 -0.004554581 0.08217462 -0.09866335 -0.27620965 0.0593417 -0.059891235 0.015622548 -0.08660917 -0.122799374 -0.08007875 -0.048861116 0.1556095 -0.045000512 -0.363082 -0.05820839 -0.22569469 -0.013862607 -0.19424932 0.19201382 -0.015639577 -0.24533227 -0.096686505 0.061735947 0.22574705 -0.20508689 0.07501669 -0.00070745725 -0.100738995 -0.40043712 0.22405383 0.09677952 0.22095457 0.010623394 0.5604307
89 0.3874001 -0.14192002 0.22682853 0.4038362 -0.20293136 -0.042717066 0.39013365 -0.04427929 -0.19247155 -0.30090287 0.118609756 -0.12597138 0.3666039 -0.042015236 0.07112606 -0.44315732 -0.15407415 -0.2468477 -0.5250982 -0.30950192 0.16964132 0.13521169 0.07305851 -0.039310884 0.09118662 -0.14462075 -0.20294258 -0.22063448 0.10284821 0.29656088 -0.15025084 0.22282948 -0.07007512 -0.13284543 -0.0066155824 -0.15363713 0.45998576 0.07541372 -0.055334598 0.13980834 0.2898667 0.13070345 0.018870492 -0.16788997 -0.09610974 -0.24103235 -0.27762243 0.34075767 -0.009808241 -0.4307704 -0.32718492 -0.0055685737 -0.29821023 -0.15802325 -0.22330505 -0.14505914 0.12910995 -0.37339884 0.059687223 0.08422565 0.24677198 0.16128428 0.24871016 0.5051992
152 0.24295735 -0.15410256 0.2838897 0.602739 -0.043297414 0.35525706 0.11051861 0.054907516 -0.042722754 0.032345653 0.2782489 -0.16882092 -0.006750077 -0.024164578 -0.12585543 -0.05867432 -0.11120783 -0.05542861 0.27861795 0.13355856 -0.14306682 -0.010675998 -0.2055204 0.027823912 0.23391783 -0.033922367 0.056339625 -0.3307664 -0.2889044 0.15263355 -0.27516207 -0.01619653 0.058419656 -0.06774517 -0.008785058 0.19612822 -0.086096555 -0.04717536 -0.33069405 -0.2542256 0.06904102 -0.16662234 0.033923585 -0.033443335 0.18150586 0.23444323 -0.024531968 0.45060918 0.28643847 0.09997988 -0.39791694 0.10697095 -0.028738083 0.23194726 0.20172465 0.026595682 0.34752458 0.17162263 -0.21040675 -0.37852243 0.022283094 0.158556 -0.35159755 -0.11188644
61 0.031110331 -0.20329268 -0.08198291 0.39059675 -0.13027102 0.054059852 -0.47407925 0.3942837 -0.23963585 -0.37347865 0.4069969 -0.30822572 -0.15555903 -0.05390451 0.008619367 0.00019854656 -0.18749747 -0.07745927 -0.3050021 0.24440928 -0.12701425 -0.20981933 0.13764744 -0.47786394 -0.27685913 -0.21547274 -0.16056158 -0.22694226 0.051301215 0.38958424 -0.22630511 0.3207237 -0.27147937 -0.13060053 -0.410058 -0.5943434 -0.074372075 0.30695862 -0.07063081 0.06211656 0.1524257 -0.25670543 -0.21060067 -0.5654222 0.11533043 -0.100153334 -0.108813494 0.2554466 0.24671723 -0.15717453 -0.17548569 -0.18646841 0.13432895 -0.145571 0.0052043917 0.3303102 0.044454042 0.5450128 -0.023256365 -0.31033522 0.19780624 0.17987925 -0.2765018 -0.29732314
145 -0.11488046 0.3353855 0.23177159 0.05114736 -0.23647703 0.3553107 0.3574178 0.19192104 -0.022456948 -0.31791142 0.0074165734 0.0999155 0.16882893 -0.081952095 -0.0951301 0.08333634 -0.045869064 -0.07712896 0.21077651 0.12205445 0.18304667 -0.20565781 -0.55854934 0.22483763 -0.048325334 -0.02058672 -0.17485088 -0.7747734 -0.3319264 0.14876084 0.19727334 -0.08586188 -0.026273696 0.17778865 -0.19240722 0.016697455 0.13502799 -0.1717867 -0.096997045 0.086749084 0.09806567 -0.31356275 -0.0008364461 -0.17557162 0.14796789 -0.38345495 -0.05398351 0.1501499 0.06341157 0.098619364 -0.028977567 0.08696955 0.13306478 0.11417412 0.049513806 0.03760261 0.08525032 0.2333398 -0.29749247 0.21276386 0.22113103 0.2538771 0.05155974 0.04853802
167 -0.29527536 0.034592357 0.1554956 0.41882586 -0.3533831 -0.29454365 -0.1648057 0.5297404 -0.12695293 -0.112264395 -0.2614374 -0.3272097 -0.007815914 0.42152777 0.38551378 0.09396935 -0.4279577 0.121076025 0.16348279 -0.06410151 -0.022463288 0.42998183 -0.062301606 -0.18598405 0.008665882 -0.010572143 0.013745375 -0.08381563 -0.15968257 0.22285649 0.026128966 -0.25600114 -0.2630883 0.12332722 0.1579297 -0.4442498 0.19901353 0.039782606 -0.11982829 0.18188563 0.1555671 -0.0001360523 -0.49553427 -0.38632512 -0.16848782 0.3327663 0.23077251 -0.15417348 -0.049719375 -0.2815595 -0.35363513 0.016489862 0.050943274 0.37378934 0.17257275 0.28606322 0.07902259 0.19164555 0.20815894 0.014861067 0.28303018 0.48836046 -0.14294828 0.03425349
19 0.055307407 -0.24324626 0.4245636 0.19413412 -0.10145794 -0.115117215 -0.184808 0.50485206 -0.54582995 -0.061047833 0.10020618 0.057913166 -0.08086878 0.2666767 -0.316351 -0.15303615 -0.1278458 -0.15987326 -0.1368358 -0.05987598 -0.21465218 -0.19908403 -0.12855454 -0.034452133 -0.21092084 0.08503025 -0.30266708 -0.49606052 -0.35983193 0.04337777 0.029911876 -0.019082522 -0.09507489 0.0037742222 -0.4899935 -0.12509084 -0.12751144 0.009719669 0.24184807 0.064032905 -0.24022351 -0.2214804 -0.1215458 -0.32113352 0.46996576 0.07514956 -0.17461924 0.13935444 0.67985326 0.17872773 -0.015198531 0.3542333 -0.10364167 -0.122706816 0.12585475 0.2440404 -0.10401791 -0.06098602 -0.24957773 -0.36523658 0.33324233 0.20251422 -0.06884242 0.14963888
271 0.37347242 -0.060128402 0.15950915 0.23568302 -0.013374666 0.15813097 0.024502337 -0.11329846 0.07044313 -0.46627805 0.02042101 0.06537569 0.25261703 0.10155539 0.080271244 -0.50215214 0.06696287 -0.06985588 -0.32807764 -0.19707957 0.0201714 0.08857895 -0.23486319 0.13737455 0.12405716 -0.5124146 -0.29052153 -0.45939904 -0.20053399 -0.10209485 0.07635697 0.05190219 -0.105046935 -0.073392585 0.22079632 -0.045163833 0.07282755 0.14655162 0.09043391 0.101783365 0.15376544 -0.101169534 0.257108 -0.48535973 0.20341732 -0.17802149 -0.32271066 0.2958483 0.14961168 -0.3842604 0.119197994 -0.24230438 -0.024275163 0.33162472 0.22265895 -0.033381052 0.3529898 -0.056118988 -0.15416008 0.17287755 -0.05069162 0.05052196 -0.07695098 0.40103272
222 0.084433265 -0.19198363 0.05616374 0.07442097 -0.021894064 -0.19615743 -0.3080489 0.28934583 0.10996896 -0.039018616 -0.31727472 -0.08113176 0.2835215 0.12280398 -0.27088004 -0.22857535 -0.06512637 -0.17422095 -0.304785 -0.12750697 0.062170967 -0.17639638 -0.05865199 0.015317638 -0.2981634 -0.105303265 -0.029444408 -0.28819016 -0.18430077 0.40021393 -0.16862386 0.17146422 0.24446158 0.29233095 0.19991629 -0.15500146 -0.67333096 0.003882313 -0.21753173 -0.040374834 -0.33177322 -0.20835538 0.31919375 0.13442098 0.00967976 -0.1885521 0.14352667 0.25289142 0.05440212 -0.15409236 -0.19609722 -0.067730896 -0.019660043 0.2622982 0.34776413 -0.037331183 0.28599077 0.30545163 0.006600869 -0.41422817 0.4840436 0.25352922 0.07725992 -0.14554857
51 -0.1119042 -0.12457049 -0.35714665 0.44094124 -0.29270536 -0.07347099 -0.44039777 0.34816074 -0.14714211 -0.19497436 -0.2267704 0.09662427 0.24100319 0.122298695 0.07351904 0.31805998 -0.2238149 0.5342059 0.036692 0.2159385 0.13266471 0.5538577 -0.31318146 -0.44588023 0.17717786 0.12183135 -0.36058906 -0.24069977 -0.11497713 0.1482451 -0.36560628 0.02920833 0.0833286 -0.33065823 -0.10984644 0.036861744 0.032480247 -0.3739057 -0.13143347 0.18093815 -1.8845043e-05 -0.059568804 -0.18686342 -0.106378175 -0.21121514 -0.18857811 0.027455792 -0.11881931 0.31595418 -0.07213817 -0.44008902 -0.20838809 0.16331777 0.30642194 0.2026503 0.28775623 -0.16823429 -0.04154288 0.45172602 0.0533564 0.21489614 -0.005307715 -0.08756006 0.023364455
362 0.12120181 -0.34599733 0.30439213 0.24688986 -0.0137481475 0.00070548686 -0.07002953 0.3635867 -0.014030681 -0.058104906 -0.16735104 0.17309123 -0.023827855 0.2507892 -0.10968154 0.056071956 -0.2695578 -0.14447583 -0.007114774 0.08532137 -0.36664268 0.15742666 -0.17868438 -0.21029364 0.1777504 0.069589265 -0.19027726 -0.4551169 -0.21352541 0.31613165 -0.18261316 -0.036771122 -0.058579862 -0.13173373 -0.5541222 0.035111297 -0.08037251 0.04976875 0.27236876 0.11593058 -0.011505765 -0.25902963 -0.1603568 -0.06413273 0.18336362 -0.24338344 0.07444548 0.19740617 0.4020078 -0.039180726 0.25943455 0.07354352 -0.20306805 0.21832494 0.0965758 0.32518607 0.007619158 -0.32602045 -0.06566814 -0.25087333 0.3972433 0.023376819 0.14867291 -0.037567176
30 -0.17180966 0.09756584 0.3329474 0.2872383 -0.48439294 -0.094944976 -0.15395167 0.4222893 -0.047299195 -0.2765665 0.09066844 0.17561913 -0.15084855 0.09200625 -0.23230013 -0.04588583 0.124699205 0.017473325 -0.05558303 0.092249066 0.047567427 -0.06616811 0.048812423 -0.0678577 0.055025075 0.0148454085 0.1297775 -0.41670042 0.109928675 0.20153654 -0.42308566 -0.14075835 -0.21513933 -0.13769408 0.19231212 0.4406384 0.2659205 -0.023923228 -0.022238074 0.13827223 0.17407362 -0.030731818 -0.22133318 -0.09350325 -0.107331045 -0.19882026 0.16091599 -0.06714932 0.25831813 0.08033658 -0.14916734 -0.31683588 0.004061935 -0.17752905 0.32875162 0.02712771 -0.17259236 -0.34218895 0.6075903 -0.36879483 0.29933506 0.027291965 -0.30635932 0.031073216
