976 128
160 -0.22306763 0.019038774 0.008238832 -0.12215841 0.027492128 0.27564573 -0.01141497 -0.10085574 -0.14571202 0.08190477 -0.13004892 0.03798039 -0.21376555 0.18479387 -0.02582214 0.38681674 0.22793816 0.0027967023 0.10000981 0.0041227913 0.0855832 -0.01837261 -0.111301884 -0.09120604 0.07165382 0.065475434 0.17548352 0.08761257 0.093062066 -0.1286467 0.12059273 -0.13464127 0.085946016 -0.10156114 0.012714541 -0.047685247 0.3621101 0.20766813 0.11786322 0.0088567315 0.08900877 -0.1617031 0.077231415 0.09691272 -0.15990975 -0.052830335 -0.071102835 -0.05197433 0.12822688 0.05568521 -0.2602058 -0.111721404 -0.1537525 0.28979465 -0.09134715 0.31992614 0.1888597 -0.16423297 -0.3228329 -0.08725494 0.019672155 0.09704129 0.03042216 -0.089767605 0.059108894 -0.00917748 0.23150042 0.056139722 -0.08991051 0.0791565 0.18552336 -0.002389323 -0.18482459 0.087816425 -0.00234069 -0.27934146 0.0036815924 0.14805312 -0.121743605 -0.057183787 0.13155517 -0.30346218 0.03764871 0.058259573 0.116121225 0.14141458 0.041328058 0.120141745 0.010056506 -0.11087583 0.03756314 0.016862212 0.016581643 -0.28723517 0.025031224 -0.02822754 -0.23209783 -0.10276107 0.06635078 0.17458087 0.03588895 0.037619207 -0.065785244 0.292829 -0.03713401 0.07827916 -0.121794574 -0.03052897 0.21319515 -0.07274229 0.09618464 -0.09577523 0.18372706 0.044612333 0.037528384 0.14706455 -0.25772378 -0.10208092 0.042586982 -0.0500948 -0.13146639 -0.12993146 -0.24167371 0.08888069 -0.1992296 -0.17139378 0.002546107 0.11720418
121 -0.27379683 0.04897142 0.07967708 -0.24598041 0.13980591 0.19068098 -0.18755102 -0.060659867 -0.014730078 -0.09700286 -0.02570476 0.24007255 -0.07719376 -0.12079747 -0.028715534 -0.0644276 0.18774435 0.20044658 0.14821306 -0.026561446 0.07404941 -0.03458152 -0.1478472 -0.059486054 0.06955439 0.033800103 0.22368892 0.21472862 0.12209645 -0.09823208 0.117469504 0.16842636 -0.09778405 -0.03923399 -0.10110678 -0.22874054 0.10818244 0.0424711 0.13138731 0.07622144 0.1632652 -0.2690056 -0.05122048 -0.06649789 -0.15929426 -0.1967095 -0.064292826 0.00648683 0.30506015 -0.28870708 0.19271049 0.062016584 0.26765266 -0.068551645 0.156378 -0.06217179 0.086462736 0.06265217 -0.00879699 -0.2134024 0.05530061 -0.012914932 0.03476715 -0.26285246 0.046104647 0.019028075 0.11349321 0.07846836 -0.058347635 0.13364767 0.1228442 -0.109032616 -0.023774022 -0.0049594706 -0.06524997 -0.14362952 -0.017453523 0.064719364 0.22043349 0.22572383 0.124306604 -0.32935864 0.117070295 -0.11530747 -0.02653187 0.062071543 -0.016971814 0.18547323 -0.18378833 -0.14029987 -0.010096721 -0.021080445 0.19146295 -0.22533874 0.10072764 -0.13120475 -0.111439414 0.08283438 -0.2833928 0.09756095 -0.080832936 -0.096183166 0.0009830118 0.112187125 -0.070503354 0.047413547 0.089070104 -0.053042725 -0.02202913 0.089753695 0.1355815 0.10431455 -0.09590189 -0.033337526 -0.048284464 0.19434771 0.029465277 -0.28323784 0.062158987 -0.11678236 0.18930349 0.07651326 -0.03622226 0.13063394 0.19550821 -0.18347917 -0.042725824 -0.1306549
82 -0.17261887 0.0031967477 0.10612214 -0.027129795 -0.0026875671 -0.07906361 0.06649323 -0.033072725 -0.10271262 0.048152216 -0.0024803763 0.28146183 -0.34019807 0.0255009 0.040937323 0.050454784 0.2547984 0.041298017 0.039088145 -0.08989867 0.252183 0.1333535 -0.033529695 -0.31351334 -0.27430454 0.00077997916 0.18520047 0.12929049 0.00283377 -0.079216614 -0.010687143 -0.0007111419 -0.10003856 -0.19365175 -0.03764563 -0.07737321 0.24668317 -0.07865007 -0.022571793 0.04746848 0.033475816 -0.14526407 0.016799616 -0.0007967132 -0.13649803 -0.35534236 0.019183392 0.09494096 0.23949683 0.031282857 0.091754 0.1201831 0.08134994 0.03208582 0.01623104 0.0014151443 0.15377878 0.07105111 -0.08443223 -0.43628693 0.048347253 0.221982 0.10178367 -0.27492657 0.09971086 0.06870501 0.060156066 0.18970746 -0.108654894 0.041163843 0.24436231 -0.07437776 -0.114032835 0.27253547 -0.097461656 -0.07516549 0.049279276 -0.05365254 0.14793892 0.40149137 0.110458136 -0.16043906 -0.07448707 -0.19467305 -0.13143745 -0.089675434 -0.012739885 0.11417584 -0.28141907 -0.1123744 0.115863904 0.020339847 0.051955096 -0.14812393 0.05946672 -0.07889915 0.00031962513 -0.047624186 -0.10077703 -0.060235724 -0.023593953 0.045916844 -0.106252424 0.25970623 0.014930345 0.0702623 0.073836416 -0.051772323 -0.06562768 0.0926739 0.15245527 0.047789626 -0.05055479 -0.20214649 -0.04311167 0.09431852 -0.013532485 -0.15991925 -0.010350758 -0.06299963 0.14034668 0.26654163 -0.29852685 0.28007406 0.18948677 -0.072217695 -0.058178324 -0.0749369
107 -0.016055588 0.10444336 -0.0215509 -0.0070412005 0.054887548 -0.11070962 0.055422112 0.06355252 -0.24539952 0.009693051 -0.08666012 0.019464243 -0.21797383 -0.045228 -0.2503101 0.20183732 0.25720128 0.016685698 0.024427472 -0.07810769 0.1315243 -0.050334737 0.11635272 -0.07436716 -0.012157496 -0.1313448 -0.031772714 0.10317119 0.23717022 -0.08077454 0.20674352 0.07598661 -0.1759045 0.060252905 -0.08201 -0.11821357 0.05838676 0.043625403 0.062407684 0.18431845 0.0318521 -0.04140361 -0.024807714 -0.28055888 -0.033435147 -0.2490814 0.11922278 -0.1161939 0.2726984 -0.17209023 -0.019781156 -0.057459097 0.025488159 0.28342462 -0.07958762 0.41015214 0.057840616 -0.06957685 0.058247942 -0.080030784 0.22634736 0.1188421 0.15162735 -0.12017201 -0.16163726 -0.052947152 0.1397822 0.06968941 -0.14473711 0.0709645 0.113174 0.18528406 -0.08493873 -0.041117545 0.021817576 -0.18596482 0.039159205 -0.07299301 0.17914142 0.19463068 0.1981271 -0.3081764 -0.093358494 -0.005206792 0.10069205 -0.17022078 0.12045774 0.34642592 -0.055964444 0.014665657 -0.16317369 0.0733453 0.14292154 -0.1929781 0.045976344 -0.06308119 -0.15072493 -0.3079125 0.049372505 0.12299874 0.09937404 -0.28982034 -0.09364701 0.14943828 -0.05475235 0.057709217 -0.053495876 -0.03998459 -0.14707923 -0.21840277 0.07129915 0.06725378 -0.045551863 0.051643126 0.22039351 0.11904253 -0.23373954 -0.1124078 -0.08417427 -0.059074447 -0.080283985 -0.13071042 -0.165582 0.2856396 -0.16251966 0.053614534 0.008481763 0.07169743
86 -0.34429893 -0.11270436 0.039661225 -0.22651805 0.3950997 0.14526841 -0.08207637 0.12734337 0.0073811323 -0.017393455 0.030245759 -0.09574524 -0.025067346 -0.1824261 -0.19031249 0.009134372 0.33490476 0.032378744 0.37598825 -0.10545476 0.38251883 -0.16330615 -0.20912166 -0.012980399 0.029727576 -0.06802046 0.021183796 -0.13906345 0.2827921 0.034053944 0.40482426 -0.2063008 0.027671672 0.23142464 0.24657148 0.005840359 0.08977206 -0.12585644 -0.0687832 -0.21511865 -0.049280573 -0.16137962 -0.30930743 -0.027503954 -0.10206439 -0.03939893 -0.13515434 0.032731146 0.1497219 0.15405998 0.25882918 0.118477456 -0.113450035 -0.12167679 -0.21896525 0.16386795 0.21990183 -0.030185645 0.22567919 0.016288243 0.13701865 0.05641652 0.023021238 -0.20892657 -0.120856665 0.08369691 0.083416745 0.11482042 0.04786447 -0.0017300508 0.028731883 0.035100617 0.10069533 0.2266596 0.16141704 0.30460262 -0.18859127 -0.12419323 0.18530639 0.06649321 -0.02068816 -0.26245484 -0.0765966 -0.007370922 -0.017561434 -0.25835976 0.19109935 0.22496708 0.05102564 0.27856132 -0.27423546 -0.074250326 0.09928342 -0.019383319 0.05757969 0.2518404 0.0015771502 -0.1792777 0.023466295 0.21143407 -0.109670565 0.23477241 -0.03355174 0.30029628 -0.030597454 0.27990988 -0.36577693 -0.13381143 0.17721203 0.013590804 0.021366179 -0.049056623 0.037772387 -0.14781587 -0.023495069 0.1328145 -0.28568155 -0.15305166 0.06518927 -0.036127165 0.310955 -0.009461139 -0.16028427 -0.035914302 0.10039764 -0.095620625 -0.104671404 0.100690655
62 -0.07008723 -0.02417364 0.025917357 -0.13131616 0.11838503 0.22649108 0.021235384 0.17818701 0.05766587 0.14455506 -0.043326724 0.18541965 -0.278406 -0.09738841 -0.025192793 -0.0066554085 0.16185601 0.03612941 0.25249878 -0.14951846 0.09827577 -0.094574064 -0.0002925948 -0.14773421 -0.029483138 -0.16578723 0.029673085 -0.16452476 0.1595367 -0.12428202 0.25882313 -0.058270875 -0.047299933 0.14596856 -0.029484034 0.10474297 0.08608677 -0.02777505 -0.06496245 0.12555219 0.31207228 0.00986055 -0.25365686 -0.33948404 0.013501918 -0.24753922 0.058177017 -0.043974515 0.14246596 -0.10532256 -0.19119614 -0.054699447 0.13115938 0.15523581 -0.1369965 0.18692233 0.2065634 -0.18253298 0.058345176 5.2365012e-06 0.10015598 0.07300284 0.22069508 -0.13243423 -0.22537841 0.12768726 0.14108391 -0.12195783 -0.16998275 0.08170735 0.07631728 0.06655564 -0.3007443 0.077871114 0.13234869 0.07226929 -0.117302634 0.10516454 0.08720963 0.30933827 0.100960575 -0.45906907 -0.09354094 0.14214139 0.20657173 -0.17054254 0.08449205 0.072392486 0.008462154 0.115149856 -0.004241096 0.07065434 0.10041311 -0.08603838 0.10306365 0.06531787 0.07533553 -0.07231923 0.019741137 0.10400919 -0.08595894 -0.039338026 0.044376165 0.11846218 0.088572904 0.044032767 0.084425956 0.06286168 -0.17757128 -0.12075456 0.02173265 0.0023311465 -0.12627122 -0.19370604 0.03193063 0.13987601 -0.20506899 -0.11409291 -0.3730481 -0.10105696 0.009005374 0.045359544 -0.14645115 0.22402549 -0.21341227 0.06298784 -0.1500119 -0.07381212
434 -0.029630482 0.13922131 -0.018461024 -0.0030719168 0.030798607 0.07504802 -0.066089354 0.052805528 -0.00726489 -0.029049648 -0.022439256 0.028272765 -0.17213255 -0.097655386 0.050884217 0.16688462 0.20399873 0.03884805 0.3052352 0.10950072 0.0587882 0.085197054 -0.2640687 -0.14905629 0.10335212 -0.044840913 0.08486178 0.053919055 -0.12688355 -0.2251497 0.28441742 0.10483691 0.109944694 0.098908074 -0.055938773 0.08404882 0.01557704 0.008112214 -0.026098087 0.089604355 0.21338649 -0.00868993 0.19459625 -0.021502461 0.06661413 -0.11645759 -0.025576802 0.11783244 0.37380973 0.007221975 0.039339196 -0.1670436 0.3097605 -0.020772913 0.23852912 0.3065207 0.2693697 0.1305199 0.12299801 -0.13956426 -0.12469024 -0.08495418 -0.016152034 -0.15512428 -0.14935482 -0.09922068 0.08082287 -0.05188191 -0.079738416 -0.192405 0.0732464 -0.18664202 -0.1599669 0.30337003 -0.08645773 -0.16636357 -0.059830002 -0.09395375 0.17442858 0.14321582 -0.040174007 -0.103957176 0.042469908 0.0062510394 0.15386271 -0.066007935 0.13374364 0.35968068 -0.05264353 0.022987107 -0.11482922 -0.1577035 0.30386603 -0.021506239 -0.18536736 0.16414087 -0.026830416 0.098625794 -0.096773334 0.003000468 -0.10637175 0.018148223 0.0013106387 -0.19176267 0.09440118 -0.13010821 -0.14436115 -0.09014567 -0.25427163 -0.1589757 0.029830681 -0.16862753 -0.026430203 0.12719344 -0.111173995 0.27547294 -0.3084768 -0.068116345 0.20179293 0.0040252986 0.03279273 0.106078014 -0.039298315 0.038428478 0.033381883 -0.1493875 0.043206003 -0.014278221
13 0.16603157 -0.112166226 -0.2614894 -0.011283574 -0.09114037 0.020755578 -0.22818378 0.21515237 0.06575677 -0.03833382 0.101304285 0.015818693 -0.015976181 -0.062746055 0.030299798 0.25181225 0.3439571 -0.2766331 -0.10398584 0.1874294 -0.15821528 0.31174353 -0.32387027 -0.15737472 -0.11810606 -0.3091426 -0.017993405 0.19553919 0.13299488 -0.12149505 0.041622847 0.0007105346 0.019810697 0.022609599 0.2341871 -0.18688211 0.13471648 0.35935104 0.007668813 0.105137624 0.2926996 -0.079745375 0.027652973 -0.12327534 -0.09592195 0.035715263 -0.117895134 -0.13421854 -0.022151804 -0.15946095 0.06377984 0.01177639 -0.05523981 0.023251284 0.052613676 0.35734117 0.112431586 0.09779988 -0.15598375 0.1523395 -0.08177847 0.06336267 0.26590008 -0.053268336 0.08302334 0.33759037 0.187659 -0.016595326 0.14328535 0.20092161 0.026433367 0.10718836 -0.1424212 0.37621507 -0.13800995 0.009633132 -0.046245683 -0.0472312 -0.20784849 0.09770921 0.23111877 -0.29407686 0.11890482 -0.0037466201 0.021945292 -0.3110526 -0.03800868 -0.15279013 0.0024853533 -0.09076636 -0.24648559 -0.10045416 -0.082802296 -0.15546207 0.10651804 -0.050599042 -0.2620332 -0.13098134 -0.065461665 0.02411886 -0.25270718 0.049151532 0.12249612 -0.0040197168 -0.20802662 0.35739392 -0.0030088814 -0.3405316 0.31400487 0.25551438 0.16671693 -0.1428109 -0.10592473 0.10331287 -0.07957591 0.39816365 0.022424398 -0.1493642 0.047146823 -0.19881028 -0.024582827 0.18222085 -0.18510208 0.13472395 -0.13438301 -0.026307918 0.12379552 -0.18105799
166 -0.27316463 -0.12828225 0.25071606 -0.16655055 -0.16661265 0.15036091 -0.05476594 -0.108047165 0.23614264 0.12297282 0.07294394 -0.29330197 -0.41293806 -0.008583222 -0.020578062 0.1840995 -0.26472768 0.19326696 0.2145525 -0.046314448 0.02885114 -0.41875452 0.016510738 -0.13309924 0.09239725 -0.17522019 0.024232402 0.21527293 0.13948886 -0.40458468 0.07024899 -0.28084734 0.121283524 0.00096647796 0.053199805 -0.01790229 -0.036372483 0.19185719 -0.15197635 0.06795517 0.08452478 -0.12946641 -0.07957032 0.2934304 -0.14433016 -0.06300285 -0.17067708 -0.20278876 0.13965933 0.14625067 -0.05933892 -0.009786081 0.029149728 -0.07313276 -0.011076092 0.21895072 0.265881 -0.07570493 0.0314058 -0.107277796 0.063727036 0.17535701 0.032355685 -0.09538626 0.025459282 -0.046765994 0.20771895 -0.11930151 -0.10491543 -0.029580943 0.086521365 0.100302815 -0.11924994 0.26758146 -0.02585031 -0.2077467 -0.04153179 0.13556927 0.24671362 -0.12699348 -0.12220456 -0.23390694 -0.29347062 0.09214843 -0.039830625 0.108811185 0.14569727 -0.038232498 -0.12528025 -0.020619 0.105556436 0.068692885 0.27016175 -0.31648013 0.12556873 0.11497351 -0.115344465 0.0051401537 0.019388216 0.27118212 -0.1372926 -0.2292346 -0.007404263 -0.004038382 0.03916164 0.035231482 -0.24987067 0.042739335 0.25628844 -0.15288475 0.030264752 0.442249 0.09329467 0.27238268 0.1456227 0.28282565 -0.088250875 -0.18128671 -0.035009988 -0.07703347 -0.0859456 -0.011957782 -0.22003908 0.019250745 -0.093591385 0.13828607 -0.09142758 0.03656816
5 0.20081982 -0.16230287 0.1302891 -0.1380864 0.22418167 0.38495883 0.18608317 -0.11271045 0.011929119 0.18954875 -0.12020062 0.12054093 0.09332845 0.2403719 -0.11580706 0.28056017 0.15958942 -0.01499514 -0.012979675 0.28264976 0.061900713 0.13802022 0.06422743 0.08321566 0.03060476 -0.42443416 0.39012274 -0.03754476 -0.002689125 -0.022156306 0.13663858 0.0013463143 0.19700795 -0.05629603 0.24231364 -0.27771857 0.24530303 -0.12619874 -0.26979768 -0.05323136 -0.023454158 -0.00578953 0.0065776133 -0.054902345 -0.21357179 -0.13437675 0.06655321 0.20343935 0.23858728 0.078793734 0.009469373 -0.03349277 0.11295266 -0.079391204 -0.16904421 0.6818208 0.3719016 0.29040504 -0.0888533 -0.04828247 0.3876607 -0.07475672 0.12080735 -0.1280715 0.23376153 -0.11701537 0.16562924 0.03255973 0.12140665 -0.053376403 0.15769096 0.16625078 0.18239672 0.05088095 0.33134806 -0.11185422 -0.11924 -0.09632963 -0.15887402 0.05979473 0.32844588 -0.16463968 -0.11987492 0.032311242 0.2767764 -0.0037603907 0.15364227 -0.021836491 -0.0037731787 0.35552084 0.14068738 -0.034316298 0.19546203 0.05302724 0.2995974 -0.009128656 0.15052935 0.0031266569 -0.17528978 -0.04767215 -0.10757978 0.07980897 0.15787384 -0.1701889 -0.12136611 0.028326245 0.034913957 0.04185773 0.067781605 -0.06911305 0.19214676 0.020938331 0.17246448 -0.0023027188 0.04878676 0.12075452 0.05670051 -0.03267412 0.019503681 0.21934846 0.14364484 0.33879146 -0.2818452 0.029328944 -0.4200852 0.069801144 0.006480758 -0.422605
183 -0.1236277 -0.06866637 -0.16818672 0.021670284 0.18143907 0.10523093 0.162185 0.226415 0.009557263 -0.16065177 0.011050962 0.062173523 -0.28268003 -0.22920273 0.14189902 0.09258843 0.043315604 0.015170961 -0.14975716 0.02072046 -0.0068071755 -0.14815515 -0.038240828 -0.22200792 0.10223109 -0.11772952 0.105401725 0.09759843 0.0877808 -0.15143599 -0.036958504 -0.031648625 -0.028353548 -0.12007543 -0.022295373 0.18490139 -0.14790717 0.015376651 0.16079585 -0.04406068 0.21964702 -0.026055466 -0.0248052 -0.095442876 -0.21591127 -0.20013113 0.14542924 0.08755962 0.116707414 -0.15771048 0.08428519 0.06104082 -0.096084975 -0.012936258 -0.010891677 0.29343697 0.1679516 0.22715636 0.11038469 0.056542583 -0.30525807 0.1336101 0.08354593 -0.014867238 -0.09860258 0.17254025 0.1678885 0.07468152 -0.049494363 0.18737362 -0.14342424 -0.15406197 0.1798631 0.07047608 0.027442778 -0.17315337 0.022324638 0.01150919 -0.16155146 0.13751167 0.22969565 -0.16015425 -0.19402252 0.092988186 0.048321128 0.17320378 0.06352425 0.029798727 -0.059034646 0.24557659 -0.034339502 0.15261817 0.18290715 0.051955584 0.15930998 0.15527232 0.025054986 -0.040863506 -0.33313397 0.008505119 -0.3432942 0.01971303 -0.16798206 0.124810524 0.13578902 -0.0840412 0.08972927 -0.13770767 0.06607508 -0.04064193 0.116559885 -0.01750027 0.19971207 0.36155632 0.028418181 0.34214818 0.034578633 -0.037895773 -0.10063789 -0.05257457 0.16568255 -0.2500563 -0.31379858 0.23954843 -0.042408735 -0.3140101 -0.11817065 -0.05798694
64 -0.115475506 0.16420569 0.12382683 0.028505737 -0.07936207 0.1910618 0.08295994 -0.25761166 0.15389222 -0.038617034 -0.24848099 0.004588819 0.05731573 0.05663689 0.031965334 -0.054628816 0.010526487 0.1285268 0.15926139 0.12345499 0.065912485 -0.18137006 -0.347128 0.03423163 -0.23141593 -0.02674074 -0.119616166 0.118149936 -0.045090094 -0.036129385 0.35149726 0.11708795 0.08086872 -0.13899009 0.11338595 -0.3997819 -0.005880143 0.07826911 -0.02483339 0.11216004 -0.006589007 0.0024145863 -0.24028377 0.13114181 -0.15223567 -0.13356857 0.2741641 0.08187343 -0.09368671 0.054658603 -0.02168595 0.14137058 0.10519394 0.20617577 0.018720334 0.486383 0.17722361 0.20748015 0.11548656 0.32513207 0.123355396 0.0038309488 0.047676496 -0.2313807 0.071413174 -0.2208623 0.17152214 0.049994804 0.0071182325 -0.13485582 0.32057753 -0.14472167 0.17117913 0.07265947 0.27712196 -0.059771787 0.2612624 0.156425 -0.25531563 -0.04077214 0.23545422 -0.20166488 -0.13762015 0.020869203 -0.040979333 0.085973695 0.0933708 0.063750386 -0.28387693 0.33070958 -0.30772236 -0.2176496 0.14986107 0.05344291 -0.020336071 0.0697948 0.08046777 -0.046131257 -0.08523832 0.110267185 0.06458827 0.13411519 0.36276823 -0.04720706 -0.21212398 0.16639253 -0.15143843 -0.101467766 0.11242128 0.21558778 0.26246428 -0.26082012 -0.18627796 0.25460002 0.02435544 0.28826547 0.038693406 -0.031846523 0.07849568 -0.08532325 0.11045003 0.025951011 -0.52551186 0.14700243 -0.047623925 -0.012406287 -0.17315881 -0.12982212
249 -0.07895093 -0.13830936 0.1869787 0.12658799 0.057906516 -0.12598053 -0.20679225 0.111988425 -0.1303229 -0.06325749 -0.008755487 -0.026519777 -0.25230584 0.028157825 -0.1052809 0.048150454 -0.15586717 0.25380033 -0.01559973 0.024937361 0.013514587 0.2747097 -0.030945301 -0.052064676 0.04572074 -0.00992112 0.19822188 0.064829886 0.0968963 -0.06457971 0.3450976 -0.034847826 -0.13862866 0.08657872 -0.17519872 -0.06307534 0.122487195 0.04995753 -0.15653376 0.06732233 0.28219524 -0.1310325 0.13549167 0.05925655 -0.040152323 -0.14599915 -0.01661455 0.048312385 0.100385785 -0.046681773 -0.07612155 0.013552084 0.086059 0.024851363 0.005857803 0.07808984 0.2411899 0.16211572 -0.08189895 -0.20914291 0.026563702 -0.17150912 0.016849218 0.11564304 0.12841885 0.09433918 0.10296557 0.11384384 -0.10550826 0.19482149 0.025788678 -0.19892918 -0.007878227 0.07700271 -0.024806065 -0.14647005 -0.040872652 0.0025448978 0.0722593 0.20821252 -0.047407955 -0.2568876 -0.07461815 -0.13914116 0.21815929 -0.19306156 0.11077885 0.17919792 -0.07660929 0.06972643 -0.16140492 0.106089346 0.3602534 0.00707996 -0.113556996 0.30471224 0.20460574 -0.084187366 -0.043603715 0.12696305 -0.08276864 -0.14075737 -0.16936658 -0.1325586 0.08094337 0.011782142 -0.027949855 0.083042234 0.0498353 -0.31588724 -0.09438553 0.0423403 0.18663402 0.07931377 0.10093951 0.35211146 -0.013642239 -0.21512805 0.013108205 -0.11548005 0.05631875 -0.14968574 -0.27539274 0.28739676 0.022746157 -0.008482662 0.10005138 -0.05191579
129 -0.20004573 0.022500515 -0.15582152 0.077415675 -0.012102269 0.11891709 -0.13091643 0.26712462 -0.033661056 -0.27399954 0.020444188 0.13576443 -0.021578467 0.118115 0.0635866 0.0750707 -0.02161413 -0.15299338 0.07983403 -0.048995722 -0.18108548 0.041849483 0.07673168 0.08704533 -0.175169 -0.115410805 0.052171316 -0.0962673 0.050589938 -0.12876989 -0.03765933 -0.051326986 0.17670546 -0.01987095 -0.054645803 0.060768105 0.05229619 -0.054753806 0.28733352 -0.14591204 0.31901827 -0.12747903 -0.07360507 0.013611287 -0.06048206 -0.29825065 0.03199915 0.1784347 0.25419363 -0.005552832 0.065303616 0.0903333 -0.18200657 -0.08073198 -0.15126796 0.21884115 -0.019599909 0.14466007 0.19238187 -0.02833515 -0.1353669 -0.057740454 0.20273292 -0.1114029 0.24973783 -0.011733162 0.298842 0.022552477 -0.18221526 -0.078751385 0.28498295 -0.042872585 0.019476512 0.3732516 -0.056877676 -0.111221105 0.061467335 0.13156472 0.1665016 0.118914306 0.10988858 0.07577277 -0.2510008 0.04898159 0.050958354 -0.050603997 -0.05322038 0.2206126 0.089390665 -0.26536494 0.09511188 0.07865493 0.4337221 0.12230425 0.15470359 0.17385349 0.14474678 -0.09519623 -0.25334865 0.17394677 -0.2974726 0.1276013 -0.18439732 0.20295532 0.1603197 -0.0036926384 -0.01995693 -0.2685775 -0.062037755 -0.05521521 0.06326915 -0.09950077 0.07509408 0.22040631 -0.020166392 0.3245208 -0.05359272 -0.0134560475 0.101840094 0.06859514 0.12823914 -0.044138614 -0.2482787 0.055926006 0.02969028 -0.006963497 0.08522806 0.049707472
533 -0.03870454 -0.038733996 -0.15791279 0.12520601 0.32237497 0.040181454 -0.0139116505 0.10754501 0.18531713 -0.021534482 0.005373552 -0.014835227 -0.45552012 0.055290975 -0.021384655 0.19957602 -0.0063588945 -0.069384284 0.25855994 0.29777318 0.09347988 0.15415698 -0.1987296 -0.2631542 -0.08700733 -0.20538297 0.13487934 -0.08346024 0.40039787 -0.2542455 0.43833935 -0.20802273 0.12492189 -0.013215899 0.14877437 -0.016712429 0.4456275 0.1530674 0.002040205 -0.22448069 0.22400637 -0.1306142 0.034633406 0.1708209 0.29625502 0.060282864 0.16125654 -0.12971243 0.212816 -0.21542506 0.051713597 0.23376724 -0.21817999 0.083612576 -0.103271 0.20601737 0.41946104 -0.013835795 0.049097862 -0.12606306 -0.27688652 -0.10376684 0.22409484 -0.14584865 -0.05975121 0.17415302 0.060167655 -0.120049335 -0.2246085 -0.062861025 0.026472937 -0.03678406 0.05010559 0.14002636 -0.0070262523 -0.23988128 -0.23264411 0.08383032 0.1850989 -0.088065885 -0.17965952 -0.054752298 -0.09897538 0.10607129 0.112553336 -0.08278469 -0.1258898 0.004613459 0.07645998 0.07351205 0.0372387 -0.03149156 -0.053455498 -0.0007351306 -0.24975586 -0.042995077 0.101243965 0.410967 0.29499364 0.221965 -0.3070934 0.08399149 0.1417025 0.10851955 -0.12569408 0.09559545 0.08961367 0.06914238 0.1704184 -0.38372105 0.21412902 0.031223211 -0.13668598 0.093501545 -0.3820906 0.13148403 0.12416979 -0.114837565 0.06693379 0.02283799 -0.122865714 0.027434524 -0.23659931 0.19379938 -0.28443936 -0.286647 0.13758664 0.18751216
211 0.20244768 -0.15565567 -0.42444432 -0.023989838 0.09934665 -0.03570958 0.068300396 -0.14765039 0.024815878 -0.05772427 0.03998615 -0.24486732 0.046883896 0.024635645 0.12933844 -0.041459925 -0.13727742 -0.35065618 -0.09653355 -0.030302282 0.08520029 0.23429833 0.0045633097 0.012355764 0.35149917 -0.16004525 0.035537895 0.11112839 -0.20127785 -0.046419397 0.08472082 0.23238848 -0.031096937 0.19576797 0.19030637 -0.025352709 0.012737545 0.13751402 -0.25087273 0.27322862 0.15409696 -0.27547666 -0.26002705 -0.066761665 -0.11595819 -0.18217783 -0.12228659 -0.13317932 0.26943985 0.20769285 -0.13240273 0.059774913 0.12702355 -0.24702209 -0.20232485 0.3382452 0.39343804 -0.12432999 0.21299161 0.01814987 0.13231501 -0.07771465 0.08393338 0.13799646 0.022343243 -0.0068568047 0.16931972 0.16224799 -0.056901127 0.21986176 0.3311086 0.008936668 -0.012861195 0.14743167 0.26222435 -0.2180554 -0.17954144 0.15476188 -0.14574057 0.11845749 -0.16065241 -0.43333238 0.0784921 0.0026038613 0.017151995 -0.05519932 -0.05998722 0.15057257 -0.032414943 -0.18907826 0.12889977 0.23655465 0.21390307 0.09775574 -0.023253394 -0.07347815 0.20953876 0.12097175 -0.0129359355 0.06038064 -0.06028018 -0.23175685 -0.033872284 0.0632684 -0.0028220075 -0.09549721 0.06886574 0.1069005 0.055779718 0.02502859 0.08226564 0.0075727273 0.09515423 0.19421566 0.01411188 0.33792678 -0.025339028 0.040384676 -0.059013505 -0.088752545 0.01027736 0.07235823 -0.087837964 0.25351554 -0.007095667 -0.3522466 -0.21449696 0.084459394
128 -0.18173604 0.13201183 -0.13491935 -0.045692526 -0.16236535 -0.06270269 -0.055064585 0.10711121 0.20526578 -0.13967119 -0.041171562 0.26748902 0.009483439 -0.19509669 -0.06605179 0.2547341 -0.012443593 0.011432618 0.027838226 0.008837641 0.03330694 0.12096407 -0.14790387 0.085574076 -0.033608906 -0.119622216 -0.04802053 0.076705 -0.14670375 0.16280834 0.112117425 -0.057618167 0.004417346 0.09038442 0.032445684 -0.01879443 0.10123137 0.21269159 -0.29228055 0.12343334 0.29974395 -0.2182289 0.11434582 -0.04326503 -0.03209448 0.08976378 -0.13515712 0.21245563 0.4681682 -0.14131929 -0.012856493 0.069205016 -0.1960462 0.072347194 -0.06288527 0.23433046 0.081548914 0.111750215 0.032314118 -0.20110078 -0.11219227 0.1336502 0.070587486 -0.018153071 -0.20775089 -0.00954486 0.23028633 0.44087118 0.1658463 -0.14280446 0.17906743 0.16422118 0.23110129 0.23509549 0.00352007 -0.0016745277 -0.09545881 0.124027975 -0.11699511 0.42482495 -0.000402818 -0.09415177 0.007959337 -0.061394025 -0.009712434 -0.16723016 0.060216118 0.029657172 -0.023664398 -0.26892385 -0.01565908 -0.22105388 0.047425974 -0.07033045 0.007943844 0.22494975 0.10900037 0.08243391 -0.28163433 -0.08657374 -0.13480969 -0.112797104 -0.10633542 0.139596 0.004760753 0.08558278 -0.023044912 0.050996583 -0.13821736 0.069237545 -0.060698006 0.02769673 -0.014002497 0.23763868 -0.026070246 0.26004282 0.020349417 -0.042927876 -0.043046754 -0.0113042435 -0.11298235 -0.15779285 -0.19651149 0.019874373 -0.31076798 -0.14448549 0.08072875 -0.02922851
105 -0.0521521 -0.15748169 0.15930443 -0.003263026 0.18592925 -0.33361283 -0.1635744 -0.127529 -0.13955736 0.13459286 -0.092532426 -0.13789535 -0.23690447 -0.015570099 0.076949745 -0.01687253 0.14803466 0.12757558 0.0110434545 -0.02602028 -0.069052316 0.07838634 -0.07125121 -0.16854237 -0.0048072315 -0.14439249 0.05452685 0.079846375 0.13984998 0.06763427 0.4734684 0.038480304 0.09854061 -0.16517901 0.04542496 -0.14369796 0.13868059 0.3526685 0.16670957 0.21969715 0.32793245 -0.14189795 0.11846297 0.17779933 -0.0672386 -0.19200517 0.021319782 0.06936712 0.09628973 -0.11704069 -0.025251325 -0.111351795 0.16237527 0.1669913 0.26433763 0.22479852 0.14208424 -0.007213365 0.27211612 -0.13390186 0.01277231 -0.04216166 -0.13217671 -0.056685064 0.13604854 0.24694614 0.20893759 0.114467494 0.080187015 -0.09311019 -0.061206017 0.12869737 -0.14606754 0.24071914 -0.036373682 -0.23509361 -0.14921334 -0.05564939 0.18019287 0.19364476 -0.008912678 -0.19267936 -0.028121581 0.050354626 0.015798645 0.10712457 0.112789035 -0.03746647 -0.099303916 0.023932261 0.24279629 0.03691829 0.25803757 0.18790281 -0.023388747 0.11647509 -0.13908519 0.032779474 -0.07241112 0.10139345 0.2162081 0.044101764 -0.11138365 -0.09115168 0.03736497 0.005101238 -0.033009432 -0.019875 -0.14689443 -0.11538066 0.037329342 0.105415545 0.026305795 0.05339735 0.003201816 0.36810228 -0.019697431 -0.19508003 -0.1877454 -0.09001789 0.12696859 0.036063567 -0.10629731 0.074359894 -0.09563771 0.048785906 -0.03436984 -0.024163926
377 -0.09303929 -0.107622035 -0.054192413 -0.18155277 0.001242968 0.07144781 0.012635527 0.062320862 -0.20210077 -0.118080504 -0.14826056 0.3993919 -0.060076933 0.1782624 -0.021836542 0.08298847 -0.047472514 0.053101134 0.13447607 0.013758141 0.30101988 -0.11415374 -0.291759 -0.3105103 -0.11902091 0.13612056 -0.25635102 -0.3006165 0.004216365 0.05762112 -0.026500417 0.14916486 0.28491363 -0.078022316 -0.1681713 -0.027605927 0.19522296 0.2648326 -0.3549344 0.106782995 -0.029786091 -0.10674407 -0.027715458 0.23775725 -0.035290193 0.022148097 -0.0646503 0.36702013 0.6304552 0.21444994 -0.042369306 0.1577935 -0.10662122 -0.019373951 0.122802444 0.19874583 0.23156393 0.29191488 0.13802348 -0.13037623 0.24026565 -0.011627558 0.22036965 0.04328622 0.15138896 0.101537384 0.14667821 0.17302558 -0.24880928 -0.1945119 0.22682968 -0.116227664 -0.088623725 0.40302593 0.009038672 0.07609294 0.10803677 0.23143083 -0.07089002 0.30597228 -0.40115038 -0.18389279 0.15131846 -0.15253404 -0.00018662069 0.21678522 -0.0069726226 0.090583034 -0.1672136 -0.24830277 0.15130249 -0.00861702 -0.092590205 0.208834 0.23371765 -0.015133952 -0.14564644 -0.037087392 0.055795472 0.09999548 -0.1528624 -0.18255284 -0.22031759 0.12956573 -0.048149586 0.103316404 -0.05529912 -0.5228734 0.29010838 -0.23345 0.16134086 -0.22089548 0.08990881 -0.104980856 0.047534972 0.14238939 -0.09134155 -0.034011815 -0.1622558 -0.03266151 -0.35485572 -0.05538556 -0.18741298 0.062357362 -0.18445618 0.005717433 -0.11457088 -0.13550945
283 -0.2743669 0.01783157 0.021201497 -0.1743337 -0.0052679563 0.04146144 -0.23463221 -0.1911262 -0.018189184 -0.10180839 0.3104298 0.302262 -0.20726001 0.18797168 -0.007530535 0.037656203 -0.03568615 0.38200563 0.14338028 -0.13007104 0.08891864 -0.26261666 -0.15600803 -0.07391685 0.13408725 -0.0816931 0.1402924 0.0427198 -0.024566842 -0.16766036 0.12796433 0.121131845 0.07562304 -0.05477123 0.043221865 0.062587894 0.09189898 -0.10910063 -0.2675602 -0.04095276 -0.05161629 -0.13985156 -0.09348089 -0.09255102 0.120442584 -0.10585483 -0.103145815 -0.051700342 0.13867888 -0.0562992 0.079946846 0.13420725 0.052628487 -0.14411835 0.12664458 0.3332989 0.054727945 0.09926031 0.2413311 -0.15536399 0.2530133 -0.014461788 -0.09886509 0.20388083 0.24593297 -0.12769923 0.14991899 0.028357515 -0.30632666 0.1977522 0.28728735 -0.055008158 -0.13647118 0.055288985 0.037552442 -0.12237242 0.17487563 0.08746505 0.082869515 0.34281233 -0.14723924 -0.1868847 0.09747636 -0.041702934 -0.18064244 -0.021840274 0.23034386 -0.086203255 -0.496934 -0.05760103 0.21899268 -0.14468311 0.03621755 -0.106531374 -0.0041383374 0.038307514 0.13180685 -0.077068344 -0.033789374 0.055333313 -0.16615236 -0.13788955 0.2865727 -0.010849993 0.1151546 -0.0021587492 0.15964289 -0.029818334 -0.15312383 -0.08931315 0.21038385 0.11590224 0.037783723 0.068374746 0.10283749 0.24076036 -0.2625062 -0.27181175 -0.08429551 0.04133775 0.06444981 0.025656186 -0.11084516 -0.16928357 -0.12467725 -0.1368579 -0.016126378 0.11738377
83 -0.40016893 -0.099646136 -0.07030789 -0.050410975 0.12303418 0.061006624 0.07513791 -0.17372324 0.034031667 -0.22441804 0.10149063 0.012642057 -0.26946554 -0.15050934 -0.16232763 0.08075378 0.17000993 0.07675075 0.03531465 0.08411999 0.09510513 -0.24840797 0.0149600245 -0.050032955 -0.1276318 -0.23268755 0.31919098 0.18446437 0.05056808 0.2650645 0.12027389 0.1018354 0.28774318 0.112533264 -0.24968898 -0.13263567 0.10709322 0.21152364 0.019900165 0.040321615 0.19554277 -0.17803141 -0.17960376 0.21789731 -0.10159355 0.0108171785 -0.08238169 -0.2544139 0.15780279 -0.08729234 -0.007821822 -0.009813939 0.03729791 -0.13938934 -0.118406564 -0.032646358 0.2975742 0.014147278 0.055037133 -0.17462267 0.21526301 0.096027195 0.034757722 0.22983974 -0.113513336 -0.38134226 0.16845998 -0.013149658 -0.18342899 0.082776286 0.09352891 -0.087196454 -0.07604223 0.14680862 -0.055951696 -0.036525548 -0.09899824 0.056030042 -0.10942394 0.057133652 -0.00712586 -0.31233156 0.06726169 -0.11470541 0.12652871 0.13662592 0.0040983255 0.08462737 -0.16525832 -0.36595204 -0.0107901655 0.07086228 0.07883705 0.21507627 -0.10303856 -0.06998494 0.028767107 -0.29759225 -0.3063361 0.17351082 0.09022981 -0.20979747 -0.02503271 -0.24904841 0.16116467 0.14018951 -0.099539325 -0.17880155 -0.059858445 0.04884458 0.079024546 -0.11078019 0.12071646 0.010432532 -0.01923385 0.21192333 -0.10644553 -0.10074544 0.0460926 -0.13897815 0.2829057 0.24512069 -0.39816976 0.08950121 0.015686963 0.10370731 -0.05083211 0.15445167
106 -0.17687844 0.078929804 0.13995141 -0.09609996 -0.0444563 -0.041537024 -0.099827655 -0.25771266 -0.008654267 0.046465844 0.09920493 0.2859324 -0.044364903 0.121375404 -0.13432111 -0.12009845 0.26884326 0.005664402 -0.0067593637 0.32910547 0.14513794 0.10982648 -0.1065212 -0.09491583 0.06102806 -0.2217312 0.14826919 0.16171348 0.1799849 0.14502758 0.17922989 -0.14515597 -0.04768385 0.19996907 -0.013009751 0.13098417 0.015278709 0.059142996 0.19809753 0.087439016 0.012671861 0.074142165 -0.23498875 0.14871506 0.19915198 -0.2771911 0.097033486 0.35292777 0.10484627 0.009236179 -0.19115998 -0.16028751 0.080438316 0.025114013 0.15378822 0.16010414 0.31856945 -0.09569438 0.07806027 -0.13479385 0.08252712 0.013973417 -0.032727834 0.015932968 0.22376795 0.31189427 0.11854131 0.017337339 0.109800376 0.10636727 0.2941151 0.16484517 -0.012021569 -0.05925513 -0.021259762 -0.10255661 -0.13220273 0.058514472 -0.050386366 0.40949997 0.10269587 -0.22142039 -0.09815146 0.036140665 0.080127165 0.09121889 0.23466532 0.1873502 -0.24887137 -0.108420424 -0.012068713 0.13705742 0.2538319 0.09190992 -0.008327918 0.14998905 0.14238356 -0.0044202753 -0.06528594 0.44795462 -0.068951465 -0.28633264 0.15951985 0.08908278 0.22986874 -0.058526345 -0.034736536 -0.07585614 -0.02045552 -0.018183703 0.046692755 0.09549095 0.31931308 -0.11791019 0.024133636 0.0670133 -0.12820496 0.0638254 0.1349404 -0.051459674 -0.10633711 -0.18246222 0.013827396 0.16291602 0.010591414 0.045255266 -0.11155421 0.08404221
114 -0.17167427 -0.061676823 -0.06816015 -0.20930836 0.26790944 0.267435 -0.086139366 -0.003108232 0.07204274 -0.10758736 0.013346645 0.06155383 -0.20917644 -0.036496896 0.24361344 0.074958965 0.12044755 0.21171585 0.17647482 0.10381848 -0.035589114 0.14525257 -0.13071094 -0.011303998 -0.11028724 -0.28878576 -0.057662137 0.19527103 -0.028621947 -0.10517453 -0.032736372 -0.059969474 -0.2882653 0.12562808 0.05967125 0.019821549 0.17603822 0.042393774 -0.08159802 0.07095586 0.012571246 -0.02171935 0.072516315 -0.045936447 -0.023944736 -0.111290775 -0.006806817 -0.02854947 0.20426318 -0.021403454 -0.015976267 0.118366756 0.05263247 0.06564514 -0.14669448 0.05299897 -0.1349923 0.04937778 0.24727811 0.10781109 -0.23670228 0.16701867 -0.043980822 0.22113061 0.06828891 0.06651832 0.16901089 0.27497002 -0.006119268 0.21440601 0.051024742 0.13279347 0.0019377924 0.15586352 -0.03292303 -0.26315472 0.016332662 0.13787086 0.0571322 0.28162104 0.015839722 0.09600909 0.026204232 -0.08935459 0.20549695 -0.21333618 0.20520893 0.31714037 -0.22959751 0.25605464 0.060606346 -0.056012414 0.08350532 -0.0053287493 0.06775053 0.1690401 0.26217225 0.07224311 -0.050604932 -0.33243814 0.25354913 0.03762892 0.0071731503 0.064935625 -0.022079851 -0.034521267 -0.14128965 -0.1253158 -0.087799974 0.080918096 -0.07875681 -0.13303551 -0.10458041 0.089134395 0.15012982 0.2497606 -0.19313799 -0.21195616 0.06777401 0.023085939 0.030042047 -0.02485601 -0.16633964 -0.032004185 -0.0039523034 -0.20806828 0.1319955 0.063973695
420 -0.052439414 -0.05929047 -0.019480065 -0.16821261 -0.0046920264 0.14809927 0.002009898 0.1537049 0.293579 0.20921262 0.19779108 0.10601466 -0.4227583 0.15412742 0.14785235 0.14513333 0.1450169 -0.03502111 0.008299182 0.3019695 0.17028037 -0.014928718 -0.18843937 0.13022785 -0.22621493 0.12810081 -0.0502295 -0.20894453 0.073760934 -0.0736043 0.17556052 -0.002621399 -0.08031558 -0.22857343 -0.035181496 0.052949067 -0.06544427 0.059466343 -0.043233868 -0.024285238 0.12088006 0.049417756 0.018686265 0.14658678 -0.34407288 -0.16752128 -0.0981857 0.08817346 0.28230375 -0.21430981 -0.2826983 -0.03608928 -0.06886169 -0.37895507 -0.24755345 0.32768437 0.39060602 0.25130787 0.12453783 -0.20473765 -0.21920595 -0.17158857 -0.045680113 -0.31143415 -0.36071634 -0.19421779 0.42142448 0.08396764 0.09897633 0.29252693 0.017361611 -0.23624162 -0.17428705 -0.108583465 0.061876155 -0.048026994 -0.088228956 -0.2529137 0.10668608 0.2693653 0.15354255 -0.23473723 -0.06638519 -0.055736255 0.044510953 0.22015366 0.27326262 -0.1313461 -0.03112592 -0.24822879 -0.052657522 0.016407372 0.16384801 -0.06306443 0.1286505 -0.22612025 0.020744953 0.09514244 0.026852459 -0.09857282 -0.2617838 -0.2136778 -0.006370921 0.14361295 -0.11813044 0.28040966 0.089570366 0.04906426 0.30898383 0.12136373 -0.17919208 0.011706658 -0.018791588 -0.17315881 -0.0033381435 0.09539669 0.17601214 -0.028149413 0.054962598 -0.0025971653 0.14041954 0.045657314 -0.06307986 0.2077397 0.022967469 -0.033091445 0.017180718 -0.20228827
21 -0.18314563 0.14287904 0.07173489 -0.2803913 0.30358285 -0.08558643 -0.054891568 0.08619791 0.049758505 0.10893232 0.36804643 0.111091845 -0.06601013 -0.10647129 0.18349285 -0.077952445 0.3962004 -0.019401621 -0.13879748 0.21919262 -0.029431596 -0.017430898 -0.019572876 0.13240056 -0.117540516 -0.29967916 0.03471016 0.04056798 0.03969825 0.07677375 -0.010226863 0.22445993 -0.19691308 -0.042470414 0.029980797 -0.24776846 -0.019020865 0.042459432 0.1035119 0.07015422 0.029084282 -0.17402826 -0.072438724 0.24077295 0.23485382 -0.17948946 0.010411742 0.094207495 0.24751316 -0.16916609 0.08028623 -0.04472351 -0.014932563 -0.0379796 0.05029135 0.34143305 0.18873303 0.05110397 0.050971907 -0.113517694 0.103681214 0.058318615 0.08103043 0.045527536 0.1201996 0.17028117 -0.035461597 -0.0855637 0.216532 0.18823798 0.10742326 0.13074982 0.127201 -0.025432175 0.024790628 -0.124133155 -0.10024693 -0.04035528 -0.09752427 0.17621423 -0.080213495 -0.22215968 -0.39143074 -0.09891604 -0.110935174 0.027277784 0.22391354 0.0640525 -0.09176374 -0.2742743 0.08323363 0.25394985 0.45468625 -0.1780712 0.08081468 0.0784687 0.014849598 0.38324982 -0.16638815 0.10214714 -0.12933968 -0.313082 0.13253999 0.059985384 0.20241176 0.073052585 -0.120537944 -0.037029117 -0.007936758 -0.23668326 0.010267211 0.011140793 0.16006307 0.03642406 0.124188915 0.052331176 -0.12811969 0.17735982 0.2019482 -0.12388214 -0.11201771 -0.18622635 -0.1482426 -0.060191125 0.012200008 -0.062138088 0.20681238 0.06987916
142 -0.22649884 0.0896688 -0.11905878 -0.26129308 0.06165079 0.014236423 -0.10668182 0.065857545 -0.05207564 -0.13528267 -0.020397792 0.44787508 -0.3054814 -0.026332147 -0.0104034 -0.09588933 0.059296094 0.16347393 0.12542792 -0.13397735 0.3577082 -0.08672873 0.039327845 -0.09789443 -0.25094938 -0.26870376 0.07448381 0.054827876 -0.13533129 -0.020354433 0.26611307 0.15952621 0.1105571 0.17810845 0.1230318 -0.19778034 0.14775473 0.21234722 -0.04210341 0.13097149 0.09387668 -0.06385749 -0.15443514 0.048229586 -0.15765531 -0.22480175 0.021989172 -0.036578625 0.17753844 0.099098936 -0.3312015 -0.2050004 -0.21947655 0.0069189696 -0.052529864 0.1628074 0.13202699 -0.009861371 0.20120455 -0.044601444 -0.020162657 -0.11662986 0.13545041 -0.21235655 -0.28092274 -0.04437554 0.13652857 -0.14047663 -0.113746 0.090484455 0.2059503 -0.124042615 0.05963301 0.11739766 -0.2652044 -0.17356326 -0.2604625 -0.005212179 0.2298227 0.050613176 -0.030898778 -0.1285481 0.050086796 0.056182105 -0.2037761 0.021276074 0.068773784 -0.06454134 0.0853216 0.3181281 -0.10332453 0.17030133 0.18776025 -0.10576822 0.14610195 0.15168554 -0.056076247 -0.3296354 -0.07904247 0.2206482 0.06343347 -0.11322327 -0.15853232 -0.18683535 0.19705366 -0.21431649 -0.13854367 0.20792659 0.15832427 -0.061474826 0.01912448 0.23279832 -0.13966385 0.15086174 -0.10714161 0.023635805 -0.124476045 -0.1391478 -0.19727816 -0.13100484 -0.14345562 0.070736766 0.03788645 0.0395916 0.08028808 0.04633741 0.10740307 -0.025798658
87 -0.09828601 -0.09038236 0.19298932 0.035582967 -0.021634266 -0.14471067 0.014511442 0.071399935 -0.094537854 0.08576962 -0.033485737 0.13285105 -0.18355066 0.1134586 -0.029646594 -0.09121681 0.052372724 0.22005983 -0.08764332 -0.04689563 0.15914558 0.17929985 -0.26961967 -0.07960444 -0.11851656 0.16893044 0.20402925 0.27176058 0.20417912 -0.070496395 0.12309811 0.11909458 -0.05340868 -0.03981814 0.08303971 -0.30372152 0.2256019 0.16014752 0.24686146 0.025365572 0.3067141 -0.18597959 -0.25588667 0.14304078 -0.07346607 -0.016211882 0.058187563 -0.2655532 0.25994173 0.1335516 -0.08685938 0.020943936 -0.04396779 -0.22563131 0.16205941 -0.04753875 0.1921822 0.19229715 -0.034180082 -0.0055551236 0.094636396 -0.15092398 -0.059177916 -0.09578762 -0.2720621 0.1657156 0.0020848531 0.041155875 -0.08094644 0.036225256 0.2598174 0.03985581 -0.13761246 0.29135948 0.030678678 -0.20633312 0.04288489 -0.03916505 0.032919224 -0.048788965 -0.14715275 -0.123753846 -0.046876345 -0.252248 0.10467829 -0.08286918 -0.041868538 0.06697799 0.0070011998 0.11311138 -0.064954914 -0.107663706 0.44960284 0.10133796 0.069376156 0.2225796 0.08472007 -0.15688987 -0.09806982 -0.08412647 0.01656324 -0.31104362 -0.024441132 0.20651497 0.2249102 0.089600176 -0.14967495 0.022695927 -0.28267118 -0.16028942 -0.07998129 0.069677174 -0.059877183 0.1984653 0.089418024 0.33245397 0.1031433 -0.095977455 0.06931345 -0.061099403 -0.07284978 0.14042197 -0.13162294 0.33985165 0.17903492 -0.012662297 -0.03966417 0.0795664
282 -0.08270534 0.13943726 -0.04386422 -0.057674 -0.021534322 -0.0012022633 -0.022491928 0.102468744 0.026528554 -0.33402094 0.13151525 0.014911271 -0.24845043 0.055492267 -0.06376311 0.01193203 0.26936105 0.008252856 0.2488877 0.15130341 0.19627565 -0.07352787 -0.11413933 -0.12087676 0.11378834 -0.021239946 0.04247245 0.030059366 0.29494548 -0.10618145 0.15649326 0.07139823 0.23061633 0.02688085 0.12330919 -0.04124417 0.1920488 0.08930519 -0.09034562 0.19381224 0.03981708 0.04959722 -0.26294535 0.011971379 -0.01667832 0.028249044 0.072056934 0.03961776 0.20395298 0.0063217566 -0.12572719 -0.08231465 0.21912088 -0.17888641 0.051128007 0.43770462 0.11836556 0.16123784 0.08251217 -0.1895055 0.060633346 -0.012372959 -0.1344681 -0.040289823 -0.22513995 0.07105549 -0.096755244 0.021356763 -0.28577372 0.20954247 0.29106444 -0.24366446 -0.046185102 -0.012079313 -0.030322682 -0.22806384 -0.25250775 -0.034330428 0.2555302 0.17462197 0.06912176 0.030634876 -0.068552785 -0.010446883 -0.2469194 0.16054486 0.13358264 -0.043241233 -0.19595179 0.2828537 -0.38334435 -0.050663974 0.18479922 0.015934724 0.009823891 0.0238906 -0.099373884 -0.24599732 -0.17354222 0.27729943 0.35210478 -0.18632078 -0.10378008 0.18135694 0.17138708 -0.11167593 -0.012663399 0.01320247 0.10455478 -0.13974321 0.059750535 0.23903063 -0.11702065 -0.055767883 0.14702249 -0.08813879 -0.13009349 -0.09565383 -0.019378439 -0.09140307 0.066751115 -0.1468617 -0.029184828 -0.016132105 -0.18162628 0.07982313 0.035338614 -0.12530951
333 -0.3343864 0.08554432 0.06784029 -0.24874441 -0.067680895 0.23799035 0.047297157 -0.17825174 0.001699295 0.07629521 0.103303336 -0.23971921 -0.24417734 0.085723415 0.08796865 0.04129459 -0.004183807 0.21433234 0.087826096 0.13093014 0.23345257 -0.032042045 -0.022341397 -0.16485673 -0.23067504 -0.17610419 0.16451065 0.02651481 -0.029673938 -0.012188703 0.27953684 0.03335507 -0.1025967 -0.03855349 -0.09511095 0.100026965 0.29591554 0.012338675 -0.11077185 -0.13582954 0.016777812 0.106075935 -0.033020854 -0.086730845 -0.0833552 -0.068580374 0.3016528 -0.3633136 0.30678803 -0.03273488 -0.09890197 0.036455348 -0.14193769 -0.041696947 0.179812 0.10356403 0.13560364 0.16600558 0.31004354 -0.09329213 0.037296664 -0.08715817 0.18201755 0.028939558 0.26165763 0.26825783 0.28626597 0.08981637 -0.0109226005 0.34514967 -0.17878309 0.1024156 -0.2660429 0.1265049 0.2883474 -0.23219295 -0.19348398 0.12511855 -0.13739805 0.1374041 -0.11172931 0.09832777 0.14374545 0.01874359 0.3182098 -0.06183133 0.19114955 0.22456567 0.14560951 0.2424226 0.038527172 0.05988654 -0.054576844 0.15326282 0.18222032 0.32039526 0.09553458 -0.0599086 0.14264214 0.014498333 0.34821957 -0.03646145 -0.04057908 -0.053577833 -0.029706236 -0.13976121 -0.14618936 -0.23415367 -0.1477231 -0.081432946 -0.04595802 0.071907274 -0.12645224 0.103619546 0.1088849 0.06491075 0.15058666 -0.2228176 0.2804344 0.037594922 0.033904273 0.084180035 -0.22928375 -0.15529674 0.09590795 -0.019496864 0.14044704 -0.051518124
424 -0.022128688 0.16771775 -0.04191727 -0.047797516 -0.021462789 0.15583225 0.1291419 0.09558391 0.20087622 -0.15258811 0.1593362 0.07086173 -0.2329843 0.066518724 0.18793534 0.10401337 0.19042382 -0.061032977 0.16889787 -0.1348509 0.061250135 0.18029676 -0.30707 -0.25630447 -0.029831119 0.10856643 -0.101141356 0.16622347 0.18532376 -0.12845562 -0.13029966 0.14018399 -0.029286467 -0.14181559 0.0896129 -0.04377776 0.15077765 0.16067655 -0.06888105 -0.013460673 0.17936079 -0.013652067 -0.07084998 0.1971411 -0.26428568 -0.3598309 0.10958834 -0.112451755 0.1635304 0.13377075 -0.17495678 -0.048384584 0.15963621 0.2691836 0.12731174 0.093216166 0.13825163 -0.124329016 0.30186185 -0.110265054 -0.10683157 0.1770953 -0.2868183 -0.14157166 0.011903841 0.26777312 0.113691896 -0.06703367 0.042605255 0.3400341 0.21073222 -0.010014027 0.034905635 -0.060406964 0.16578466 -0.15123679 -0.14817128 -0.14988539 0.101432316 0.42606208 -0.06741165 -0.35982445 -0.0627211 0.081282064 0.11374534 -0.10894431 -0.18755984 0.12355789 -0.16552284 -0.025708515 -0.37586868 0.14611474 0.18177003 0.074737966 0.2557563 0.012552217 0.15440704 -0.16534176 -0.041542232 0.0789338 0.072281785 -0.06658117 -0.065878324 -0.028515412 0.09850111 0.15319465 0.036864284 0.3052442 0.101454705 -0.0014099249 0.12081778 0.12284186 -0.08602139 -0.22576955 0.15310708 -0.11174865 0.14477533 -0.098944314 -0.19616626 -0.051210593 0.120316245 0.1794955 -0.15128647 0.07664933 -0.1884689 -0.1673765 0.15090217 -0.023867333
84 -0.39785802 0.0005969076 0.051849086 -0.082142785 0.10306931 0.5538268 0.052016135 0.1431817 0.12835613 -0.098160595 0.2704568 0.028351963 -0.05718523 0.15940116 -0.2614197 0.09516907 -0.11071762 0.20810197 0.08807316 0.10247741 -0.07637569 -0.11693808 0.21034479 -0.3542921 -0.18119691 -0.20922823 -0.060621824 -0.20695701 0.23675677 0.06927043 0.27565965 0.021436678 -0.16068937 -0.029084045 0.047274213 -0.08222945 -0.1414247 0.18062544 -0.07341148 0.07259917 -0.09307368 -0.2021383 0.0057198196 0.107586 0.3438306 -0.37381777 -0.13129236 -0.3882489 0.034498792 -0.06041242 0.2428136 0.18036821 0.21622786 -0.2190386 -0.020948598 0.08737658 0.124624185 -0.2986581 0.24646793 0.114892 0.14157361 0.10542326 0.018789725 -0.39189813 -0.3568504 -0.082271814 0.18499814 0.29564223 0.20675647 0.15407115 0.03118857 -0.1899468 -0.48044428 0.19239229 0.056507148 -0.3277893 -0.18348214 0.025360877 -0.0060605477 0.05641155 0.06791608 -0.2552528 0.08872303 0.17618804 -0.22135201 -0.14410871 0.10690807 0.13010715 -0.035987586 -0.1002325 0.0043297317 -0.07675296 0.29108953 0.26633275 0.051784057 -0.28956604 -0.31146723 0.06793338 -0.25570193 0.4519899 0.17670903 0.07352639 -0.08215657 0.33347312 -0.086535655 -0.320471 -0.08287822 0.005060262 -0.19095828 0.0795972 0.033387948 0.180355 0.04478634 0.15708953 0.36956733 0.03878691 0.32262248 -0.111563645 0.14241762 -0.075839 0.09286056 0.2730571 -0.12147493 -0.077472866 0.12468278 0.027736759 -0.107620224 -0.1715932
820 -0.111715406 0.10276599 0.10089323 0.06108228 -0.14002231 -0.08052233 -0.30310103 -0.037854653 0.035065554 -0.22546503 0.07893205 0.05774227 -0.12332489 -0.034450788 -0.26158565 0.27273896 -0.09683506 0.29995888 0.104013465 -0.058183506 0.05091291 0.059699453 -0.20271376 0.09578297 -0.06511315 -0.07958968 -0.10054828 -0.2122669 -0.26933658 -0.029719157 0.3018027 -0.09215555 -0.040171802 -0.34195024 -0.17571886 -0.16796255 0.12684178 0.35778034 -0.45075843 -0.06763609 0.21468206 -0.06745913 -0.15218791 -0.020852981 -0.030621488 0.10700441 -0.009053504 0.22354868 0.22920138 -0.0041863285 0.06463331 -0.12911506 0.2832497 -0.0078918375 -0.16309986 0.2351808 0.030294802 -0.013182251 0.033567853 -0.09077426 -0.23231073 0.25048012 0.08230987 -0.025062626 -0.15693566 0.09322662 0.3616389 0.17371272 0.1318109 0.014894621 0.10410117 0.20173903 0.2908454 0.18983954 0.13924582 -0.10560229 -0.2535934 0.21510555 -0.054940384 0.22306289 0.0018732039 -0.28733638 0.025851484 0.005227261 0.047653418 0.016745219 0.06312106 0.18557176 0.33694434 -0.14894362 -0.067417346 -0.112378635 0.29833764 -0.015315614 -0.018597027 0.23445204 0.036261994 0.03621991 -0.099364154 0.019800013 -0.19160526 0.10627052 -0.13218889 0.165876 0.06110156 0.31860885 -0.15912588 -0.040271778 -0.33182123 -0.060498707 -0.08199991 -0.07839461 -0.24302454 0.23251086 -0.16268176 -0.042305432 -0.008893873 0.1319226 0.07978554 0.04076692 -0.13798267 0.22160584 -0.16059728 0.16406211 -0.030434037 0.021076452 0.23079833 -0.15066701
301 -0.2392147 0.042067822 -0.001832209 -0.17502713 -0.013727154 0.360468 -0.31761584 0.09676936 0.14998119 0.15461639 0.108838044 -0.2483237 -0.37349886 -0.10336485 0.23047031 0.16787523 0.3241522 -0.030429961 0.13428515 0.12132097 0.17569257 -0.3467287 -0.0807884 -0.25240228 -0.2246912 -0.5262488 -0.052511398 -0.07795847 0.069231674 -0.010905566 0.14374827 -0.051579498 0.06631333 0.019731328 -0.078973286 -0.24268939 0.34295732 0.34224078 -0.20703968 0.36198226 0.29278842 0.17233801 0.17672189 0.10917758 -0.30149817 0.2128774 0.10124758 -0.040189836 -0.06170805 0.12355679 -0.31590346 0.27136225 0.017036319 0.16704474 -0.11612546 0.13492815 0.06449657 0.12973942 -0.24604508 -0.012145626 0.096319415 -0.16603667 0.1559129 0.09887875 -0.018831166 0.43872586 0.08695241 0.059755925 0.038819388 0.051336918 0.38338628 -0.18283375 0.28013387 0.21084121 0.15579963 -0.16294268 0.04172911 -0.26097947 0.06402627 0.21052995 -0.03927978 -0.015978599 0.013589924 -0.119944684 0.10973828 -0.1026808 0.06932367 0.037422225 0.015791265 0.024765773 -0.05325886 0.23830187 -0.05040517 -0.24176738 -0.014157524 -0.49462658 -0.10328863 0.04823391 -0.0044353516 0.014607928 -0.18755384 -0.027435653 -0.1594032 0.01115407 0.09352968 0.14084701 -0.12179051 0.23734087 -0.14839387 -0.0648732 -0.061569676 -0.2189293 0.013115813 -0.09415038 0.22368507 0.10631029 -0.37791383 -0.022473928 0.25676033 -0.051656958 0.09758897 0.00031378627 0.0048659565 0.017081317 -0.19403888 -0.23101474 -0.36117557 -0.3574196
115 -0.17860794 0.27497053 -0.084233895 0.09480766 0.1023653 0.038510516 -0.012119847 0.023922615 -0.18656616 0.06181345 0.066035055 -0.077925175 -0.15280381 0.17145687 0.10009922 0.15661357 0.019603016 0.13874601 0.15304942 -0.1674218 0.1328746 0.090968646 0.025597585 -0.13100775 0.20549408 0.11519909 0.10042086 0.008908278 -0.10862282 0.12755367 0.32071573 -0.031644292 -0.20836209 -0.13701765 -0.04512598 0.10623101 0.270362 0.20055568 -0.025465086 0.11735246 0.029790888 0.0753439 -0.13037488 0.023461986 -0.059336912 -0.01315106 -0.20930737 -0.17687662 0.16505787 0.10851653 0.033732075 0.13700157 0.16718249 -0.22649892 -0.09282694 0.08667422 -0.054155014 0.11101262 0.1034957 -0.21248281 -0.21616043 -0.034089956 0.023697289 0.02738589 -0.027889766 0.21918756 0.37664795 -0.1310067 0.11177446 0.20867427 0.0014704273 0.12724733 -0.10860516 -0.050224047 0.096796244 -0.45231134 0.13934907 0.12933734 0.032047145 0.035399765 -0.09326462 -0.102194965 -0.16300692 -0.09468912 0.21751656 -0.25992358 0.41523996 -0.095100015 -0.061631225 0.037671313 -0.089431986 -0.13692017 0.057249334 0.026446387 0.20993991 0.31485587 -0.011125814 -0.07532231 -0.15346855 0.28021607 0.031136679 0.052385274 -0.040122405 -0.0747541 -0.149591 0.022300517 -0.11073259 -0.16966482 0.0073804148 0.10176779 0.10832251 0.016112994 -0.008811174 0.011522758 -0.18756013 -0.07900714 0.027643178 -0.11562697 0.19759406 -0.051584974 0.09401135 0.08080017 -0.38568196 -0.06867457 0.1411054 0.1223628 -0.18693668 -0.15832953
256 -0.00064457936 0.0319082 -0.18225671 0.15496163 0.127324 0.2439787 -0.15775557 0.00053487427 0.026372872 -0.18094467 0.086741716 0.05037815 -0.2203376 0.19116034 0.18283944 -0.044872694 0.19804196 0.21702634 0.0112940855 -0.04594782 -0.04643906 0.015827652 -0.16423695 -0.08289693 -0.13285142 -0.0072490782 0.23655997 0.12904029 -0.2066509 0.2186005 0.07710341 0.046841282 0.035124905 -0.19948639 0.23056638 0.06641181 0.11560896 -0.19627665 0.049842104 0.040643137 -0.0049783303 -0.08658898 0.1309512 -0.2347073 0.0039799362 -0.2559942 -0.046749223 0.24493526 0.20868628 -0.024447087 -0.21308291 -0.05247151 -0.17031609 -0.008234604 0.12511268 0.2226237 -0.03125585 -0.025259107 0.18174587 -0.17065634 0.14193761 0.023883888 -0.17614271 -0.009111759 0.12944834 0.12434682 0.3017239 0.22366123 -0.18783703 0.101244316 0.23595323 -0.06780389 0.021515587 0.12678789 -0.08545251 -0.2664677 0.041822832 -0.18232635 0.29652625 0.14075388 -0.079867415 -0.27945244 0.17187311 0.04742622 -0.091866046 0.040623378 0.051018227 0.20509928 -0.17618808 -0.03761475 -0.13721877 -0.064900465 0.41644967 -0.012053894 0.05143093 0.020589171 0.07507333 0.018012635 -0.13868977 -0.03737488 -0.060737062 -0.14183277 -0.0025538555 -0.1338054 0.13960792 -0.044764534 0.059489984 -0.12952869 0.07834388 -0.010264186 0.07685721 0.25116557 -0.08343878 -0.08223598 -0.06982666 0.32313323 -0.004773941 0.028705603 0.23932526 -0.15963714 0.23618005 -0.15435354 -0.17785569 -0.09435985 0.043233298 -0.26530352 0.18463162 -0.06817404
58 -0.08725397 -0.05053678 0.15037364 -0.06695152 0.25793177 -0.10627121 -0.018207062 -0.039902993 0.043979812 -0.19986974 -0.023429884 -0.18198752 -0.3192547 0.06955206 0.15333691 -0.011103893 -0.23914704 -0.19897303 0.018778553 0.042393457 -0.006444947 0.029653184 -0.05886267 0.009103308 0.06671119 -0.11255643 0.14708492 -0.030953022 -0.12511012 0.013995799 0.12020316 -0.043277398 -0.013520328 -0.020153174 0.09983032 -0.20398961 0.0719103 0.08462522 -0.11625552 -0.042497583 0.06271495 -0.22778244 0.026586736 0.05973443 -0.15267096 -0.06866111 0.13169217 -0.4306885 0.024195457 -0.008424845 -0.21877137 0.25087586 0.19555841 -0.16043387 0.13127024 0.23166072 0.12417789 -0.06085388 -0.23561431 0.0033481806 0.03508757 0.0016468723 0.010143397 0.024385203 -0.12520422 0.10957306 -0.14973399 0.2258851 -0.25099114 0.08316107 0.14364028 -0.060546782 -0.012588525 0.049910598 0.20413649 -0.2004269 -0.48476812 0.1455491 -0.17124481 0.24833262 -0.029454159 -0.07228972 0.027970044 0.17625098 -0.10405636 -0.035369445 0.38699576 0.16125652 0.015678959 0.026054224 -0.007478145 -0.052585773 0.35939345 0.059155177 0.07503537 -0.11147558 0.26003367 -0.19581085 0.016768174 0.19490583 -0.05294635 -0.31607035 -0.064799495 0.06505654 -0.05959372 0.14125194 0.09561652 -0.07377674 -0.13724189 0.084925964 0.14435233 0.23251651 -0.0275444 0.1649324 0.008645379 0.024646126 -0.25094697 -0.2244294 0.20830472 -0.19046469 0.061436117 0.30090418 -0.18736543 0.09882696 0.042901516 -0.0838635 -0.16767411 -0.013744254
63 0.11026885 -0.123499885 -0.021140443 -0.17146933 0.40906313 -0.20032825 -0.25790083 -0.17461434 -0.0017070267 -0.014900629 -0.0769729 0.0047071325 -0.26341116 -0.0032448203 -0.005363348 0.087923914 -0.1975309 -0.0517798 -0.12144052 0.008058601 0.025979742 0.17287552 -0.2416616 0.32768375 0.18841343 -0.21874061 0.31781274 -0.0036434538 -0.15877649 -0.17346406 -0.018970482 0.16309828 -0.1692018 0.19845824 0.20498541 0.029445486 -0.06415062 0.13543123 -0.10604144 -0.014390704 0.11474202 -0.2867575 0.11416867 0.027330477 -0.23368397 -0.3228051 -0.100508474 -0.24751224 0.22285168 -0.13065593 -0.22562407 0.11897696 0.16644004 -0.12471622 0.109141536 0.31476724 0.2377369 -0.07478885 -0.04033178 0.07294093 0.15938279 0.43236494 0.19090386 0.10047551 -0.17442167 0.060541388 0.19363958 0.01548706 -0.18119533 0.1153112 0.20849806 -0.04502603 0.075888135 -0.0014604414 0.05168634 -0.26462075 -0.2611053 -0.07319379 -0.17894483 0.22692198 0.092000164 0.12953916 0.036617484 0.09719989 0.075279005 0.07745467 0.2545593 -0.13467674 -0.23777407 0.0057138926 -0.10995712 0.0315296 0.08881117 0.07572348 0.089004 -0.057215206 0.1456604 -0.18441652 -0.12706883 0.15690881 -0.028487172 -0.02434893 -0.09027971 0.062295794 -0.091301 0.018526997 -0.13603592 -0.18353342 -0.066821106 -0.036243487 0.07833606 0.15162207 0.084341474 0.042661227 0.0413837 0.08309351 -0.07565325 -0.07166675 0.18283899 0.15665632 -0.27036366 0.07735324 -0.258451 0.1238851 -0.035760235 -0.23640247 0.0022069463 0.057396922
405 -0.30381724 -0.074883215 -0.1427076 0.10110674 -0.079381645 -0.038136195 -0.15984984 -0.0845493 0.0724947 -0.14896192 -0.1638214 -0.025487373 -0.36030978 -0.06690757 0.20954697 -0.09884053 -0.05261153 -0.06574743 0.14051725 0.090944774 0.049725614 -0.024973903 0.059792917 0.1663917 0.00047655453 0.0587562 0.0322629 0.08921489 0.26520997 -0.1301903 -0.022429943 0.2831531 -0.1789203 -0.10550836 -0.02359517 -0.12929878 -0.011092074 -0.07612002 0.14185819 -0.17439364 0.19470672 -0.2422485 0.06821971 0.067247875 -0.046140548 -0.3013508 -0.032113213 -0.03797299 0.28325385 -0.137229 -0.04477118 0.244027 -0.06459817 -0.09171398 0.11752303 0.30770537 0.068858206 0.035403978 0.14691345 -0.08891785 -0.013685406 -0.2041234 -0.00053497264 -0.112633884 0.25451094 -0.025769917 0.113417804 0.020880656 0.0763278 0.30792803 0.15919076 -0.10188295 0.066377915 0.07496214 -0.26971644 -0.057685275 -0.060205042 0.34499237 -0.109477684 0.24074745 0.07731668 -0.13133155 -0.09578898 0.25264594 0.30660614 -0.023259526 0.12633567 0.20922282 -0.24077405 -0.08822759 -0.039078366 -0.08156935 0.2875742 -0.099672854 0.13681741 0.1327363 0.10797572 -0.048765462 -0.22068991 0.065403864 0.22367558 -0.24372225 0.27675155 -0.111929655 0.164637 0.14593856 -0.09245814 0.15214771 -0.26084942 -0.23688896 0.26432207 -0.043042373 0.0009842907 -0.23394436 -0.040220268 0.2578599 -0.297443 -0.1586075 0.029244518 -0.11931731 -0.37635687 -0.105541974 0.074724376 0.017644506 0.1844855 -0.12519158 0.1507132 0.0026743042
280 -0.025950266 0.08240709 -0.07023521 0.089888595 0.13244317 0.13347597 0.029828558 0.07085687 -0.055638902 -0.22240712 0.068352245 0.119814746 0.20841904 0.21163933 -0.056761935 0.12179251 0.0024778312 0.15882675 0.19378312 0.14324878 -0.11947093 -0.05973468 -0.36191413 0.0132682845 0.026659416 -0.14027639 -0.113082685 0.054373275 0.21438353 0.10423181 0.21622714 0.019643521 0.09287626 0.0002793236 -0.064352944 0.12527575 0.07862005 0.22642222 -0.25884578 -0.14109854 0.06956942 -0.122959614 -0.039052106 0.06464858 -0.19411626 -0.23420775 0.024588553 0.44846204 0.18390416 -0.4061666 -0.00049179205 0.2668116 -0.18393357 -0.04739729 -0.073838495 0.012644684 -0.2360395 0.22783953 0.009609073 -0.18066768 -0.11523207 -0.08212792 0.054467883 -0.12970619 0.020677373 -0.02673901 0.22084348 0.08422513 -0.07692016 -0.059093233 0.2993072 -0.014158729 0.13914526 0.4505068 0.020953523 -0.22987506 -0.004448206 0.083209336 0.16235784 0.20644796 -0.01913241 0.043725792 -0.14597225 0.17578885 0.03122501 -0.083947875 0.1275044 0.14830023 -0.18074313 -0.30469942 0.045580566 0.048703745 0.117266364 -0.1157014 0.006459018 0.24388562 -0.06946044 -0.13714124 0.03404828 -0.14052472 -0.17615567 -0.119218774 -0.094622955 -0.051552106 0.20674454 -0.041229255 0.1256073 -0.1044477 0.0077108936 -0.15741828 0.014597283 -0.256012 0.08296993 0.092589475 0.1866164 0.11603449 -0.012624065 0.03840504 0.022916071 -0.13606493 0.013639915 0.26370803 -0.31763616 0.25190538 0.018358435 0.07235136 -0.28548828 0.120089695
252 0.13686547 -0.121132635 -0.027475737 0.0026145645 0.21976301 0.074507795 -0.07833595 -0.18352292 -0.017720645 0.049876656 -0.014940916 -0.005733421 -0.18393214 0.15316178 0.003483843 0.07013979 -0.25041163 -0.15959367 0.055443082 -0.11546615 0.23154251 0.059907615 -0.023807399 0.16546357 0.27284783 -0.1488165 0.17165317 -0.03318653 -0.21028715 0.1811482 0.12411078 0.0032266362 -0.13029467 0.09122864 0.21703401 -0.010274058 0.18707861 0.036341492 -0.0240056 -0.16938494 0.1279461 -0.22807235 -0.10419888 0.05110452 -0.43105528 -0.25836223 0.0064963778 -0.37340567 0.08720877 -0.117770955 -0.3102794 0.24947211 0.028353035 -0.22842894 -0.0093065305 0.36964852 0.20408614 0.13334343 -0.16764781 0.086024046 0.1338911 0.123241626 -0.12583424 0.07771127 0.0050577796 0.31700197 0.017805982 0.23738237 -0.2052346 0.34436938 0.11797192 -0.1603498 0.23946363 0.0061168605 0.2227436 -0.16623443 -0.3158719 -0.1583843 -0.12248915 0.11496978 -0.034146477 -0.22418018 0.16724755 0.18042468 -0.08775602 0.1383334 0.1485373 0.07959524 0.037292983 -0.00788006 0.21624552 -0.01133825 0.2417206 -0.15478466 -0.007353175 -0.0703351 -0.163054 -0.0578702 0.031934883 0.29528058 0.030685395 0.045780916 0.10630193 0.108039714 -0.11433025 -0.009286817 0.030319512 0.003693986 0.071662776 0.1795718 0.08766248 0.19650629 0.03936459 0.2870354 0.042665362 0.20135342 -0.040956255 -0.11331689 0.19963007 0.008125959 -0.059720546 0.3409076 -0.2221961 0.040815968 0.12037713 -0.2771293 0.004273787 0.21990807
169 -0.033405416 0.10012926 -0.36564398 -0.16289835 0.077593945 0.09565968 0.058920443 0.10049176 -0.036934827 0.042989846 -0.103492916 0.1990254 -0.109342545 -0.055524338 0.21357396 0.025781855 0.12815322 -0.0034080544 0.096388094 0.04949724 -0.18048039 0.28660142 -0.06887813 0.022813464 0.15031481 0.09973572 0.103017025 0.13591495 -0.0015143813 0.1431925 0.20386995 0.13262193 -0.3053956 -0.060931522 0.055393197 -0.0669992 0.12889744 -0.032328457 -0.038864654 0.25504255 0.12768655 0.001397029 0.05022091 0.14130677 -0.15106879 -0.0026780919 0.050134957 0.12531735 0.10306053 -0.086612016 0.13603394 0.30366367 -0.0044909017 -0.081861205 -0.26892573 0.25125086 0.026379758 0.050920326 0.31991643 0.040523216 -0.026896922 -0.044646095 0.24085717 0.0093299635 -0.08752446 0.055298176 0.28178436 0.0057510217 -0.10857776 0.1398439 0.037217278 0.1186458 0.09615138 -0.13272464 -0.06349647 -0.3016214 -0.01613154 0.035982355 -0.00071630685 0.19244972 -0.007984894 -0.15496318 -0.11152255 0.11955014 0.020197 -0.23629355 0.25796735 0.2021228 -0.16137412 -0.016690785 -0.033800077 -0.08585286 0.03241534 0.023898177 0.086827286 0.17344125 0.09079237 0.11196609 -0.42175698 -0.06381735 0.081383765 -0.22643664 -0.053953707 0.116285965 -0.014776087 -0.04194344 -0.077052005 -0.22739598 0.02538242 -0.17445187 0.111271836 -0.23249665 0.1289236 0.1120382 -0.11265753 -0.16956055 -0.007227585 -0.19034703 0.050526462 -0.1117498 -0.014118868 -0.062595315 -0.3442444 -0.19304872 -0.27897382 0.08179255 0.10610618 0.11741946
212 -0.14831972 -0.096032605 0.010728919 -0.068563215 0.13954149 -0.2548278 -0.0598926 -0.07010133 -0.010105461 -0.010646493 -0.07408693 0.10848603 -0.26745617 0.06665786 0.091257386 0.09561703 -0.08225139 0.09668071 0.05681234 -0.008621401 -0.0058820937 0.06591707 -0.02866981 -0.09090374 -0.22889748 -0.03615456 0.108298354 0.10502363 0.07711933 -0.06892369 0.30086297 0.17430517 0.17073753 0.061710157 0.17074887 -0.049439393 -0.26817653 0.32949272 -0.071204945 -0.020179499 0.28624102 -0.027880773 -0.050288092 -0.048261613 -0.03106258 -0.09447749 0.2268622 -0.13728009 0.15035412 0.06240547 -0.25374463 -0.06756915 0.2024912 -0.34111452 0.13819262 0.2060776 0.19669652 -0.04467519 0.19179085 -0.27861825 0.12655161 0.08798617 -0.23866205 -0.23015179 -0.102636434 0.06520557 0.17287229 0.015335474 -0.021307789 -0.021874819 0.002625572 0.19303767 -0.17231718 0.10872233 0.0026418944 -0.16609693 0.054127425 -0.023649495 -0.0025029285 0.16796423 -0.18592885 -0.26231578 -0.1185742 0.011498619 -0.09842585 -0.11924652 0.1356888 0.2504049 -0.14852427 -0.08018996 0.039380256 -0.07825572 0.260547 -0.047693018 -0.009349919 0.09023711 -0.028754348 -0.074283585 0.07947654 0.13917105 0.19039771 -0.119146466 -0.015309528 -0.18680644 0.19236702 -0.06357256 -0.076401316 -0.004526602 0.035957575 -0.13072102 0.11292068 0.10216273 0.079269744 0.13870697 -0.047812372 0.06689519 0.030126657 -0.1895562 0.2383864 -0.19735242 0.122535594 -0.11637367 -0.13746494 -0.03924093 0.0809763 0.2233288 0.08471257 -0.21258071
96 -0.05462825 -0.21241982 0.017056622 -0.13276681 0.4148659 0.34248242 0.16596973 0.017130377 -0.33469176 0.095970914 0.07189612 0.031916946 -0.025986496 0.11543503 0.0527971 0.5575463 0.31345773 0.050437458 -0.07413354 0.08358928 0.2133054 0.22103803 0.1425403 -0.13904227 0.040041033 -0.3628525 -0.106162615 0.14246787 -0.35713384 0.26547194 0.059670515 0.20216787 -0.18047728 0.04941893 0.4160998 -0.15767333 0.07979686 0.42829597 0.17721376 0.15976961 -0.1279931 -0.03912056 -0.09591262 0.008520188 -0.21197951 -0.26644683 0.20248415 -0.005012292 0.37990126 0.20151235 -0.20360826 0.21824151 0.20368235 0.06932807 -0.21420258 0.22000699 0.005289119 -0.045630246 0.15443608 0.040044934 -0.26891202 -0.19581154 0.13201061 -0.11804954 0.20327023 -0.04245826 0.343116 -0.026663922 -0.11694037 0.221522 0.10715934 0.124530725 0.052545052 -0.06756992 0.0005605217 -0.092182346 -0.3435261 0.28498566 -0.12860605 -0.013452093 0.23438144 -0.15500969 -0.09427305 0.06850138 0.22314501 -0.21950367 -0.007329709 -0.1817177 -0.0905107 0.031744946 -0.03369818 -0.27861127 0.027948651 -0.06652882 -0.09829293 0.013145007 -0.080497146 -0.1323629 -0.008644444 -0.0051756087 0.08317928 -0.088545136 0.13553137 0.011117301 -0.1799944 -0.15245388 -0.17793895 0.06567122 0.039343093 0.010861401 -0.16572541 -0.00088622875 -0.031242026 -0.06665304 -0.06400005 -0.013855664 0.11096515 -0.1092625 0.039589263 0.0057815555 0.31104586 0.14809623 -0.13294634 -0.1360267 0.14027998 -0.28221548 -0.07668704 0.27394524
165 -0.124820046 -0.12613721 -0.10636785 -0.06583311 0.11664634 0.19667515 0.055622406 -0.0070808805 -0.12752983 0.07359547 -0.011644237 0.4506628 -0.24891901 0.110053994 -0.03215045 0.13991183 0.088233836 -0.0060343784 0.029583255 0.04979587 -0.16109839 0.14423385 -0.079533875 0.13705087 0.08496543 0.10590851 -0.05411923 0.119566604 -0.14161585 -0.009494819 0.34756818 -0.17067255 -0.035429507 -0.015798165 0.03446802 0.18651621 0.16127746 0.06267553 -0.025647178 0.25811747 0.118794344 0.046710216 -0.051702835 -0.16830766 0.037152022 -0.07317945 0.03432012 0.04685631 0.26013738 -0.030137952 0.2784696 0.07063668 0.14762819 -0.17934656 -0.33042008 0.16179782 -0.08105233 0.09492266 0.31121856 0.04387818 -0.29584187 0.10634557 0.042653527 -0.14143284 -0.06267263 0.2764056 0.3280507 0.22396137 0.08401373 0.2228924 0.16698715 0.23062241 -0.04522109 0.16529697 -0.2663142 -0.3923531 0.14292207 0.020115172 -0.2265809 0.09731724 -0.1474956 -0.05430317 -0.21164042 -0.2312397 -0.006259016 -0.091485344 0.31296965 0.02810532 0.26048228 0.021602072 -0.22153799 -0.10643833 -0.053399876 -0.04541684 0.13165517 0.020949444 0.124239825 0.059584603 0.074372806 0.04157565 0.00527749 -0.083560295 -0.018342363 -0.14136727 -0.083287016 -0.098138995 -0.3506487 -0.0033412802 -0.00975799 -0.020741768 0.096604735 -0.15586606 0.012802848 -0.21231474 -0.054587618 0.13131371 -0.018931497 -0.034630265 0.24949302 -0.23262925 0.0029126948 0.031062873 -0.25232592 -0.21192163 -0.22236066 0.063853756 -0.03544073 0.08650779
6 0.14125788 0.07507866 0.08909517 0.31152937 0.12525587 -0.062104505 0.027500376 0.03823978 0.005266778 -0.09454916 -0.27013853 0.10773711 0.077644534 0.3082496 0.1336629 0.45985714 -0.046807673 -0.0941623 -0.05396338 0.19373283 0.2559863 0.010758185 0.062161967 -0.022743428 -0.20832875 -0.043334037 0.1425315 -0.22907335 -0.1282117 -0.19633594 -0.025865017 0.19739519 0.29458508 0.13507524 0.3172735 -0.1381614 0.002135302 0.037082754 -0.05723872 0.013370825 0.13018377 -0.19247213 0.18937042 -0.14318438 -0.10897045 -0.17051554 -0.28418896 -0.053085975 -0.065423824 -0.03176892 -0.058270674 0.106746666 0.025676183 0.20596889 -0.19760787 0.6001858 0.0772496 -0.17306173 0.029372642 0.50211006 0.19034305 0.22292434 0.038398616 -0.15320425 -0.097316764 0.1337208 0.35442674 0.014379278 -0.117009275 0.04262124 0.23125611 -0.34954804 0.17826256 0.3769741 0.6110802 -0.16334471 -0.029954374 0.2890522 -0.12020746 -0.059177905 0.025052723 -0.06823908 -0.19929403 -0.18230076 0.09426658 0.16954824 0.1195697 0.07249347 -0.23672391 -0.075595215 0.06701837 -0.005354769 0.22934799 -0.21190608 0.32701087 0.23412032 0.09161404 0.06921889 -0.07588607 0.095289186 -0.00078351516 0.02438446 -0.025342856 -0.062215682 -0.16956928 0.46061808 -0.22672871 -0.043421004 0.11602623 -0.10075124 0.14380157 0.29060614 -0.0137576545 0.24478991 0.2614537 0.08037146 -0.25575906 -0.26884484 -0.0037850747 0.02008418 -0.048495095 0.41309005 -0.033399258 0.10193093 -0.12924862 -0.29115394 0.074582785 -0.053954292
494 -0.311125 -0.23992261 -0.09361412 0.20597076 0.14145598 -0.22543752 0.32450897 -0.028293544 0.039444976 -0.27143413 0.0696364 -0.04538143 -0.26750904 -0.10180144 -0.16097564 0.044480413 0.22180426 0.038428534 0.05710483 -0.075412266 0.18353547 -0.14076349 -0.17852765 -0.025682582 -0.29596847 0.25455052 0.13283567 -0.19057994 0.25071317 -0.22475404 0.18659292 -0.34922132 0.057188116 0.036359783 0.10648679 0.005725794 0.06993737 0.31595096 0.035576165 0.118851945 0.11306862 -0.341789 -0.16296421 0.14296073 -0.051216416 0.11851239 0.33079562 -0.03385136 0.10269889 -0.081206314 0.045396384 0.07987329 0.047155857 0.23360692 -0.35407656 0.38381472 0.11894594 0.06627088 0.16069993 0.10464945 0.20061311 -0.11325833 -0.041904006 0.09309664 -0.11153387 -0.106692135 -0.0044905664 0.12004297 -0.09975858 0.3290185 0.0028918518 -0.014464681 0.06693346 0.5348034 0.16993059 -0.16726771 -0.044841036 -0.111665666 -0.13075338 0.34033588 0.019690301 -0.02363966 0.11577959 -0.025151053 -0.13824 -0.1461965 0.05641362 0.14618966 -0.11073204 0.15506989 -0.22380017 -0.22688352 0.15654969 -0.2723791 -0.09034656 -0.026852416 -0.16427107 0.14367434 -0.34613913 -0.056106474 -0.13246183 0.34079742 0.10219373 0.08858186 0.21239004 -0.14237393 -0.28993642 -0.04681289 0.34069267 0.059908822 -0.03649911 0.038064785 0.07832255 -0.41731468 0.017110638 -0.02194915 -0.16800208 -0.32565555 -0.049434464 -0.09615258 0.3489023 -0.04221055 -0.22483297 0.031864606 0.07236785 0.087360404 -0.048642788 0.057027034
81 -0.19829793 0.01796292 -0.11553721 0.015788235 0.25641564 -0.10334622 -0.056548446 0.029102048 -0.05223824 -0.0022098126 -0.019895507 0.20533943 -0.14722455 0.15041995 0.22202581 0.15575896 0.1641011 0.2160148 -0.132394 -0.0015776096 -0.013310421 0.06252576 -0.25532123 -0.16415672 0.023074314 -0.16404702 0.16186942 -0.027533773 0.14273132 -0.23269331 0.29342026 0.12174182 0.04071374 -0.20081581 -0.034207705 0.005582968 0.004953241 0.18879758 -0.041485958 0.045191344 0.18842365 -0.02790499 0.2770898 -0.15515237 -0.08689868 -0.16753873 -0.14592434 0.045044217 -0.030811304 -0.11976896 0.027565468 0.09118063 -0.044968303 0.23680079 -0.04180673 0.2213994 0.11921645 -0.0032588814 0.17674121 -0.09497397 -0.036083873 -0.05789081 -0.094856925 0.013500039 -0.22108783 0.20956519 0.21567576 0.14034049 -0.18649824 0.22378765 -0.0060185073 0.14895578 0.106852174 -0.075237624 -0.08736214 0.12542701 -0.21886909 -0.16083024 -0.09846524 -0.0015676618 0.067357525 -0.0061169807 -0.3189825 -0.013941959 -0.13142426 -0.090409175 0.18005392 0.08724799 -0.34696338 0.18066923 0.13275819 -0.16895148 0.26656258 0.14531954 -0.12415299 0.033643804 0.14066182 0.12791507 -0.15105334 0.18204255 -0.07178184 -0.1557858 -0.008810611 0.11053266 0.32883328 0.10287812 -0.045658115 -0.36134863 0.0034054597 0.0059311325 -0.18328291 0.0037085516 0.14096466 0.12917782 0.11565068 0.06567462 -0.026358431 -0.28676662 -0.112328105 -0.23086473 -0.28524876 -0.18443933 0.039356567 0.21195427 0.06612678 -0.09150695 0.20007676 0.124328166
17 -0.3685329 0.030258048 -0.12336154 -0.11312751 -0.05864066 0.1603849 0.039974406 0.0139150005 0.049772397 0.17444593 -0.10168258 0.017300857 -0.27345714 0.017227018 -0.21160011 -0.14674534 -0.064610735 0.35199842 -0.019775447 -0.18895255 0.24977265 -0.042374797 -0.16846156 -0.03585963 0.1420186 -0.23022932 0.07154793 -0.15162688 0.207637 -0.06792143 0.15263285 0.16292682 0.025408315 0.07202259 0.13510719 0.074330546 0.02467679 0.28917798 -0.16440575 0.075980544 0.082220726 -0.19849807 0.0072756493 0.20766218 0.21421929 -0.121813685 0.14034426 0.043647107 0.32009903 -0.19874983 -0.06340885 0.026219327 0.08808424 0.16633151 0.0284487 -0.0045411517 -0.075542 0.16493239 0.012494793 -0.25954503 0.1414021 -0.11172117 -0.27357334 0.088839106 -0.06935234 0.096989796 0.007907602 -0.024195518 -0.030256553 0.044966605 0.19398326 0.06690521 -0.1738646 0.25793555 0.11008298 -0.16721472 -0.16742562 -0.08978168 0.120500416 0.17687067 -0.24851361 -0.17005369 -0.08717979 -0.106918775 0.09832081 0.035092738 0.059891015 0.29346803 -0.026270026 0.14834383 0.29048884 0.025735652 0.31068107 0.12681551 -0.018649613 0.10813872 -0.038073543 -0.17415525 0.02965014 0.19601892 0.057759553 -0.41363618 -0.21438618 -0.03579377 -0.14762664 0.05006359 -0.24631272 -0.20119998 0.15531446 -0.10102958 -0.0018736619 -0.07286392 0.01921249 0.093022004 -0.0775059 -0.058654808 0.03414224 0.20456643 0.36146805 0.081419244 0.17508529 0.10866075 0.121478006 0.2803974 -0.29351172 0.059784874 0.2932261 -0.17110205
133 -0.20573518 -0.27175745 -0.1464383 0.084388554 0.057871554 0.2266797 -0.1878585 0.001021309 -0.00069791323 0.08947646 0.10688994 -0.016748026 -0.3647939 0.028027736 0.24792409 0.40603778 -0.041999158 0.26271638 0.29984346 0.23202378 0.14237201 -0.21493626 -0.11478328 0.08227153 -0.10222172 0.26961368 0.017385544 0.056360416 0.022197213 0.20982763 0.18978208 0.006024782 0.03364197 -0.083432384 0.12635216 -0.12575777 0.10592534 0.17126776 -0.335341 0.17569411 0.07638888 -0.1817968 0.019509902 -0.30425233 0.022499548 0.008275203 0.13126315 0.5291673 0.24203412 -0.095818505 0.18793711 -0.16193071 -0.019270685 -0.15457226 -0.41371816 0.19966173 -0.079045385 -0.15674415 -0.006557384 0.15406817 -0.24862851 0.048281617 0.024521334 -0.0019170787 0.10941425 0.104361095 0.25408247 0.23134212 0.22732419 0.021614669 0.10436039 0.067988805 -0.101575196 0.07011883 -0.009291394 -0.004681983 0.017810732 0.08260584 0.018617764 0.16472554 0.06718731 0.07889493 -0.2973225 0.11037177 -0.03928743 0.0029946123 -0.07211151 0.07810786 0.04171701 -0.050088126 0.08530497 0.1255343 0.14487033 0.020435011 0.19092892 0.1583959 0.32299808 -0.13841581 -0.040869493 -0.024583358 -0.16435502 0.00064037024 0.07785692 0.08161467 0.097023144 -0.027375402 -0.06683202 -0.44961318 -0.15405032 -0.18344636 0.17676869 -0.076576844 0.17990278 -0.12710717 0.04238238 0.199165 0.21165012 -0.07099097 0.18662089 -0.3468099 -0.007161052 0.27607444 -0.1214946 -0.11791511 -0.10128611 0.1796632 -0.1492292 -0.37609938
473 -0.006178553 -0.14436276 -0.074714385 0.01286238 0.046715442 -0.031870306 -0.19135095 0.11302203 -0.12479934 0.07481886 0.01559148 0.06944703 -0.20524052 -0.45960766 -0.17155288 0.09376762 0.1284384 -0.28773573 0.27006721 0.27638918 0.10694834 0.04600466 -0.08951777 -0.34368917 -0.28519034 -0.30794042 0.08037008 -0.1414297 -0.099407196 0.01369462 0.13789408 0.046190076 -0.021520834 -0.035950422 -0.21171173 0.001886603 0.029508358 0.06522042 0.0786574 0.102734126 0.4280288 0.038476154 0.01968922 0.18783073 -0.0311907 -0.17047273 0.11215655 0.18092299 0.38651237 0.23042434 0.13789564 0.043976393 -0.16689213 0.0019072392 -0.13642462 0.07258234 0.016814949 -0.25568056 -0.097296506 -0.28450412 -0.20570181 -0.13731307 -0.2162289 -0.12049208 -0.3146358 0.27465 0.4801603 -0.02436572 -0.0009799153 0.182604 0.027322548 -0.0427254 -0.24749783 -0.13654932 0.28740892 0.008564573 0.08777745 -0.295402 -0.15027556 -0.04558564 0.0190088 0.013096743 -0.10901482 0.06573879 -0.006264537 0.11740162 0.13060239 0.11044844 -0.3581447 -0.07747948 -0.18048263 -0.0367492 0.21768208 0.17406957 0.05686892 0.30347064 0.18052423 0.26387227 0.1341083 0.13357851 -0.10690647 0.013856131 0.17195518 -0.018826611 0.0045353062 0.25674707 -0.16616711 -0.060806137 -0.10823355 -0.26163003 0.27412462 0.17158708 0.01454616 0.21961354 0.035797514 0.2199652 0.16608666 -0.3111463 0.19764587 -0.34367925 -0.23307309 0.09607673 -0.059581704 0.078525305 0.033145644 0.0053220037 0.05681562 0.09113338
411 0.15912433 -0.10136601 0.1317353 -0.032031797 0.1725655 -0.00048094383 0.14919806 -0.05145065 -0.1793673 -0.38080916 -0.30971277 -0.3956812 -0.22465138 0.30801204 0.08345241 0.19305661 -0.038086824 -0.15568908 -0.11422014 0.043062914 0.363251 0.13115856 -0.06546277 0.09413145 0.076729745 -0.19073622 0.17302842 0.09081556 -0.08417876 -0.09948995 0.10545123 0.3572134 0.010540905 -0.004908886 0.0077732434 -0.28973734 0.07763592 0.09693081 -0.007453998 0.15548706 -0.34933358 0.013264157 -0.19485873 -0.23936518 -0.060862165 -0.2650177 0.15485512 -0.10778408 0.28165975 -0.015927516 0.08756461 0.33690596 -0.05576871 -0.061161216 -0.117693454 0.07452602 0.10135853 -0.14824606 -0.047463614 0.16692431 -0.13078703 -0.5200134 0.17606576 0.047170274 0.086072855 0.22199252 0.13569468 0.3794586 -0.22446588 0.20175804 0.097382076 -0.10172334 -0.06333979 -0.21236981 0.119358025 -0.21896586 -0.5233094 0.115632124 -0.124448426 0.12490295 0.053226415 -0.21600164 -0.17500865 -0.007958353 0.1548136 -0.089504994 0.4637993 0.21128997 -0.1844063 -0.070153415 -0.006429525 -0.07023464 0.25578344 0.11019754 0.32340637 -0.13388883 0.19603382 0.0127866445 -0.2211589 -0.07259738 -0.12127727 -0.07097831 0.35340944 -0.18488978 -0.084821045 0.04458566 -0.36275682 0.15055585 0.28899032 0.085419945 -0.03669716 0.02980456 0.020594494 0.31996205 -0.09095266 0.019353924 -0.040236343 -0.34096935 0.1356125 0.08815416 -0.012227395 0.11854381 -0.11387137 0.092202716 -0.16126047 -0.030884989 -0.28324002 -0.22962017
340 -0.1957839 -0.070796005 0.093827575 0.02536079 0.12305426 -0.08839062 0.10952062 0.26921275 0.24670067 -0.21299641 -0.16197072 0.078922614 -0.16208853 0.21349245 0.14010414 -0.0122702895 0.023155482 -0.09705882 0.26590383 -0.07875807 0.135927 -0.0111016035 0.067603454 0.07051315 -0.12681232 -0.23202612 0.05861551 -0.043950178 0.22788055 0.30290022 0.36718127 0.18058886 0.010917101 0.2215247 0.080551505 -0.2115906 0.06053183 0.08030859 -0.110471584 0.2959936 0.04020023 -0.12366916 0.077335276 -0.21463305 0.0027187476 0.017179692 -0.12370111 0.09339726 0.4211878 -0.05620704 -0.08395334 0.0149208885 0.09907021 -0.28332597 0.091782786 0.013392064 -0.430148 -0.17308448 0.1940906 -0.0976929 -0.06163828 -0.054967985 0.0680881 -0.27207792 0.16750072 0.02297075 0.101548 0.14839473 0.27870116 0.22463119 0.16503093 0.01356486 0.021488931 0.081286155 -0.16094096 -0.08631464 0.29289344 0.10963883 -0.31017047 0.28986695 0.114144355 -0.32678536 0.023575732 0.118796155 0.035597313 -0.22070688 0.18368429 -0.22519216 -0.019620135 0.1371015 0.036327213 0.13810839 0.32077926 0.14597692 -0.09530711 0.3076103 0.01595721 0.20692074 -0.09810842 0.06052871 0.10893535 -0.09457484 -0.01192416 0.2600584 0.06625032 0.17855991 -0.06718975 -0.058784276 0.3542358 -0.061582655 -0.29906562 -0.15610312 -0.16982527 -0.19152707 -0.01905743 0.124093466 0.009131395 -0.07163398 -0.10556322 -0.2149298 -0.07922626 0.10446705 0.034956027 0.18999065 -0.23333491 -0.09571775 0.04757594 0.075557046
44 -0.41664395 -0.20282102 -0.14121896 -0.037474416 0.255748 0.008206184 -0.043802474 -0.13480586 0.019458557 -0.067924716 -0.34544533 0.10150863 -0.087604396 -0.123222895 0.0054613794 0.43739432 0.064540215 -0.044534296 0.14084046 -0.18202959 -0.03934328 0.072620705 -0.44482577 -0.12468049 -0.105299324 0.037294447 0.11978693 0.158221 0.12458536 -0.19977723 0.6377428 0.039492834 -0.35677972 -0.030819554 -0.23552786 -0.076189406 -0.090888605 -0.11061511 -0.13991381 0.0544509 0.33808538 0.08583973 -0.06789409 0.07873593 0.13720356 -0.08041153 -0.39091402 -0.008121171 0.14856346 -0.30347526 0.10687959 0.010968401 -0.077684574 0.089476064 -0.104948826 0.10555054 0.2756912 0.050482612 -0.10335313 0.07207088 0.02621067 0.027141906 -0.17684516 -0.09862365 -0.0032589906 0.2594184 0.40197286 0.0062868963 -0.0667799 0.09866195 0.24442507 0.08170253 0.07995033 0.15390372 -0.08374956 -0.11157085 -0.047771156 0.14916757 -0.07309517 0.323817 0.0766571 -0.036246333 -0.00092574157 0.1571277 -0.07172004 -0.19464523 0.07665462 -0.008429342 -0.05230143 0.07990577 0.05016323 0.039703585 0.25570625 0.01210346 -0.1430451 0.11443665 0.35115716 -0.043516457 -0.19933987 0.43230587 0.0017517692 -0.2550393 -0.07508846 0.26413128 0.1420095 -0.02920362 -0.03481513 0.213397 0.1251776 -0.13201508 -0.19848761 0.09458123 0.18065813 -0.22159037 0.017342752 0.2489339 0.36691284 -0.036812853 0.13681269 0.14548373 -0.16771418 -0.12953342 -0.2516526 -0.019717814 0.09078315 -0.22473471 0.0006195067 -0.26699862
366 -0.044215914 0.05904036 0.08271691 -0.10466754 -0.06759558 0.26044208 -0.055553243 0.08527098 0.06887034 -0.048104487 0.08259771 0.006272909 -0.39041173 0.15789847 -0.033033486 -0.093382634 -0.09442113 0.18265638 0.40966627 -0.15359001 0.44737124 -0.010016549 -0.030033583 -0.2929455 -0.19373852 -0.041737307 0.33513337 0.052822843 0.19790302 0.10687259 0.17700768 0.0947875 -0.077447295 0.1550058 0.17770016 -0.08108537 -0.16671649 0.06035269 -0.008732245 -0.32386392 0.10164691 -0.02729351 -0.13318245 0.012640042 -0.107739374 0.005548745 0.13427432 0.002436345 -0.042960033 -0.22771885 -0.06183722 -0.11012748 0.3763858 -0.09154809 -0.09235676 0.11475166 0.061110545 -0.20959538 -0.22163717 -0.25273335 0.054066878 -0.12315217 -0.011549135 0.27067325 -0.085842825 0.1536521 0.25914076 -0.019707404 -0.3410211 0.24858707 0.14468904 -0.038366348 -0.041800696 0.12189201 -0.0050034225 -0.27210832 -0.1606175 0.1397555 0.24736169 0.29018953 0.07439372 -0.051635295 0.1667936 -0.18658647 -0.22993922 -0.27472597 0.4184525 -0.11246467 0.015470372 0.23767754 -0.3018234 0.060051326 0.16157235 0.3129806 -0.20534301 0.20885807 -0.118015416 0.060488444 -0.28395796 0.15824607 0.05434476 -0.05878682 -0.01830452 0.28852746 -0.2721869 0.08999392 -0.1198071 -0.030477025 0.16047327 0.052593134 0.12334047 0.038168143 0.11200159 -0.32655206 0.035783745 0.3105017 -0.2449244 0.17973001 -0.14171281 -0.25780532 -0.04581904 -0.048090324 0.040937066 -0.044912007 -0.17521724 -0.03818749 0.12342108 -0.24643788
28 -0.14218374 0.040912703 -0.07950451 -0.27408525 0.29125446 0.100135095 -0.22541294 -0.10534301 -0.05662702 -0.08825417 -0.35318872 0.26499677 -0.23313016 0.21298765 0.20076399 0.14662622 0.12054745 0.12135294 -0.016544899 -0.19474235 -0.28923887 0.059919246 0.045288943 0.05557292 -0.13402793 -0.21078311 -0.13445142 0.111716606 0.23130347 -0.113255344 0.113228306 -0.022625113 -0.073528044 0.19420928 0.15802221 0.062388107 0.21529537 0.09047642 0.03258223 0.06453301 0.21542916 -0.03269943 0.026239976 0.15903614 0.06928297 -0.097344935 -0.075775936 0.25861618 0.2105049 -0.11837226 0.016072975 0.20688358 -0.06071176 -0.022291234 -0.14181289 0.046904314 -0.007907591 -0.07427325 0.022802904 -0.12007029 -0.044960313 0.003629602 0.20298189 0.2192679 -0.21767397 0.30212504 0.16817561 0.17111647 0.0677401 0.3860354 0.0010359337 0.05875478 0.12110952 0.08924336 -0.13509531 -0.25582516 0.022612048 0.08631718 -0.06617957 0.025154669 -0.015081604 -0.002910769 -0.11367317 0.08545646 -0.23296663 -0.013032827 0.19765629 0.14955585 -0.12090888 0.046980437 -0.23859116 -0.13425006 -0.13749374 0.009706827 0.13041154 0.09731618 0.18935974 0.068469755 -0.34024966 0.054489955 -0.07628427 0.14755896 0.14163317 0.03860373 0.19043335 -0.0035480107 -0.03665369 -0.0299231 -0.117769964 0.058329508 -0.12891988 -0.27025184 0.023947498 0.122569434 0.17989357 -0.0034509804 0.23199841 -0.079713285 0.010313358 -0.33843675 0.17013684 0.02049663 -0.22469549 0.04329347 -0.16934995 0.061172437 0.13553232 0.15561266
303 -0.015861994 -0.3309401 -0.058044203 -0.25907472 0.32567862 0.035236362 -0.101972684 -0.04061048 -0.06534494 0.058243692 0.2023576 0.21158333 -0.04401111 0.089301944 0.4080678 0.09093695 0.13633229 0.097789995 -0.06173821 -0.13889617 -0.030782228 0.27988163 -0.09205763 -0.12721685 0.24318172 -0.27013114 -0.01615123 0.1176387 0.010421831 -0.007920131 0.020755718 0.0052642487 0.27429298 0.05140773 -0.09286138 0.0920638 -0.080758214 0.07792684 0.069177076 -0.11603118 0.049814854 -0.0464049 -0.055774346 -0.030835321 -0.17012574 -0.43277276 0.04965234 -0.18821365 0.021822404 0.031605583 -0.34483922 0.28010264 0.23823847 -0.05132442 0.11862483 0.34825763 0.14524622 -0.16599803 0.05787161 -0.12776011 -0.102469504 -0.0019909178 0.23189078 -0.1287851 -0.056309022 0.02076605 0.23922285 0.09368204 0.10843968 0.3642447 0.042086452 0.100610666 0.16644794 0.1636215 0.18879095 -0.18716556 -0.08580421 -0.01513667 -0.08862455 0.33143267 0.09797938 -0.025719076 0.03538302 0.17093055 -0.06513408 0.28853017 0.058854576 -0.12362814 0.22743675 0.114118576 0.18966222 -0.03304429 0.26278582 -0.042104658 -0.08071467 0.08054556 0.1355864 -0.1082779 -0.18577439 0.028250258 -0.08311529 -0.16333796 -0.037122957 -0.03618535 0.1999974 0.120063 0.021980355 -0.12468162 -0.12015647 -0.060011394 -0.019091949 0.00710913 -0.036041558 0.35307023 -0.13027318 -0.09826616 0.010542064 -0.28680298 0.2519564 0.016033418 -0.13024072 -0.10741534 -0.16553198 0.0877731 -0.09691721 -0.33168045 0.13703716 0.12568457
546 -0.11299893 0.12159987 0.09114906 -0.21877302 0.30202267 0.2201873 -0.3317549 0.031629484 -0.3316184 0.15353295 -0.090183936 -0.094827406 -0.16164543 -0.09555039 -0.108162165 0.122544765 -0.07577022 -0.077291556 -0.16154917 0.07442633 0.2957537 0.16866782 -0.09949739 -0.25344998 -0.3430947 -0.028241845 0.29063863 0.1764292 0.0655503 -0.17949554 0.26420927 -0.5195654 0.21478696 0.381726 0.014598032 -0.018429566 -0.030132871 0.13215606 -0.012852674 0.12922047 0.032828722 -0.2074951 -0.10368336 0.024092939 -0.3328403 -0.19347006 -0.19391824 -0.23076653 0.4706042 -0.19549511 -0.17281055 0.24061576 0.24940398 0.04307966 0.13394845 0.1551821 0.0890872 0.16550054 0.03681612 -0.12845309 -0.020548875 -0.13568386 -0.2289494 0.19131733 -0.12169416 0.017317433 0.19271623 0.10077009 0.3183514 -0.06537904 0.038120218 -0.26841316 -0.025424229 0.09176226 -0.1684472 -0.15564452 0.07837917 0.32464576 0.119150385 0.15333168 -0.17718801 -0.057289127 -0.25990736 0.051240955 -0.048094556 -0.19650531 0.0056678476 -0.094500415 -0.03483202 -0.083336525 -0.20841053 -0.00507016 0.17128712 0.14589089 0.024013264 0.17005888 0.046080034 0.017221805 0.14283097 -0.1451928 0.11589294 -0.25018272 0.03461906 0.32881144 0.45274162 0.23548698 0.046063732 -0.22261943 -0.20382161 0.019651795 0.2584932 0.39179078 -0.33160254 0.20630196 -0.2858793 -0.029787777 -0.24723402 0.02010592 0.106932 0.10370182 -0.038678348 0.0036181146 -0.16263448 0.281227 0.06815485 0.063620836 -0.1337269 -0.19842513
419 -0.07965415 0.24470133 -0.039939053 -0.013770178 -0.20894137 0.15146092 0.2339478 0.0902423 -0.39374945 -0.17207412 0.10740466 0.23536037 -0.16015486 -0.021215534 0.1470098 0.20482264 0.019096047 -0.041333176 0.089710824 0.012975261 -0.17292294 -0.098713465 -0.0015718993 -0.077378824 -0.20897178 -0.14288856 0.17462131 0.018563112 0.4086208 0.31911728 0.0912425 0.11064266 -0.18162067 -0.1300271 0.17425673 -0.09195156 -0.27068356 0.02094092 -0.049290456 -0.020541286 0.2794224 -0.20156091 0.06515699 -0.27474195 -0.23519701 -0.14237265 -0.0037255252 0.1220045 -0.0066570016 0.06354141 -0.37640524 0.0042814566 0.0973141 -0.1282796 0.005947501 0.26045403 0.030107796 -0.046541862 0.1370437 -0.4073813 0.25592515 0.07667306 0.23520473 -0.054195896 0.04279673 0.13089548 0.2433934 -0.112783834 0.0057746363 0.22968096 0.02705082 -0.0058041266 0.11604718 0.40737274 -0.31878918 0.03495112 0.008363562 0.13291612 0.08716072 0.09947665 0.16044381 -0.3435044 -0.08527094 0.10979396 0.34239572 0.037663724 -0.23154321 0.23955084 -0.02503972 0.02749342 -0.2015749 -0.08538516 0.06791679 0.31010127 0.033449024 0.37376413 0.29231405 0.28980792 0.021585075 0.11958626 0.072941266 -0.09685292 0.2806775 -0.011370435 0.37775537 0.06715868 -0.1031618 -0.10674008 0.16869684 0.17285807 0.035179522 -0.24940954 0.12369302 0.039112348 0.10836832 0.29205677 0.04048792 -0.10848771 0.3238681 0.048536953 -0.05022156 0.22857083 -0.0037777636 0.18588184 0.05578241 -0.15589593 -0.2592929 -0.054534346
329 -0.04170972 0.28851843 -0.1752918 -0.14863084 0.041611884 -0.099920854 -0.003760559 0.24076745 -0.055301093 -0.10571367 0.16499095 -0.047423724 -0.20885026 -8.809174e-05 0.24235736 0.100013435 0.20688304 -0.11575725 0.008899639 0.17691286 -0.07505493 0.013256788 -0.35827243 -0.12218246 -0.06353435 -0.16823493 0.19083655 0.4059675 0.20356122 -0.023251468 0.031681348 0.36499405 -0.20257933 0.27662098 0.14491104 0.23704286 0.09601768 0.36212337 0.10908519 -0.16800974 0.33488065 -0.07963878 0.09265829 0.012818008 -0.17637599 -0.18185607 -0.05587094 0.23386651 0.34566063 0.042912472 -0.10631814 0.011924624 0.12752038 -0.076835066 -0.22812216 0.19157544 0.17530678 -0.105160676 0.2173857 0.11984082 0.103997804 0.046577696 -0.01722394 -0.021613058 0.12269666 0.1303899 0.190381 0.12134153 -0.08084886 0.196192 0.074261114 0.066064246 -0.06553542 -0.13948691 -0.09060425 0.034519162 0.27669498 0.3524064 -0.077335745 0.06094821 0.22847268 -0.07347154 -0.06581598 0.101929106 -0.19370927 -0.13929604 0.031916697 -0.057502396 -0.10708319 0.24598539 0.1771218 -0.14321242 0.31765056 0.101534314 -0.19218676 -0.015656658 0.059611473 0.09194624 -0.1506345 0.17847039 -0.16246378 0.026696775 -0.18011975 -0.18491507 0.06560686 -0.04320892 -0.0688925 -0.13588662 0.012924365 0.13004307 0.088685684 0.025200812 0.10163379 0.08457933 -0.011957276 0.03635506 -0.06671172 -0.19362374 0.0410429 0.10073207 -0.08898714 -0.21819709 0.020359537 0.22799939 0.046262212 0.1273076 -0.11388192 0.046836868
971 -0.34118855 -0.2032693 -0.16103987 -0.1007818 0.23944218 0.46101865 0.17032483 -0.0046093217 -0.12034402 -0.14008312 -0.12569298 0.05681203 -0.31674197 -0.024352955 -0.08409946 0.035023868 0.4153201 -0.026214346 0.00019791919 -0.053290427 0.22249897 0.1300506 -0.42983952 0.069382824 0.068343215 -0.16908757 -0.13090914 -0.012264931 0.02756166 0.12726969 0.14941226 -0.15882163 -0.40609577 0.042818993 0.05561025 -0.090997994 0.1319441 0.36361438 -0.2450499 -0.18586569 0.29169026 0.076553605 0.20954327 -0.4128716 -0.05325767 -0.37828794 -0.11161251 -0.10485273 0.20063727 -0.02045023 0.22020994 -0.10038918 0.06792749 -0.050974965 -0.31899092 0.26170477 -0.10576241 0.19240446 -0.2593618 0.31208062 -0.1719081 0.008933661 0.10993682 -0.08542486 -0.005464474 0.25920168 0.35956487 -0.20217565 -0.27256027 -0.26565582 0.17126486 -0.4324835 -0.43311685 0.1526584 0.28765538 -0.22296135 -0.28353852 -0.13254938 -0.33988947 0.10534193 -0.11332472 0.11119532 -0.1654383 0.6251848 -0.012128582 0.03129448 -0.22979584 -0.040421266 0.11896107 0.24273393 0.090905465 0.13101187 0.44933656 -0.038559183 0.06663476 -0.059539333 0.071188144 0.087382905 0.03364379 0.06419676 0.037925873 0.29036146 0.4618325 0.35694006 -0.0050257565 0.37076542 0.029661216 0.0995136 -0.039516572 -0.16970012 -0.29522902 0.19791453 0.3378774 -0.16656525 0.024561467 0.31489888 0.055866845 -0.08107916 -0.08172069 -0.3686699 -0.3114361 -0.27140677 -0.34328982 0.38144296 0.1650789 0.26271185 -0.1612083 -0.019561876
932 -0.04914248 -0.12372432 -0.056801356 0.05188096 0.012061623 -0.32498902 -0.19420458 0.0662795 -0.29652017 0.009782645 -0.10532793 0.08446732 -0.3588775 0.13686433 -0.04009298 -0.08000508 -0.009161751 -0.1195631 0.06101755 -0.25384116 0.3008537 -0.020947726 0.19975494 0.0077200164 -0.3184166 -0.20833103 0.11545839 0.05047252 -0.07953342 0.1916615 0.22354072 0.27207586 -0.21219188 0.22883168 -0.014574954 0.015091667 0.22197929 0.14416042 0.095116965 -0.018996792 0.29866487 0.00093022274 -0.32820305 0.0072131953 -0.1029852 -0.16724832 0.21327838 -0.25575036 0.23013097 -0.118697956 -0.04014276 -0.05189245 0.1918479 -0.018679278 -0.089619204 0.19924532 0.33645904 -0.21446052 0.1686882 -0.05813302 0.16555215 0.117306076 -0.06374359 -0.07171048 -0.077669546 0.109811485 0.26847252 0.2091615 -0.14024672 0.059139166 0.07836588 0.15857697 -0.12393488 0.10465478 -0.032329425 -0.051383372 0.052976515 -0.07375484 0.35566008 0.19757922 -0.31111333 -0.024228647 -0.16401674 0.10990965 -0.048838362 -0.19881687 -0.038511463 0.18423209 -0.2686915 -0.07067593 -0.08159514 -0.18858792 0.24731374 0.11617307 0.084102556 -0.0936883 -0.052637186 -0.14571129 0.07501537 0.04882651 0.002201517 -0.038429335 0.018615492 -0.08617726 0.257925 -0.10307509 -0.09351139 0.065979086 0.090284534 -0.18133502 0.124351196 -0.17546318 0.010053245 -0.006610182 0.09484492 0.112322435 -0.12232935 -0.060029197 0.08365677 -0.06585653 0.013502732 0.0039730794 -0.2638126 0.32342368 0.114139006 0.12602893 0.1141752 -0.2346103
2 0.1141028 -0.10053855 -0.023472205 -0.09956768 0.3224167 0.108837105 -0.043859094 -0.059391055 -0.037953753 0.038309164 -0.2957444 -0.37545046 -0.12935956 0.13846648 0.1986702 -0.067205064 -0.26907417 -0.44184697 0.03598199 -0.12433608 0.10286917 0.13935544 -0.15805331 0.06342429 -0.09270201 -0.23741682 0.35290977 0.056285683 -0.07058305 -0.011507658 0.007916482 0.230326 0.17054802 0.19100825 -0.023288121 -0.41383797 0.04264051 0.19500507 -0.096503645 -0.039959088 0.0046511507 -0.23391713 -0.033806104 -0.12345788 -0.06969196 -0.1927711 -0.046180885 -0.12813617 0.011308854 -0.13610227 -0.07797895 -0.08182295 0.24448225 -0.17507927 -0.12346917 0.27771026 0.2861237 -0.025032297 0.11092478 0.3029769 0.13250607 0.19243471 0.17351024 -0.14165361 -0.30425113 0.021446822 -0.032813236 0.02204209 -0.22629146 0.22057232 0.27404183 -0.062367097 -0.042994734 -0.026563719 0.13067001 -0.37573382 -0.29676127 0.0804421 -0.16803381 0.21707696 0.10433047 -0.074901685 -0.02437299 0.029310536 0.30320662 0.1755321 0.24803285 -0.005404376 -0.015016753 -0.09089812 0.08744966 0.034345083 0.1886116 0.0232664 0.06860458 0.040072646 0.16203897 -0.24699603 -0.1204412 0.09656619 -0.10433591 -0.15720834 0.14209512 0.0054439725 -0.18969382 -0.011169106 -0.012775394 -0.29075456 0.010051179 -0.16111937 0.009378842 0.07777694 -0.20685999 0.10318167 0.3426257 0.17976443 -0.41463655 -0.2919105 0.13255268 0.05280532 -0.12480746 0.13098128 -0.11624072 -0.05554038 -0.036999527 0.06520036 0.034679204 0.09365242
170 -0.041806992 0.09754551 0.16350463 0.16026631 0.20272966 -0.05258063 0.2521972 0.01866301 -0.08113952 -0.028638726 -0.23873673 0.13498722 -0.1317911 0.07918664 0.17048459 0.103375316 0.4078626 -0.09410371 0.35526976 -0.029422095 -0.03957738 0.18069649 0.21500082 -0.069889575 0.26942703 -0.10127524 -0.036075413 -0.07083389 -0.043738186 0.21272925 0.09538962 -0.27064112 -0.38360816 0.117743865 -0.05132838 -0.0014222309 0.2727801 0.020039372 0.007912265 0.028928807 0.26468778 -0.14915572 0.14778458 0.08417291 -0.14783299 0.05590463 -0.017247178 0.033590622 -0.05903376 0.09564533 -0.002526519 0.39434683 -0.07432803 0.07160412 0.11778093 0.040842034 0.08728797 -0.0038922552 0.44367158 -0.26506862 -0.07094706 -0.16281666 0.1806125 -0.090715975 -0.09179289 0.29213464 0.45320374 0.076927856 -0.11201409 0.22651225 0.13757469 -0.053377412 -0.31580216 -0.072978444 -0.29264173 -0.13940099 0.05978845 -0.050979353 -0.11882797 0.22197652 -0.20586501 -0.17460716 -0.0152898 0.09708104 0.12221242 -0.03438484 0.4158815 0.054490127 0.054661743 0.08480302 -0.012049373 -0.21049435 0.030787209 0.18554048 0.28793308 0.24838752 -0.19205841 -0.066119105 -0.23900102 0.011056437 -0.1458785 -0.12081321 0.28749895 0.018608825 -0.15015821 -0.017711889 -0.1428235 -0.21679397 0.036350142 0.056420382 0.11064343 0.11946648 0.07359283 -0.11189515 -0.16597356 -0.0109896865 0.26937985 -0.03217656 0.011505255 0.10170556 0.0687757 -0.11391142 -0.2226167 -0.0596201 -0.21421808 -0.10972867 -0.035280444 -0.11929605
4 0.20991898 -0.19373195 0.14126138 0.08666653 0.47869685 -0.0638464 0.0076702684 -0.14077316 0.059231553 -0.114286125 -0.17681219 -0.18829711 -0.15023527 0.08671835 0.26134828 0.067920014 -0.24566118 -0.17436 0.0704094 -0.1255925 0.05688426 0.21032138 -0.30431613 0.08120741 0.07166774 -0.26888463 0.14449802 -0.021679472 0.10510457 0.0015881995 0.2251471 0.09020494 0.1395171 0.2476681 0.27871364 -0.19228737 -0.1211014 0.3097893 -0.1391941 -0.16081296 -0.010123761 -0.33457997 0.13929853 -0.12364561 -0.24895552 -0.2260733 -0.21894516 -0.3931586 -0.024964806 0.060724493 -0.07356268 0.041028377 0.11962676 0.002683809 0.100628026 0.08920256 0.14253165 -0.03758908 -0.07354315 0.10087719 0.00522516 0.13586411 0.18843885 -0.016136596 -0.29455402 0.022474129 0.017986288 -0.027349843 -0.3073587 0.18464477 0.4033148 -0.057596367 -0.13808973 -0.18621555 0.01874554 -0.269189 -0.16120736 -0.0065865377 -0.16502832 0.1807396 -0.0021264325 0.04533664 -0.13836133 0.23486133 -0.030937925 0.2985042 0.19802187 0.3619229 0.06683371 -0.05166892 0.09015919 0.11412085 0.19567311 0.05480664 0.12301524 -0.054148678 0.09365277 -0.16133383 -0.27344123 0.05001622 -0.07416052 -0.12709235 0.0034421766 0.0066978903 -0.27891272 0.004521049 -0.033593323 -0.1786995 -0.034051914 -0.15143903 0.17965248 -0.062037494 0.12625284 0.08714588 0.11766644 0.32115054 -0.21359846 -0.3232438 0.24548702 -0.026431369 0.03195822 0.17785403 -0.19470859 -0.049416732 -0.09867705 -0.15882947 0.10705642 0.022791998
232 -0.16142306 -0.14207089 -0.10765351 0.1743572 -0.05682158 0.22765686 -0.06751492 0.1392302 -0.24903797 -0.024667397 -0.03753761 0.2182062 -0.26019475 -0.11677344 -0.04780813 -0.01951039 0.08317733 0.1556957 -0.24273278 0.17082539 -0.116346344 -0.1497532 -0.5337338 -0.38372338 -0.16277324 -0.06387313 -0.36125043 0.16062824 0.1919699 0.009343503 0.28210872 0.2306795 0.3061459 0.05215665 0.002979367 -0.18419582 0.3135043 0.014845687 -0.31693745 -0.088320956 0.26869 -0.37414062 -0.11951791 -0.031846955 -0.14373237 -0.20471595 -0.123132885 0.09399904 0.2349398 -0.14404756 0.040141106 0.039860673 -0.6168372 -0.17717288 -0.3780902 0.12450335 -0.10148885 0.079792276 -0.080597535 0.122998804 0.132557 0.06792966 0.083838664 -0.086805984 0.26004982 -0.08132271 0.35039553 0.13791128 0.10991222 -0.032499887 0.2898103 0.083990455 0.14577001 0.4402988 0.2836829 -0.15136252 -0.04587413 0.14908169 0.3514467 0.15989316 -0.24976745 0.16707061 -0.021684168 0.29885015 -0.004381819 -0.028826559 0.4345481 0.011123672 -0.07901484 -0.06745615 0.24817319 0.21930806 -0.04507156 0.010403381 0.18542603 0.24752975 -0.27043742 -0.0028510557 0.016730255 0.21713758 -0.37931463 0.04931638 0.029436756 0.031050151 -0.03922957 -0.070961125 -0.17707786 -0.12533794 0.2715695 -0.12826714 0.16723868 -0.10824483 0.03692702 -0.039265864 -0.2744349 0.110532045 0.060063608 0.080952704 0.06107729 0.28928345 -0.0012230796 -0.07224854 -0.19773039 0.15276411 0.15647618 -0.16924594 -0.3610653 -0.25733587
365 -0.02791714 -0.09832417 0.047664803 0.1992163 0.23909682 0.39628634 -0.1793537 0.015783042 0.21369682 -0.052574553 -0.08739544 0.031726886 -0.26731825 0.25174856 -0.022372514 0.11350139 -0.16538016 0.10901949 -0.1472466 -0.096018985 -0.13723314 0.20639269 -0.06419822 0.11823631 -0.09170117 -0.10399142 0.00012786522 0.13555819 0.073017985 0.042119034 0.34383708 -0.18627827 -0.18297498 0.028098602 -0.26718765 0.15259412 -0.08605846 0.11161613 -0.001974423 0.042601254 0.3157331 -0.17120239 0.10922513 0.059924778 0.31575367 -0.3873685 -0.1848992 0.13803741 0.10312715 0.16845365 -0.29637897 -0.12455434 -0.14779627 -0.049892154 0.043203853 0.1814647 0.500742 0.03556738 0.23628952 -0.057503674 0.15109779 -0.0040844316 0.070929565 0.059429623 0.06777525 0.10615714 0.25130224 0.088496685 -0.043738365 0.21227628 -0.040215958 -0.32576653 0.08788053 0.14454494 -0.18096182 -0.16781667 0.22532612 -0.08435092 0.05099899 0.18930481 0.052003965 -0.06441571 0.026206503 -0.23169069 0.022746535 -0.19866852 -0.0026595294 0.1058735 -0.33073843 0.29271477 -0.17649093 0.2937365 0.37555397 0.014881853 -0.08474833 0.25052175 0.13871543 -0.07333989 -0.1132727 -0.063793965 -0.10924673 -0.24054609 -0.17822613 -0.11641343 -0.049662754 0.10446784 -0.12490512 -0.012285876 -0.019715924 -0.16302559 -0.19752641 -0.074638814 0.14926374 -0.18638277 -0.17801392 0.39125854 0.05117351 -0.23771562 0.05303125 0.08618687 0.036353488 -0.3969536 -0.39575467 0.22144267 0.044047873 -0.122615054 0.02373574 -0.19803788
