986 64
160 0.022258887 0.19447829 -0.09200738 -0.27720863 0.03538975 0.22662188 0.18581073 -0.090304896 0.12872799 0.007948926 0.28711984 -0.17070821 -0.2333458 0.24912564 -0.2353019 0.032091644 0.12682602 -0.047060445 -0.0633488 -0.28577852 -0.13404648 0.21503699 -0.0033022824 0.010032378 0.30007756 -0.00545652 0.23217416 0.2720985 -0.33044073 0.2142734 -0.10560817 -0.36481318 0.12313964 -0.109467044 0.19214727 0.12820779 0.02071633 -0.10759116 0.036782023 0.08680518 0.33808035 -0.036006935 -0.024754845 -0.09358548 -0.20100296 0.18724719 0.26912943 -0.06421999 0.061722968 0.06551058 -0.13186899 -0.09475884 -0.05098552 0.17380567 -0.03078185 -0.17430164 -0.15307337 0.0892554 -0.33101523 0.08577861 -0.08642791 0.2687027 -0.12943153 -0.16547027
121 -0.16603483 0.10132891 -0.10077739 -0.21581016 -0.07108071 -0.0009878221 -0.13415867 0.17891781 0.07220766 0.104480796 0.0637505 0.046625104 -0.15916824 0.11802494 -0.15779123 -0.09378723 0.08295077 -0.040420238 0.13780056 -0.33530256 -0.22458586 0.20956862 0.05888495 -0.051036064 -0.063535504 0.0022146918 0.04452381 0.21528721 0.07121644 -0.265768 -0.11675472 -0.12648292 -0.1822231 -0.116433375 0.15896967 0.28940278 -0.14551888 -0.5191193 0.10105608 0.08714112 -0.030202795 0.101750344 0.035379265 -0.030638881 -0.2169535 0.081780925 0.20336662 0.030967502 -0.1330195 -0.19013193 -0.04706437 -0.3780208 -0.28031114 -0.047101278 -0.018537283 -0.059911598 0.11026218 -0.05813522 -0.06528101 -0.40381163 0.13183032 0.15333872 -0.19773106 -0.106125884
82 -0.14753583 0.09088992 -0.08328987 -0.1700919 -0.16019079 -0.13560669 -0.051559694 0.09701506 0.16725267 0.11069566 0.084591135 -0.09905717 -0.39970842 0.2145112 -0.19477291 -0.03917369 0.011985974 0.040774234 -0.07008044 -0.31160265 -0.14827277 0.22775382 -0.108307675 0.2048274 0.16219933 -0.062048763 -0.2615485 0.28029114 -0.23458913 -0.15725769 -0.054894354 -0.19168136 -0.15545882 -0.0092080515 0.036586575 0.26521793 -0.26363507 -0.3788703 0.03754119 0.16654654 -0.0173716 0.18130995 -0.020513982 0.08894451 -0.3296864 0.23848397 0.018666562 0.0037021681 0.03669979 -0.13241218 0.09477887 -0.30262366 -0.2509152 -0.06135332 0.05064706 0.040153284 0.031951107 0.12408201 -0.07844166 -0.43092388 0.039142985 0.115287215 -0.17318696 -0.09082321
107 -0.15354837 0.27898583 0.05179239 -0.1284382 0.0954655 -0.1818804 -0.09684883 -0.04201501 0.23566318 0.29648167 -0.010380614 -0.17923477 -0.2138686 -0.12860733 0.005280001 0.08421273 -0.022555843 0.07008354 0.014739265 -0.46993586 -0.20830919 0.3940763 -0.054055553 -0.024418868 0.2595488 -0.063949674 0.10329651 0.35160592 -0.30917728 -0.028211517 0.036518462 -0.2058477 0.19593908 0.14801522 -0.18136278 0.13453725 0.069646046 -0.14719784 0.08407783 0.17828473 0.12789337 0.004892154 -0.12106159 -0.051468495 -0.0895417 0.22848397 0.18368453 0.16122445 -0.031399976 -0.060630325 -0.11571332 -0.36178195 -0.13168816 0.15076825 -0.19111362 -0.09192044 -0.17288166 -0.026902288 -0.38344592 0.159611 0.098158315 0.017838657 -0.11793799 -0.1171152
86 -0.110678405 0.26400876 -0.16316807 -0.24672419 -0.029188074 -0.101718485 0.049308266 -0.0075565013 0.33144352 0.049629245 0.05692346 0.11821095 -0.2840787 0.020040687 -0.2558257 -0.029228164 0.24617095 -0.12431769 0.1397858 0.12506577 -0.23237081 -0.049191996 0.10782263 0.35507187 0.1250312 -0.0065026334 -0.13308622 0.06069963 -0.15772131 0.31662035 -0.033227812 -0.16044256 0.24308762 -0.23816586 -0.16361333 0.099424794 0.23498824 -0.4393238 0.047368698 0.07045184 0.23539972 0.37329254 -0.3393433 -0.06339088 -0.17122033 0.25770545 0.19397768 -0.017472984 -0.27222538 -0.26731363 -0.16270383 -0.35872757 -0.10807854 0.11252451 0.2617797 -0.1718296 -0.15614273 -0.114327356 0.09254508 0.14026383 0.003144415 -0.008792571 -0.27665132 -0.14928775
62 0.0075317333 0.43370962 -0.052867804 -0.0024375583 -0.12773809 -0.14434612 -0.09534422 -0.07428665 0.097931035 0.2553868 -0.074164525 -0.024699716 -0.33712214 -0.021874411 -0.04074017 0.0654607 0.12966594 -0.10862469 -0.04993007 -0.16210286 -0.4009744 0.20051815 -0.39280918 0.30983767 0.20840868 0.054894533 0.017566334 0.36559552 -0.2759955 0.091809735 0.025532432 -0.07221709 0.07223123 -0.05673392 -0.024600513 0.14554995 0.269352 -0.19540243 0.11692777 0.15475023 0.07940195 0.08884194 -0.0070312372 -0.19891293 -0.2301525 0.15102857 0.20989767 0.12793685 -0.07648032 0.073273726 -0.10042492 -0.36250168 -0.15631549 0.12657103 -0.17110969 -0.261137 -0.01874081 -0.002027505 -0.109154396 -0.026949894 0.24041691 0.036656093 -0.17031837 -0.0011082074
434 -0.017566146 0.19608547 0.037562374 -0.035952166 0.2523498 -0.328079 -0.13900991 0.1564047 0.17600876 0.08382341 0.08472708 -0.104418054 -0.022820633 -0.029401034 0.11125687 0.01735879 0.020805888 0.034356456 -0.0082624 -0.023847254 -0.10408005 0.1392471 0.010969353 -0.0015500701 -0.034015805 0.14138077 0.066441454 0.25668657 -0.005265929 0.12024746 0.08464548 -0.20877934 -0.20590767 -0.2235243 0.3637603 0.04387568 0.14851366 -0.2609267 0.31764033 -0.121419206 0.03576549 -0.066337354 0.04702051 -0.039948422 -0.2871476 0.13653952 0.098408446 0.15677625 -0.35625225 -0.0703499 -0.08790187 -0.14753109 -0.38066038 0.16018665 -0.020313155 -0.10728597 0.09324039 -0.21057802 -0.35203207 0.019131146 0.13985041 0.047205567 -0.0907487 -0.1047316
13 -0.15108937 0.2305967 0.13773221 -0.4288236 -0.2328327 0.007995905 0.24733402 -0.35636076 -0.19249772 -0.2866825 0.14250486 0.103759505 -0.13873415 0.21072116 0.1714428 0.049803507 0.011010483 -0.10073053 0.10042504 -0.11508613 -0.2914055 -0.010172703 0.100719556 0.023605764 -0.121168144 0.31035614 -0.03136638 0.006666019 0.06631855 0.16985905 -0.30984396 -0.33440325 -0.10682579 -0.04755758 -0.14543895 0.26729584 0.13769868 -0.3040363 0.057591774 0.20760852 0.09513589 -0.1041671 0.04296082 -0.321126 -0.27147442 0.35459724 0.08104737 0.3090658 0.014120335 0.097228795 -0.00958678 -0.2602292 -0.6118419 0.093857706 0.20753363 0.06287469 -0.121747464 -0.051088575 -0.23303969 0.0066497955 -0.3927268 0.21770152 -0.10656921 -0.108206935
166 0.051948942 0.12939961 -0.10412324 -0.21516213 -0.114098705 0.010924094 -0.15328445 -0.069408625 0.16208099 0.10102294 0.24775729 -0.019936917 0.11540257 0.072272845 -0.08573419 0.18902008 0.047915746 -0.23388773 -0.13780777 -0.4538082 -0.2635062 -0.05290183 -0.010429404 0.10118664 0.30995068 -0.06985599 -0.022098143 0.008217447 -0.24235457 -0.1420601 0.12596682 -0.005955152 0.39470577 -0.18636543 0.40296727 0.07846908 0.15140924 0.0041967332 0.44572717 -0.03531927 0.1926333 0.15773259 -0.01129554 0.13373563 -0.5117905 0.058635656 0.12189737 -0.14621383 -0.21397361 0.04339791 -0.18989295 -0.1788203 -0.024720421 -0.022751745 0.061861455 -0.23101284 0.044559665 -0.27207935 -0.3410064 0.15910925 0.013428428 0.2894175 0.13186581 -0.31553167
5 -0.09368733 0.11581263 0.28651327 -0.21459503 -0.14188518 0.09025152 -0.119943336 -0.18380034 0.19292012 0.010023634 0.39250225 -0.09719969 -0.11371285 -0.1499768 0.31495658 -0.1904942 0.16100487 -0.40770102 0.06833986 -0.17713258 0.054472778 0.15108514 0.12466568 0.3546179 0.24313195 -0.050072692 -0.22814408 -0.087797016 -0.10661989 0.271456 -0.34910205 -0.35134473 0.063935116 -0.145888 0.09777984 0.18399031 -0.24954373 0.20748627 -0.0012914471 0.3323832 0.24238065 -0.55826426 -0.048345342 -0.43275335 -0.27856517 0.082855605 0.41740212 0.08408286 0.02900243 -0.11868332 -0.055021167 -0.44065917 -0.36196998 -0.25664008 0.17743418 0.008883474 0.30950323 0.05107011 -0.1888626 0.14683685 0.096816994 -0.08581255 -0.2882883 0.11873331
64 -0.041100316 0.29189456 0.060281523 -0.113145076 -0.043932434 0.09309295 -0.2983816 -0.13695474 -0.13655326 0.069743596 0.43256253 -0.13227688 -0.14363195 -0.21740186 0.05410472 -0.19106196 0.08356252 -0.3387609 0.13824642 -0.19926143 0.021331046 0.24973758 0.502728 0.325184 -0.16092613 0.08052683 -0.17694318 -0.39292634 -0.29131776 0.37563035 -0.26599377 -0.25810394 0.15914315 0.03738692 0.14914069 -0.05996602 -0.15004724 -0.21155936 0.28670752 -0.09792052 0.15763798 -0.29674625 -0.16369049 -0.2627353 -0.32720682 0.2563324 0.023950227 -0.11119347 -0.05130313 -0.07912312 -0.17913635 -0.29227355 -0.3649206 0.24492775 -0.20544954 -0.18718198 0.008003915 -0.029342439 -0.17778228 0.28751248 -0.12945423 0.1255744 0.16923009 0.06398168
183 -0.063292176 0.41314876 -0.33606008 -0.29872084 -0.10978464 -0.28493315 0.011028248 -0.058309067 0.16009167 -0.15582056 0.29621953 -0.066259645 0.1665064 0.16023642 -0.07523925 0.21274069 -0.08134586 -0.0861038 0.07242762 0.001493202 -0.11527011 0.25509456 -0.08025104 0.13719124 -0.15425004 0.010780636 -0.07428791 0.011628437 0.015159675 0.28367507 0.096810445 -0.40162402 -0.27696973 -0.11256359 -0.011717591 0.0024208569 -0.06415073 -0.15047583 0.2807868 0.31785285 0.112440914 0.016036805 -0.20884275 -0.1541881 -0.32340324 -0.04841709 -0.052126966 0.18786666 0.21059081 -0.18934967 0.01073023 -0.15907635 -0.13854896 0.15628397 -0.120246254 0.23067793 0.18035522 -0.123282105 -0.05211043 0.021748029 0.08285824 0.062043507 -0.19021909 0.046269868
249 -0.14858375 0.15707359 0.23617436 -0.14271638 0.2133674 -0.06444212 -0.2634213 0.18119383 0.4177769 -0.0984385 0.042899042 -0.076914914 0.040348075 -0.036320023 -0.028759548 0.17359015 -0.0049542994 -0.2093099 0.046239763 -0.30979523 -0.19259287 0.17284119 -0.07722123 0.07465575 0.17392495 -0.15662026 -0.11444565 0.29241285 -0.19343747 0.1028206 0.2598572 -0.094283365 -0.17974779 -0.15904705 0.20606124 -0.057347484 0.12372214 -0.2783675 0.38093087 0.11566498 -0.057595458 0.024497071 0.19632266 -0.09261323 -0.35326883 -0.14185663 0.19162585 0.06840898 0.032890234 -0.08998601 -0.03453207 -0.17989324 -0.18147495 0.23036008 0.064357966 -0.03719446 0.09948197 -0.0019214128 -0.014818539 0.0108269155 0.20974886 -0.03147235 -0.019741423 -0.1452831
129 -0.17754212 0.3923857 0.03730612 -0.06399398 0.02762295 -0.20525676 -0.02047914 0.05431728 0.31816357 -0.1696886 0.26712647 -0.17211758 -1.3379921e-05 0.12923005 0.22927235 0.17554025 -0.18018457 -0.24364348 -0.037461646 0.0010769635 0.058845453 0.061829332 -0.07743888 -0.036367893 -0.19156365 -0.11856145 0.026738014 0.20380442 -0.04502985 0.14035144 -0.04059861 -0.5522381 -0.26559898 -0.15236324 0.08605803 0.008495879 0.13721387 -0.14224297 0.21971194 0.36583868 0.2519551 0.28410938 -0.16724683 0.010315285 -0.31698793 -0.0776202 -0.16914102 0.259041 -0.049761318 -0.30476746 0.3064462 -0.19154215 0.11432046 -0.22494386 0.09441281 -0.24371439 0.07120585 0.042790443 -0.15787211 0.068861365 0.12126316 0.28219312 -0.12926969 -0.022399047
533 0.0041481927 0.1985121 -0.13617729 -0.45228255 -0.17079827 -0.18690725 0.19224644 0.123615764 0.029667232 -0.24703982 0.20134676 -0.18581516 -0.022698125 0.30562803 0.1046229 0.13445297 -0.005626698 0.025195 0.040851198 0.16348708 -0.25462016 -0.023019578 -0.20711897 0.13681501 0.4314466 0.2171356 -0.02869641 0.0815731 -0.03927705 0.24752617 -0.0006205861 -0.345154 0.036167294 -0.48250613 0.22898029 0.07487469 0.25287437 -0.2939498 0.47311598 0.12136047 0.18710117 -0.0768199 0.00044868208 -0.1512206 -0.33665097 0.45068482 0.01150115 0.09324419 0.016459359 -0.02941977 -0.12734656 0.0044808406 -0.14217426 -0.18219458 0.51332724 -0.10685724 -0.1928128 0.060530327 -0.27635297 -0.11323319 0.18330696 -0.19504489 -0.0587115 -0.21093206
211 -0.08996682 0.2040648 0.085465 -0.17296925 -0.203932 0.19298993 0.25804752 -0.13753588 0.16696769 -0.30970034 0.0028559046 -0.18294778 0.06790159 -0.06811778 0.063838944 -0.053255 -0.32723513 0.03439208 -0.05935413 -0.63930386 -0.25536716 0.25744814 -0.04418276 0.08396058 0.015446273 -0.4043583 -0.046468053 0.0016406577 -0.09804919 0.38788304 -0.042083766 0.036055524 -0.042689882 0.003288508 0.15420005 -0.0051735262 0.013438481 -0.29442337 0.18872076 0.031884022 0.0743827 -0.20118102 -0.3476557 -0.18177152 -0.23788439 -0.40409395 -0.14415072 0.37059677 -0.20755993 -0.0050540306 -0.14379685 -0.32813865 0.087487526 0.06374204 -0.041138794 0.020809248 0.43696353 -0.020248888 0.09751765 0.008767926 0.109563045 -0.16157192 -0.44191006 -0.081041664
377 -0.12938541 0.49373308 -0.19282731 -0.13417657 -0.19803305 -0.37924924 0.01735024 0.16233742 0.22324479 0.01807799 -0.06088402 0.17428693 -0.14705841 0.5380181 0.01233598 0.12682372 0.21556288 0.11337222 -0.34518462 -0.3107342 0.22791223 -0.037686177 -0.06067933 0.17817175 0.12955475 -0.11171593 -0.08754807 0.17807563 -0.26706803 0.21755667 -0.021737594 -0.06662556 0.036761355 -0.21684189 0.09846783 0.23254625 -0.31667224 -0.24493663 0.09901414 -0.51973796 0.15079673 -0.018281864 0.14073698 -0.28263363 -0.78104407 -0.061523307 -0.0828129 0.1579423 -0.1279888 0.012344243 0.32309878 -0.18770067 0.010107947 -0.35994792 0.018444678 -0.15975359 0.10439023 0.58759475 0.096371226 0.14721936 -0.24116588 0.51740307 -0.07875928 0.033015467
105 -0.15622163 0.14953297 0.20878807 -0.29540992 0.22941108 -0.010574106 -0.2280062 0.052229606 0.30380946 0.16756253 0.11559805 -0.090785794 -0.008126735 0.06167929 0.04375512 0.14847888 -0.14206749 0.12448903 -0.07075966 -0.14764921 -0.33882493 0.18116413 0.14812902 0.116928115 0.07354472 -0.05508997 0.03394232 0.042398218 -0.20616312 -0.046204373 0.32189047 -0.082917705 0.035257366 -0.21873674 0.2288602 -0.051789273 0.04170064 -0.18644494 0.14349349 -0.17517437 -0.13434549 -0.112343445 0.1751644 0.03115361 -0.48336178 0.058482066 -0.027786585 0.061110444 0.0757549 -0.14964585 -0.1635447 -0.15175088 -0.37426752 0.28706026 0.16744326 -0.040263217 0.17118053 -0.012245847 -0.30062672 -0.30430785 0.045195065 0.11879895 -0.063042656 -0.06876121
128 0.0055630207 0.50244516 -0.042963378 -0.23918132 -0.06350457 -0.20698966 -0.048223685 -0.10799335 0.1754859 -0.29194003 -0.074605644 0.09632508 -0.053837165 0.22521679 0.13087241 0.18571207 0.2565883 -0.035364363 -0.103907265 -0.00039310646 0.013877613 0.111600734 0.20512164 -0.023894971 0.039965436 0.019133233 -0.28675616 0.110377945 -0.06310758 0.22911353 0.13309254 -0.43123 -0.17584834 0.01998381 0.16489291 -0.020408452 -0.1290457 -0.14522234 -0.092479885 -0.03581163 -0.047425624 0.014710955 0.2237874 0.03666512 -0.22112112 -0.12583087 -0.3855635 0.09740996 0.12042732 0.06804309 -0.09705672 -0.46637583 -0.13452521 -0.024716482 0.09700666 -0.13346666 0.13754044 -0.09498973 -0.22183716 0.053703565 0.030392908 0.39432108 -0.081306316 -0.16934128
106 -0.013827471 0.25355414 0.038638018 -0.08576662 -0.06005607 -0.046774298 0.002629408 0.35198742 0.51490057 -0.14510566 0.1716664 -0.16591233 -0.25043324 0.21340102 -0.106183276 -0.075221494 0.22973219 -0.23916589 -0.09432353 -0.3965886 -0.055812363 -0.07573378 -0.11981065 0.06553578 0.011973648 -0.40218145 -0.03525809 -0.11752562 -0.17226066 -0.019576289 0.26598096 -0.22056516 0.26313403 -0.3360557 0.01996213 -0.09879523 0.021586068 -0.36505562 -0.02462801 -0.028742215 0.016372617 -0.08887611 -0.01243251 0.06603394 -0.24292871 0.025904302 0.21378383 0.20731437 0.08822417 -0.16752519 -0.24344438 -0.030370379 -0.2833476 -0.27132583 -0.38528955 -0.024236813 0.15818141 0.12997232 -0.3555947 -0.121251404 0.1719304 -0.065934554 -0.018141 -0.13254446
114 0.27798378 0.19380304 0.11511358 -0.16087696 0.11894556 -0.27968282 -0.05353208 -0.052339286 0.29198414 -0.19074401 -0.12291968 0.26460636 0.16774192 0.04935262 0.07523147 -0.12601496 0.091726296 -0.053119835 0.055343714 -0.08741284 -0.09629572 0.27562055 -0.12499253 0.33361015 -0.03888538 -0.12547287 -0.098667875 0.19857478 -0.14394039 0.09794493 -0.21586804 -0.11109903 0.023732271 0.2277835 0.3348873 0.21441956 0.1900759 -0.31536713 0.17162472 0.37045226 0.11616365 0.027495371 -0.11022539 -0.051960785 0.05823911 0.005601203 -0.053114768 -0.038965654 -0.13954744 -0.0620549 -0.1609189 0.09558655 -0.3701707 0.050561648 0.009518305 -0.09076472 0.4313152 0.18397278 -0.15038286 -0.16604823 0.04557891 0.31029606 -0.037584815 0.033380337
283 0.1225283 0.05287115 -0.121864714 -0.035555698 0.16307421 -0.121904805 -0.15185498 0.195532 0.2533965 0.004182486 0.08754484 0.18055613 -0.1235173 0.038569994 -0.11485536 -0.026763827 0.27756977 -0.14431322 0.06515 -0.4449802 -0.14181639 0.15000746 -0.10018896 0.039452866 0.22807616 0.012237423 -0.05345791 0.08993848 0.107620545 -0.16686691 -0.14638999 -0.023558361 0.12640595 -0.0461333 0.26821938 0.047344178 -0.14547126 -0.47797808 0.13687672 -0.40727702 0.19130483 -0.12965722 0.011755283 0.07058238 -0.38259876 0.10135852 -0.07020295 0.1823973 -0.054093752 -0.037821222 -0.3387253 -0.47120148 0.21657994 -0.032669898 -0.14617848 -0.12949815 0.26676682 0.2894843 -0.077555224 -0.12152954 -0.049768478 0.43126562 -0.017540252 -0.06750048
21 0.07785479 0.30030957 0.15861405 -0.20400704 -0.03320974 -0.048171803 -0.19524299 0.51394343 0.16532537 -0.16115403 0.04030576 -0.2264015 0.056836586 0.46457207 0.16435249 -0.034503303 -0.037601653 0.085671924 0.018469788 -0.2215177 0.13863562 -0.10365395 0.031963553 0.16678832 -0.023043526 -0.22574517 0.024191946 -0.17105429 -0.15056078 -0.19903934 0.17802304 -0.3329797 0.11705339 -0.3454244 0.122241355 0.13817778 -0.0061740526 -0.24007775 0.06456651 0.40391585 0.06740423 -0.021675376 0.11205716 0.17513484 -0.063066855 -0.37992278 0.20891508 0.18717638 -0.025977304 -0.1716067 -0.18986635 -0.32281882 -0.23747441 -0.19379902 -0.16978829 -0.1864803 0.30782512 -0.1060665 -0.049734946 -0.16811958 -0.29642153 0.014520918 -0.11446116 -0.03247089
420 -0.11909406 0.010810623 0.12760831 -0.26149905 -0.27186984 -0.05546652 0.016552804 -0.08046001 -0.02813235 -0.12747888 0.05869706 -0.087853625 -0.12297626 0.22260605 0.37745798 -0.014484513 0.24768166 0.014844748 0.21898906 -0.14376473 -0.029240094 0.13287151 -0.254772 0.19596963 -0.03413615 0.056088444 -0.34947404 0.27890792 -0.3197408 -0.01871918 0.24643224 -0.26167235 -0.24427891 -0.2256938 0.10879985 0.2429374 -0.020734295 -0.050815564 0.22393134 0.018532893 -0.057114705 -0.003757973 0.27700397 -0.2443299 -0.39034846 0.24708845 0.3802148 -0.117365085 -0.1736553 -0.12574281 -0.117618375 -0.41327715 -0.05076712 0.016860617 -0.1869774 0.04192218 0.20723796 -0.37257427 0.024246255 -0.21315305 -0.13034767 0.036507864 -0.45948163 0.25621837
142 -0.09615045 0.24260308 -0.2465005 -0.3472997 0.06470181 -0.180941 -0.047424927 -0.03861934 0.32795978 0.19442406 -0.0032863994 -0.16982669 -0.044569902 -0.14338656 0.22453104 -0.101238616 0.081123374 0.016627396 -0.019174801 -0.11808196 -0.24963169 -0.02627751 -0.2960541 -0.13075663 0.28287864 0.0128822895 0.18380092 0.046758432 -0.26914805 -0.16073053 0.020177718 -0.15330744 0.081673995 -0.14866969 -0.066044606 0.030135928 -0.012222703 -0.23011051 0.036584634 -0.027328294 -0.005231229 0.22691865 -0.021245908 -0.003315936 -0.39443904 0.22668594 0.058001976 0.12775612 -0.15949337 -0.04050483 -0.29395226 -0.34721008 -0.026971059 0.18724445 -0.13409117 -0.16022152 0.053275116 -0.058405258 -0.29372293 0.1286504 0.27463773 0.15298393 0.066547476 0.025353368
83 0.11544311 0.09931073 0.059374582 -0.35128638 -0.15891448 0.047721136 -0.09862474 0.27236375 0.1462716 -0.14230056 -0.08632786 -0.07498545 0.01605581 -0.19594787 -0.10299426 -0.0327802 0.018425904 -0.015979894 0.07481756 -0.5945743 -0.24169067 0.22681542 0.16769381 0.12957488 -0.057479188 -0.020920409 -0.050215453 -0.1068899 -0.017234525 -0.13252443 0.13985619 -0.35263416 0.04749064 -0.32280368 0.0059578186 -0.06096719 -0.0819768 -0.333855 -0.07185789 -0.11930578 0.08062469 0.193022 -0.0466455 0.1813125 -0.06749588 0.008329004 0.2702498 0.060729135 -0.24727158 -0.014154417 0.082350224 -0.45858046 0.14054775 0.19862485 0.077451244 -0.1646891 0.03934403 0.1321401 -0.30759984 -0.036542732 0.24703112 0.3003466 -0.19763896 -0.09885497
87 0.028232144 0.13730785 0.18801516 -0.1612435 0.19013406 -0.2418853 -0.06313202 0.04999625 0.284935 0.061524216 -0.06984805 -0.24234985 0.1948599 0.018517986 0.02278997 -0.1101328 -0.28362396 -0.22093348 0.35091677 -0.40346128 -0.16415748 0.24501687 0.14686196 -0.13251412 0.082289435 -0.10142956 -0.14932282 0.1673253 -0.1012657 0.1006748 0.1940481 -0.1919101 -0.08612706 -0.08352576 0.29578903 -0.032594576 0.30624038 -0.4012129 0.17560665 -0.14393148 -0.057765547 0.10700366 0.0026202947 0.29353064 -0.29775977 0.04523051 0.19025357 -0.07113675 -0.053064097 -0.1937093 0.24228904 -0.31381214 -0.34066424 0.0384242 0.14234014 0.03655257 -0.05775858 -0.015191097 -0.1652062 -0.040884573 0.014575125 -0.052807953 0.07234852 -0.11091476
282 0.046162643 0.013568594 0.012320979 -0.19434081 -0.114991896 -0.29379812 -0.17800717 -0.0030689344 0.3768288 0.35495675 0.22445092 -0.054339748 -0.10111207 0.018705701 0.21817377 -0.037016343 0.13501996 0.044211295 0.31702313 -0.47797468 -0.32259396 0.1231541 -0.09952016 0.08160003 0.30464503 0.120792225 0.011019925 -0.0499362 -0.054199934 -0.15586905 0.27482164 -0.044862144 0.21556081 -0.13561662 0.09437789 0.16840385 -0.014967994 -0.36034805 0.20280915 -0.24071409 0.2740688 0.23555303 -0.11788365 -0.096771896 -0.1652992 0.14623667 0.18225154 0.031659428 0.12832321 -0.1656371 -0.2384561 -0.08078251 -0.16640052 0.04246648 -0.19163196 -0.05406356 0.06114781 -0.07762414 -0.052156087 0.2636222 0.17088549 -0.0962728 0.20307615 -0.15803647
333 0.21383084 0.29825458 0.32397598 -0.38000265 0.10557299 -0.43461728 -0.17639056 -0.19507946 0.14958596 0.06388507 -0.017095244 0.088289864 0.12303734 0.070297144 -0.013972864 -0.06495909 -0.06307867 -0.09436087 0.102863654 -0.32246366 -0.015614951 0.18196493 -0.37851268 0.2996292 0.09722578 -0.1588139 -0.13820815 0.06273542 0.040750083 -0.15126073 -0.09490098 0.053708136 0.270116 0.12844616 0.1864815 -0.08743573 0.19990954 -0.32435074 0.37439865 0.13318676 0.1214837 -0.15937826 0.25446904 -0.082442775 0.06814257 0.069045894 0.17947723 -0.14382686 -0.07918841 -0.23579231 0.010106907 0.09882924 -0.08767986 0.029680109 0.36896303 -0.11063199 0.38503814 0.38055405 -0.28407553 0.01742238 0.03131015 0.2971192 -0.2024737 0.19295794
84 -0.41234118 0.15883175 0.140077 -0.25674355 0.04453106 0.21499342 0.08582176 0.13738704 -0.32345885 0.4429064 0.09588372 -0.0739657 -0.27789876 0.11408381 -0.0032959078 0.049364388 0.09193225 -0.20374854 0.31536263 -0.45209658 -0.48484442 0.25055763 0.030068211 0.17635451 -0.115958884 0.06627925 0.024279205 0.12646723 0.08869946 -0.34126958 0.27480224 -0.2465712 0.46845686 -0.16507688 0.2183164 -0.1255412 0.054938983 -0.15499008 0.21303418 0.20564972 -0.02451088 0.18072921 -0.1435473 0.37149757 0.1341783 0.17939049 -0.046175804 0.24720569 -0.28867242 -0.42011473 0.34448805 -0.12011889 -0.1924722 0.095146805 0.40047258 -0.29666397 0.5909407 -0.039429374 0.122942455 0.19541252 0.037235405 0.20812888 -0.557986 -0.22186792
424 -0.016037585 0.12142704 0.02560876 -0.21804792 -0.16681392 0.15573362 -0.4456259 -0.00043142805 0.4915592 0.12184156 0.12066184 -0.12878835 -0.01800023 0.105545454 0.1557382 -0.017625995 -0.036069237 0.18703043 0.30381703 -0.27917743 -0.38844165 0.14002654 -0.42722574 0.2737498 0.1297258 -0.3358618 -0.12147205 0.003449822 -0.1889959 0.025758697 -0.10301611 -0.15433201 -0.15869884 0.054155774 -0.09080662 0.1324363 -0.19494183 -0.47625434 0.24380569 -0.090971574 0.15912274 0.044463914 -0.114497185 -0.1432582 -0.10088163 0.19549862 0.038506087 -0.09208855 -0.03594162 0.22799526 -0.1634844 -0.2054164 -0.17170723 0.11180264 0.05292502 -0.1190613 0.07134349 -0.17951725 0.07329955 -0.12537493 -0.03278201 0.016220067 -0.008929475 -0.14056
301 0.027767042 -0.120051734 0.098237954 -0.11970774 -0.69604146 0.11994628 -0.04296233 -0.29594496 0.12366388 0.06694017 -0.20749062 -0.044377696 0.15386197 0.28376403 -0.34592533 -0.16807517 0.4089776 0.03562744 0.28625283 -0.048745677 -0.16359054 0.17878105 -0.1451778 -0.11357313 0.30043668 0.23195985 0.0567648 -0.32594 -0.35388532 0.118936524 0.17726572 -0.55394524 0.11635612 -0.2812595 0.16451904 0.48988667 -0.064808875 -0.040269583 0.27381805 0.1369517 0.31786042 0.14370169 0.06870027 -0.142096 -0.27605793 -0.13497192 0.3533517 0.22035198 -0.17395672 -0.034839768 0.008510337 0.046754073 -0.44315967 0.39680177 -0.23911919 -0.12751302 0.007830954 -0.03230865 -0.12909444 0.0837632 -0.14224142 0.2926452 -0.27178496 -0.14610635
820 -0.038856655 0.4533357 0.04068922 -0.08287253 0.20478497 -0.33934924 -0.3645007 -0.1286262 -0.040377665 -0.23034836 -0.18408622 -0.06748818 -0.23293474 -0.18290417 0.13317463 0.0064078066 0.11891537 -0.042880762 0.07889283 -0.08748196 0.04191415 0.2824862 0.03997214 0.07423375 0.24977182 0.1011418 -0.2771272 0.083589256 -0.010794107 0.22782001 0.38639316 -0.51494753 -0.00883461 -0.13237906 0.020991849 0.116407104 -0.3682638 0.03439751 0.16955169 0.2336584 -0.10746065 -0.059894152 0.2644454 -0.06969865 -0.18029608 -0.26472223 -0.3275443 -0.24751975 -0.017325064 -0.01901475 -0.017607544 -0.2928708 -0.22753698 0.13454829 0.48784724 -0.3011334 -0.03290552 -0.1771871 -0.042497054 0.14760436 0.00270131 0.40031603 -0.10743692 -0.14585301
115 0.17319767 0.012550927 0.134676 -0.5080017 0.34064245 -0.37995723 -0.1880717 -0.016931076 -0.06180641 -0.11547881 0.29101533 -0.13511668 -0.1447166 -0.08762056 0.13334651 0.023536807 0.1595719 -0.077338256 -0.0842802 -0.21294439 -0.17237534 0.12464057 -0.07464642 -0.08390539 0.073041916 0.014399199 -0.050546803 -0.17492074 -0.115984224 0.15901077 0.23026651 -0.031313613 -0.056046683 0.1575859 0.14089803 -0.20183076 -0.025410948 -0.20011435 0.20357206 0.17697479 0.020983495 0.089081004 0.0014617575 0.051224027 -0.13847415 0.09491482 0.12504552 -0.19414313 -0.27358845 -0.18336166 -0.20310256 0.0075361147 -0.31034866 -0.0032837833 0.18743566 -0.099977605 0.016775144 0.24568829 0.2845422 -0.052985452 0.046232387 0.3297792 -0.31725943 -0.054532267
256 -0.08950232 0.20419401 0.25136533 -0.040460538 0.09496357 -0.14416312 -0.06903689 -0.054911617 0.28751993 -0.25592607 0.3430773 0.13108385 -0.18843481 0.03125155 0.1875216 -0.0989075 -0.049910843 0.0050419807 0.09504583 -0.08063251 0.033439025 0.2909495 -0.30745947 0.037523348 0.036169708 -0.2906605 0.2279025 0.062182225 -0.105667375 -0.045282155 -0.0001264436 -0.18566227 -0.22552192 -0.23393542 0.19107346 0.15250003 0.025420675 -0.30588278 0.17963402 -0.056363605 0.261427 0.027058568 0.024577526 0.09134727 -0.12069975 -0.11274782 -0.02569566 0.29169694 -0.031375166 -0.1914554 -0.16849162 -0.437884 -0.1283715 0.2950534 -0.05831918 0.011206822 0.079462565 -0.1029632 -0.029623866 -0.242642 0.20895639 0.12733419 -0.011989067 -0.12586947
63 0.36211637 -0.019213306 -0.08805254 -0.12863263 0.072391644 -0.0065568564 0.030973146 -0.18330109 0.18528928 -0.32817784 -0.2335007 -0.15202439 -0.10590718 0.0947344 0.31003073 -0.21584626 -0.108788356 0.06109625 0.020035008 -0.5341668 -0.34008262 0.40391067 0.15937088 0.055530753 0.0930075 0.040305432 0.2421836 0.23259097 0.20573305 0.21776019 -0.15822877 -0.20330617 -0.09784346 -0.112740666 0.047712583 -0.18904129 -0.20820488 -0.052528758 0.24180713 0.37231344 -0.07220856 -0.01952125 0.04286762 -0.063607395 -0.4583544 -0.05579454 0.024369266 0.22511138 -0.05420091 -0.0068630776 -0.22304711 -0.3923654 -0.096131265 -0.051393796 -0.19045396 0.00094908 0.23135705 0.20814249 0.07109389 0.009459093 0.018923787 -0.057955794 0.051845305 -0.04832268
405 0.16230682 0.2762311 -0.10685819 0.12205375 0.09994981 0.086298786 -0.37387064 0.030569348 0.26565433 -0.2567704 0.3295333 -0.00078291114 0.40675056 -0.105643846 -0.0045468044 -0.120128565 -0.11892555 0.21204841 -0.094836734 -0.611485 -0.14222297 -0.018439706 -0.1392972 -0.12325642 -0.10966267 -0.062000986 0.22970773 0.29374146 -0.04345865 0.03719423 0.11425793 -0.36214694 -0.057236936 0.045136925 0.10945868 0.1439503 0.14424606 -0.5058263 0.13451 -0.00011703292 -0.112668514 -0.008993177 0.064590886 0.1143368 -0.11994989 -0.10552772 0.27415603 0.036914147 0.16846175 -0.1912361 -0.23333806 -0.28728148 -0.16563173 -0.33817235 -0.25328743 -0.29897732 0.4111362 0.0370612 -0.1392321 -0.041902587 0.15913999 0.20451292 -0.04777969 -0.027573667
58 0.217413 -0.17011446 -0.13139825 -0.21608977 0.027547799 -0.029267324 0.0015522442 -0.33444488 0.052830156 0.04286929 -0.16525757 -0.18500282 -0.098328 -0.07555561 -0.054157306 -0.13893072 -0.18038793 0.03722906 0.18520322 -0.6565822 -0.17395072 0.21420765 0.023606837 0.06729568 0.2742363 -0.010020495 0.08433186 0.099229455 0.31953117 0.17093834 -0.0065428857 -0.0485096 0.083052464 -0.36445168 0.3218404 -0.24531028 -0.241239 -0.19783883 0.42154834 0.2432845 0.017652744 0.12553348 0.014944632 -0.16472217 -0.23239759 -0.10589086 0.022595705 0.07051947 -0.21470982 -0.3828924 -0.15439817 -0.17634097 -0.09694655 -0.05262973 0.09129077 0.13373622 0.30519438 0.00951593 -0.14948586 -0.036488693 0.029912755 0.08656434 0.04787442 -0.20964469
280 -0.022476217 0.33016843 0.089472115 -0.26352176 -0.16081284 -0.039158862 -0.1374875 0.23518029 0.28669056 -0.33139145 0.1544426 0.10629408 -0.2910506 -0.020291181 0.19695215 0.025097668 -0.040686823 0.14252654 0.123550184 0.01663917 0.18219678 0.15255585 -0.08996307 -0.09121822 -0.09661887 0.1538966 -0.26551884 0.08697808 -0.11366262 0.24957556 -0.05520126 -0.27309486 -0.21798146 -0.068577744 -0.00028859754 0.062477585 -0.0782513 -0.23540811 0.004346721 -0.09128365 0.21082975 0.18532538 -0.019150263 -0.08630921 -0.5098406 0.13573389 -0.258481 0.014305465 -0.13043492 -0.14561757 0.24804023 -0.05937491 0.029941536 -0.043060273 -0.16641971 -0.16973792 0.30659586 0.100706555 0.011065722 0.01998279 0.06498936 0.69889706 0.17298213 -0.18967749
96 0.10796318 0.19440687 -0.041373216 -0.83208877 -0.03981599 0.13723458 0.043180123 -0.08361104 0.09243761 0.090933576 0.020742176 -0.19846703 -0.025716932 -0.19233343 0.04802831 -0.13980193 -0.20744021 0.14145403 -0.046496324 -0.14979456 -0.01108354 0.13821508 -0.10033257 -0.09307034 0.16666749 -0.08585907 -0.004673113 0.03529311 -0.46628174 0.4335269 -0.33926636 -0.08287104 0.27683556 0.38530996 0.30464086 0.02770389 -0.008679767 -0.10430396 -0.23879686 0.44075128 -0.091758795 -0.15593097 -0.4762246 -0.30824596 0.11907139 0.16360751 0.2161101 0.23595512 -0.4020988 -0.106415436 -0.19846037 -0.23844878 -0.2541035 0.13470744 0.22036287 0.04922435 0.20837153 -0.094727814 0.12625748 -0.23467384 -0.22142051 0.3450464 -0.18465927 0.25955227
252 0.01838798 0.13532014 -0.19240296 -0.2800681 0.14816497 0.12680304 0.21245055 -0.37451893 -0.05813917 -0.0944975 -0.12567048 -0.32133162 0.00715136 0.012205856 0.012782039 -0.22992551 -0.27435896 0.19831727 0.09337307 -0.4757029 -0.36135373 0.4336591 -0.015470036 0.13457873 0.20051415 -0.18891852 0.034713183 -0.046790764 0.28774035 0.266543 -0.12151121 -0.16942953 0.13461474 -0.2284444 0.2873683 -0.22922064 -0.1816554 -0.058106113 0.21813466 0.25117993 0.030575184 -0.095188655 -0.19403817 -0.18355808 -0.30525067 0.08016624 0.19061643 -0.070214875 -0.13381395 -0.20018847 -0.20188619 -0.44858876 0.16602837 0.029094785 -0.078031175 0.13821074 0.36934268 0.13782848 0.06308785 -0.19759192 -0.008977154 0.06073015 -0.08620648 -0.06799079
212 -0.006372223 0.17079718 0.207841 -0.2254709 0.08092123 -0.16444865 -0.18289402 0.007185423 0.32902852 0.09772767 -0.011465487 -0.11189487 -0.13389146 -0.06377188 0.14331254 0.14931472 -0.10975096 0.2053707 -0.15283321 -0.4193237 -0.1737769 0.0028857219 -0.09102856 0.032845978 -0.10091243 -0.047236163 -0.052575383 0.09841115 0.009896425 -0.20744234 0.25320294 -0.049795438 0.0695445 -0.10279516 0.29124767 -0.05224041 -0.027007312 -0.25034565 0.18397106 -0.114573166 0.0108464835 0.098932035 0.10661028 0.1574991 -0.30953002 -0.085945874 0.1506067 -0.10854575 -0.29025677 -0.08820264 -0.24157502 -0.42012793 -0.15116823 0.22475396 -0.0052938275 0.11937954 0.10096072 -0.03464366 -0.28898373 0.14237766 0.32867318 0.015077068 -0.102421045 0.045936853
6 0.28837106 0.37300366 0.18339111 -0.013296564 -0.017658621 0.14911939 -0.06577645 -0.431139 -0.10034163 0.13109277 0.48425364 -0.15019795 -0.36323366 -0.066346236 0.17370488 0.05948311 -0.3225196 -0.05106897 0.058113366 -0.034408763 0.045235112 0.28912082 0.4575213 0.36946234 0.36227363 -0.028268117 0.170113 0.018211875 0.17246206 0.39043048 -0.41000426 -0.32032293 -0.0035103776 -0.060706165 0.35523832 0.18588024 -0.23562329 -0.2278084 0.029942874 0.30529895 0.26804093 -0.18919666 0.10481354 -0.24354976 -0.64766973 0.18505512 0.18315083 0.14553794 -0.077452295 -0.1794158 -0.0012544433 -0.2764439 0.026991846 0.03685808 -0.12980194 -0.116704814 0.2512755 -0.13520576 -0.010371903 0.43042573 -0.45592403 -0.09434564 -0.10003883 -0.103846684
165 -0.054959822 0.15427887 0.27518895 -0.40016633 0.2893141 -0.2651318 0.07700552 -0.0028403627 0.061452538 -0.03977916 0.09136854 0.19569191 -0.13841435 0.12927774 0.39554772 0.052519407 0.008863891 -0.23846704 -0.3427776 0.11945856 -0.040132407 0.11768006 -0.1452957 -0.1712016 0.0014657149 0.19947946 -0.24004592 -0.0012663449 -0.022082286 0.2822481 0.09546708 -0.14933704 -0.19429973 0.093885206 -0.005819605 0.16857101 0.11960989 -0.18681048 0.11738113 0.25491688 -0.014693801 0.19073603 -0.07836541 -0.012470947 -0.055821493 -0.17848168 -0.059568085 -0.11000584 -0.25427327 -0.08092973 -0.4005567 -0.12150636 -0.34869817 -0.042830437 0.021085363 0.041030265 0.2626539 0.20850357 0.075713575 0.26343277 0.24992768 0.52404845 -0.35004747 -0.0588221
169 0.1696804 0.21691743 0.22813322 -0.16901167 0.0986038 -0.17557189 -0.014586063 0.15770131 0.2633408 -0.16150452 0.34205356 -0.09328964 0.09862534 0.22758959 0.3476689 0.08680894 0.09452046 0.09377965 -0.068860345 -0.046101496 -0.21868667 0.08682996 -0.10143688 -0.16124754 -0.19093265 0.22855116 0.042221483 -0.15635894 -0.15856905 0.16884474 -0.056756075 -0.20918176 -0.08359873 0.24239028 0.17283686 -0.09211309 -0.10856373 -0.19261856 0.031789348 0.25443307 0.11184166 0.11356368 0.061038602 -0.10787715 -0.0075246133 -0.121710576 -0.10136052 0.13339752 -0.19227134 -0.08970843 -0.42683893 -0.20502032 -0.18558471 -0.15267913 0.011017337 -0.2037684 0.35799468 0.19558272 0.03722981 -0.008307411 0.047806624 0.0624515 -0.24883205 -0.015961526
494 -0.24007012 0.15812439 -0.024247853 -0.20562781 -0.035264052 -0.06385769 -0.011807451 -0.3033551 0.11231098 0.21280329 0.25167724 0.028716872 -0.17156053 0.15788808 -0.23010959 0.45148867 0.35549286 0.060537115 0.29986405 -0.44998822 -0.0836103 0.06647322 0.07684459 0.4546284 0.05234268 0.24839906 -0.33560506 -0.218049 -0.366844 0.33086208 -0.19502921 -0.338156 0.17097986 -0.116618134 0.16666104 0.12090468 0.19372262 -0.35391012 0.20301798 -0.3178999 -0.0703155 0.55301 -0.15419088 -0.010740864 0.07411184 0.23866105 -0.057599775 0.14035408 -0.039607596 -0.20078492 -0.3736741 -0.32261878 -0.085590854 -0.042929586 0.061338153 0.17942278 -0.1635738 -0.09405596 -0.0332982 0.27016798 0.07760706 0.061520856 -0.14906132 0.14936653
81 -0.13468447 0.29531434 0.105979115 -0.05072617 0.29733542 -0.022217644 0.19275776 -0.09424326 0.4180214 -0.14016226 -0.13721941 -0.2658651 -0.060905673 0.25243193 0.06845369 0.3649672 -0.11130865 0.17059842 0.017645065 -0.14311954 0.14052619 0.28215346 -0.16175939 0.2529641 -0.09323747 0.09993898 0.1295916 0.15309368 -0.08823874 0.010145453 0.07917945 -0.20355128 -0.025524516 -0.23538405 0.18337715 -0.014148131 -0.033241253 -0.4475378 0.12243154 0.25891134 -0.008731034 0.014945615 0.14406238 0.26321426 -0.34878126 0.11388865 -0.08943371 0.10955777 0.296004 -0.13543418 -0.33661953 -0.0061377953 -0.19398719 0.25768185 -0.11376382 -0.058695693 0.33078152 -0.20964399 -0.09659314 0.1071274 -0.23620237 -0.07730845 0.10212351 0.015886623
411 0.35384384 -0.09087368 0.32839057 -0.3439345 -0.13107544 0.057448305 -0.2515721 -0.38525707 -0.01639297 -0.0048313276 0.1794958 -0.26534337 0.13716428 -0.22920872 0.024078522 -0.28988498 0.16486304 -0.16069667 -0.44835585 -0.45614573 0.13171023 0.07366553 -0.16329081 0.19802174 0.1665811 0.12572592 0.29888225 0.15117465 -0.12772396 0.44384158 -0.21684532 -0.15547171 0.18780027 -0.061085317 0.36073294 -0.18632086 -0.29334402 -0.5420962 0.18202619 0.17188957 0.03870983 -0.08415827 -0.3268232 -0.38028052 0.21638462 -0.074897476 0.013131444 0.33934686 -0.24159826 -0.47823673 0.052877247 -0.18935445 0.033239644 0.020812197 0.047059532 0.21779542 0.55876786 -0.3478954 0.06321762 -0.049238373 0.07380124 -0.015671317 -0.34088415 -0.12137367
17 -0.19372246 0.09329635 -0.0035866573 -0.4458784 0.08276626 -0.2642319 -0.09463762 0.074537866 0.3323199 0.23850207 -0.0021693648 -0.11924857 -0.0456501 0.043671202 -0.21310502 -0.14049965 0.0329571 0.15438299 0.117563814 -0.11363101 0.2845706 0.38781762 -0.115591906 -0.07049285 0.20682363 -0.19470957 0.11023104 0.008677297 -0.14464608 -0.30992597 0.22223088 -0.06102241 -0.003356999 -0.46993816 0.098633595 0.10974389 0.1534366 -0.351063 0.16215053 -0.15052491 0.059516307 0.018870858 0.14750178 0.008960295 -0.36635762 0.017012369 0.009314576 -0.27248767 -0.16776899 0.11988167 0.068143725 -0.32007575 -0.2076506 -0.24158318 0.15925647 0.056823768 0.38557437 0.34816444 -0.0017879463 0.44357187 -0.004063749 -0.07892856 0.055210907 -0.18668038
473 0.24454187 0.09187867 0.56359047 -0.1339262 -0.14715438 -0.30765525 -0.025000166 0.115809545 0.1638938 -0.2217668 0.225327 -0.38144135 0.14158641 0.10659121 0.04552109 0.17674138 -0.19879681 0.17941624 -0.19782852 0.09336973 -0.32388073 0.09549257 -0.11745528 0.053854194 0.14347841 -0.17579387 -0.13823168 0.31102806 -0.06603012 -0.086399645 0.12516151 -0.013829214 -0.0013435993 -0.5705188 0.12504357 -0.030545663 0.07981951 -0.5517393 0.13267802 0.33830112 -0.36007985 -0.10003506 0.09559399 -0.067521766 -0.1903672 0.28372192 -0.014650236 0.04368841 0.016728273 -0.18862379 0.08611676 -0.007752445 -0.35915992 0.17129621 -0.14920475 -0.11150273 -0.050803237 -0.17861521 -0.1822374 0.3154565 0.018876871 0.21343711 -0.2856376 -0.030840512
133 0.079114854 0.30670646 0.14952596 -0.1183681 -0.06798032 0.056510564 -0.19372368 -0.11938007 -0.051807344 -0.19382341 0.49777794 0.31515372 -0.0709567 0.28774118 0.25209838 0.015326655 -0.0393507 -0.18901007 -0.01865264 0.10655651 0.06955919 0.24939139 -0.10942833 0.0304466 0.05973087 0.036741465 -0.20852494 0.39776012 -0.34198567 0.19199896 0.3318542 -0.23756275 -0.0063539166 -0.15118733 -0.03330749 0.35236147 -0.13103858 -0.068405114 -0.10444313 0.3007097 0.31038788 -0.06080534 0.14016172 0.11661089 -0.06339106 -0.08910377 -0.32639593 -0.036799107 -0.092400804 -0.2710917 -0.04874541 -0.36706826 -0.19858475 0.04274058 0.012420671 -0.16985685 0.24616584 0.20229925 0.13751362 0.43224508 0.21482876 0.47516584 -0.1670896 -0.026601402
340 -0.15549886 0.180885 0.0027801732 -0.24700826 -0.20274277 0.13894854 -0.007551884 -0.09080481 0.24300137 0.002458225 0.16393574 0.06573191 -0.34379938 -0.24932295 0.31061366 -0.2120403 0.15313081 0.26426405 0.13899964 0.039079614 -0.09179437 0.018157456 -0.17350364 0.16775396 -0.17144133 0.024722474 -0.0844254 0.16163203 -0.10302257 0.20526537 0.61029017 -0.045648385 0.33834594 0.19856347 0.501774 -0.0091928225 0.39898232 -0.53989947 -0.0860025 0.08137648 0.04771367 0.22536749 0.12703222 -0.07512378 -0.062260196 -0.28911716 -0.117932096 0.12525131 0.35745376 0.19375709 -0.08144493 -0.33189097 -0.4038141 -0.042825107 0.19557498 -0.07098535 0.1769262 0.056045957 0.2825443 0.13426721 0.043086313 0.334803 -0.080561966 0.0708059
44 0.053000797 0.52491885 0.01976197 0.011180726 -0.3141779 0.23540352 -0.018219128 0.3737106 0.34223005 -0.38804436 -0.12256762 -0.009635246 0.02815365 0.113953754 -0.02958694 0.26902196 0.37289166 -0.17268342 -0.013913596 -0.30675647 -0.16894819 0.18690558 0.1784283 0.205638 -0.1541175 0.027900789 -0.112824716 0.32293817 -0.30951157 -0.1080767 0.1643842 -0.14285259 -0.012571848 0.104078956 0.10674469 -0.15155378 0.17142539 -0.29619384 0.4505092 0.38248673 -0.0875656 0.11327224 0.19755973 -0.023716193 -0.31591254 0.03459361 -0.17358966 -0.12441781 0.2652156 -0.38186833 -0.610773 -0.09265411 -0.09914493 0.30408224 0.2949785 -0.11941616 0.23199363 0.19599071 -0.02629619 0.20614672 0.46520802 -0.009090684 -0.08219386 -0.2979775
366 0.24720159 -0.30300066 -0.25688282 -0.29540327 0.051612303 -0.13691802 -0.068318576 0.14066888 0.23431301 0.25382328 -0.04901132 0.14634852 -0.029603155 -0.14905243 0.12805916 0.059675287 0.23376928 -0.10083634 0.2940945 -0.2075785 -0.46678424 0.15790041 -0.32493225 0.32013312 0.12750058 0.102763325 0.07083575 -0.053555883 -0.17139117 -0.24329066 -0.11059429 -0.114526615 0.2228861 -0.39801562 -0.14463618 0.027256267 0.106344946 -0.35941127 0.1007529 -0.12557487 0.053377274 0.23118415 0.09818438 -0.11456127 -0.2816766 -0.06331857 0.143153 -0.007427636 0.30518416 -0.34778 -0.14202231 -0.461943 -0.39182192 0.17331862 0.09147914 -0.39655748 0.16358605 0.26047638 0.11429486 0.1278194 0.16176657 -0.06527116 -0.04177454 -0.17224972
971 0.058648452 0.30033642 0.16616975 -0.23158523 -0.019418199 0.39640895 -0.16669574 -0.014036185 -0.18227889 -0.19163534 -0.14272717 -0.19329894 0.056832995 0.51700276 -0.100471266 -0.04291455 0.27494878 0.22197093 0.3394453 -0.16271037 -0.19098523 0.09654397 -0.33298856 0.635589 0.16056627 0.6332356 0.24076143 0.6873021 -0.3880991 0.4889653 -0.04468692 0.11749817 0.06824478 -0.24932161 -0.08006822 0.081578374 0.48076412 -0.11124904 0.35325137 0.5494938 -0.33342907 -0.19700004 -0.665414 -0.16263723 -0.36745715 -0.07892702 -0.1448209 -0.123932235 0.193581 -0.3880509 0.00038334518 -0.39301586 -0.3383455 0.3726989 0.118592784 0.04000553 -0.13115333 0.19788663 0.1637285 0.16863084 -0.09409832 0.45977357 -0.21604231 0.17145456
303 0.001732357 0.26180857 -0.14144084 -0.1344204 0.07325631 0.17325495 0.10483659 -0.1961192 0.40411127 -0.18270409 -0.09395502 -0.17818712 -0.14146173 -0.01825404 0.27232748 -0.07956565 -0.056146387 0.14318009 0.25072506 -0.14801231 -0.24193388 0.08950301 -0.16156295 -0.042778738 0.14936979 -0.2048824 0.09881417 -0.052738592 0.0786857 0.06672885 -0.100734755 -0.3595553 -0.045074567 0.1345285 0.48209435 -0.23816778 -0.07270718 -0.16878596 0.17608693 0.6104099 -0.076992795 -0.11031261 0.08756836 -0.120919265 -0.4570955 0.095769934 0.022740712 0.22430193 -0.15922181 -0.060670353 -0.085924 -0.15064263 -0.07142187 0.06851941 -0.026553106 0.36479267 0.5058779 -0.0525968 -0.2701236 -0.09664671 -0.03317451 0.07035705 0.13141388 0.036135305
28 0.103917696 0.32661414 0.106202245 -0.19283867 0.17198795 0.05820143 0.007208992 0.06443658 0.3200574 -0.37167692 -0.011717758 0.034100164 0.18275902 0.3927268 0.36249653 0.03971005 -0.055643544 -0.12848422 -0.14435387 0.13263941 -0.1243815 0.33105725 -0.11594695 -0.11288953 0.07175359 0.27484778 -0.3555066 -0.13105202 -0.06127045 -0.14873205 -0.11446731 -0.32618237 -0.009475572 0.045164745 0.3263875 -0.05076292 -0.0066062086 -0.3297387 -0.15147904 0.3601536 0.13220319 0.4223828 0.015263209 -0.17924832 -0.0126591595 0.09739398 -0.045054015 0.15139203 -0.02200558 -0.08375797 -0.27437666 0.01699818 -0.30999583 0.19352964 -0.15471056 -0.12913091 0.18033436 0.04959049 0.15894212 0.15835412 0.15237841 0.2045548 0.0848597 0.009994946
546 -0.035530463 0.17157753 0.22322246 -0.6033588 -0.22328684 -0.4964593 0.14570208 -0.21695119 0.2231009 0.054211326 -0.386795 -0.19489439 -0.05034578 -0.12340264 0.06412195 0.0044079255 0.09710527 -0.09552341 -0.19219679 -0.26873764 -0.1836423 -0.26504225 0.14331962 0.1616453 0.1882563 -0.26202446 0.1526593 0.22214085 0.04522191 -0.16572948 0.17988095 -0.17682742 -0.1755886 -0.06854895 0.63722444 0.13993648 -0.04005351 -0.39102107 -0.026468553 -0.054821596 -0.10039378 -0.18438563 -0.06888915 0.23329873 -0.5658142 0.09652276 0.11557632 -0.06066978 -0.28599143 -0.28262085 0.03149837 -0.21897517 -0.20256522 0.03879496 0.04597604 -0.21260625 -0.37269464 -0.013918716 0.083179004 -0.037266802 0.32047537 0.11612326 0.29876903 -0.27114633
419 0.01332132 0.3107181 0.08381603 0.014612645 -0.16147627 -0.021823674 -0.032580096 -0.1068977 0.37179887 -0.26964852 0.21673508 -0.040353373 -0.20612818 -0.06590102 0.0025713164 -0.19714041 -0.23163694 0.07866615 -0.34792712 -0.24306422 -0.06417997 0.2237239 -0.18126161 -0.22185493 -0.4361795 -0.12746692 -0.16613111 0.099989496 -0.20928037 -0.04154996 -0.0007222924 -0.46863827 0.21532649 0.015542328 0.23431712 -0.13508616 0.30285364 -0.047429074 0.06946221 -0.073697045 0.21630733 0.05081389 -0.1270317 -0.013133692 -0.1804298 0.29867187 -0.08631423 0.059951738 0.3949582 -0.18283564 0.3834218 -0.4525051 -0.6131625 0.20121266 -0.068792865 -0.2521072 0.12737744 0.16858761 0.03472268 -0.16780095 0.24043515 0.07804037 -0.26198077 0.124034815
170 0.11582647 0.21207903 0.4189754 -0.20352912 0.24302003 -0.15616123 -0.14295313 0.036873765 0.29530373 -0.071235165 0.46415022 -0.10130344 -0.11427514 0.39945883 0.18687555 -0.018288637 0.31163442 0.04176902 -0.21842383 -0.06418205 -0.14275748 0.2949893 -0.6439683 -0.10072827 -0.074012384 -0.023976969 -0.06515569 -0.24277276 -0.15262683 0.3693245 0.101031765 -0.032960694 0.112796634 0.24471885 0.10905963 -0.35104442 0.02596146 -0.13956276 0.11703133 0.044612736 -0.30955526 0.14722101 -0.09333184 -0.18583888 -0.0480028 0.22448707 0.17810147 0.20555565 -0.106805645 -0.24289787 -0.24769804 0.15304954 -0.3956495 -0.039238706 0.1548409 0.092207626 0.063456655 0.19956715 0.23741907 -0.1675111 0.051100858 0.05533887 -0.3412725 -0.24095544
2 0.324772 -0.090638615 -0.011521306 -0.12369286 -0.1052163 0.049543753 -0.12984185 -0.46282294 0.07856244 0.1774672 -0.36904246 0.008806558 0.060564432 -0.11236531 0.17571677 -0.10711418 -0.27842316 0.23965275 -0.25801077 -0.6767142 -0.104174905 0.29246593 0.34691143 0.22061247 0.11160302 0.0035737848 0.42234215 0.20753385 0.23646739 0.48344842 -0.23319806 -0.09127169 -0.15947987 -0.1707401 0.17206304 -0.024872126 -0.055685807 -0.18694471 0.19238612 0.2973825 0.10947861 -0.14565666 0.059781212 -0.08428196 -0.21148111 -0.016095819 0.27452826 0.35034403 -0.14051864 -0.22302237 -0.3277826 -0.38558677 -0.16883731 -0.13773176 -0.033913095 -0.028790172 0.36115026 0.07323173 -0.10651685 0.3556306 -0.16290478 0.056037985 -0.13700731 -0.24620016
932 0.14154382 0.17350346 0.17081055 -0.1102717 0.21277925 -0.32794258 -0.058546532 -0.060624648 0.3520088 0.09636059 -0.10124604 -0.3555615 -0.112468846 -0.011212478 0.05075949 0.17466468 0.02114296 0.33762318 -0.26401654 -0.29380342 -0.40850273 0.09308705 -0.15338922 0.0959473 0.23839244 -0.14323126 -0.15199828 0.1368755 -0.28090397 -0.17426974 0.20182095 -0.2127456 0.10675771 -0.027585419 0.01624266 0.06873957 0.08876794 -0.046040338 0.24060747 -0.019699043 0.041656293 0.24559978 0.07862479 -0.019291205 -0.058781873 0.17842932 0.025538871 0.16550992 -0.105402194 -0.19381085 -0.068740875 -0.67239743 -0.1970804 0.09488341 -0.21082708 0.109821714 -0.0822994 0.23622513 -0.2826528 -0.012929389 0.20421548 -0.07652639 -0.24688785 -0.09432385
329 -0.13652295 0.08361305 0.0915838 -0.1452349 0.01900952 -0.4584463 0.14684634 0.27879354 0.34422544 -0.23917873 -0.05883353 -0.21760742 0.019294536 0.24868794 -0.030167831 -0.048535615 -0.12884982 -0.16450624 -0.025891153 -0.35016644 -0.09666932 0.07724712 -0.068474695 0.14949651 -0.4793415 -0.018140513 0.21226281 0.047702383 -0.022383679 0.12509684 -0.046406955 -0.25996253 0.13469867 0.11154669 0.15126641 -0.018591784 0.20615007 -0.17924032 -0.048540477 0.2108975 0.18271661 -0.06254699 -0.17336093 -0.162673 -0.19904302 0.19409746 -0.036333427 0.2540137 0.19808997 0.36921126 -0.31984165 -0.29569343 -0.34043118 0.22192365 -0.1563163 0.04744416 0.26288328 -0.024006277 -0.15085588 0.13635427 0.048243094 0.21847817 -0.012956878 0.2913597
4 0.18983825 -0.16968365 -0.07000242 0.008857731 -0.090764284 0.115661316 -0.11908213 -0.25615057 0.23257297 0.02401064 -0.08762217 -0.122307256 -0.021780686 0.07277868 0.22320999 0.004496212 -0.23582675 0.304878 -0.008070274 -0.64528376 -0.0607223 0.44878373 0.04164292 0.023032676 0.054822396 0.082999 0.58656067 0.4124492 0.41494066 0.4077336 -0.13714893 -0.12580463 -0.061185814 -0.16146702 0.09328649 -0.14952375 -0.21484478 -0.20977129 0.1211197 0.42908102 0.13657968 -0.0069966833 -0.038620118 -0.15011811 -0.22431014 0.059697356 0.01977156 0.28789032 -0.20774326 -0.20343891 -0.34579366 -0.21337743 -0.1729049 0.23984802 0.1340022 -0.06557456 0.39527857 0.07783327 0.0012287166 0.2013351 -0.023611376 -0.15903062 0.02292396 -0.32440537
65 0.06244796 0.27111062 -0.14569764 -0.28589353 -0.01549029 -0.02101677 0.20630515 0.3156669 0.3115338 0.30320278 0.52504283 0.1701898 0.0034285036 0.2137244 0.19995968 -0.037896834 0.17398681 0.08390216 0.23087135 -0.3281481 0.15626585 0.17528738 0.10555141 -0.078949414 -0.31420437 0.074674055 -0.14549078 0.35850742 0.04458064 0.04703279 0.25515544 -0.28953502 -0.041129738 -0.25664285 0.060359158 0.54326725 -0.035154037 0.07501502 0.114364594 0.18375006 0.25781924 -0.17492405 -0.1129365 -0.5020137 -0.44916025 0.2533141 -0.45335206 0.3889163 -0.053013906 -0.36705098 -0.17001164 0.06272906 0.02067372 -0.09404561 0.4547726 -0.42571926 -0.22051428 -0.033899654 0.1317343 0.055971816 -0.13046451 0.47831196 0.0020645119 -0.5272812
74 -0.21107788 0.3256244 -0.20778783 -0.33675754 -0.13306598 -0.12671071 -0.15784414 0.21703084 0.04846477 -0.041354932 0.13783282 0.020720605 -0.30997163 -0.005748239 -0.1129239 -0.31498432 0.15864174 -0.03890572 -0.0064451434 0.094296664 0.23929745 0.19455954 -0.2637928 0.10376788 -0.10088684 -0.35813364 0.12826316 -0.104042925 -0.558186 -0.17439082 0.12221273 0.036138278 0.24680296 -0.44595048 0.10013443 0.15269318 0.1976741 -0.2721427 0.35821846 -0.14605504 -0.088568315 0.1517632 -0.3443645 -0.30460626 -0.25676668 -0.27851072 0.011780089 -0.17635946 0.21128228 -0.11118251 -0.16949773 -0.2498729 -0.35416427 -0.65584093 0.16056366 -0.012341031 0.49688938 0.038183425 0.11478057 0.26235795 -0.14100096 -0.04127234 0.05713488 -0.17538647
232 0.07457792 0.16841355 0.29010385 -0.23825894 -0.38639927 -0.13560551 0.24294017 0.23561424 0.008776883 -0.19100723 0.37921697 -0.054027516 -0.0022884319 0.19749184 -0.2304557 -0.1559841 0.45343125 -0.045352075 0.045931254 -0.001803755 0.26173037 0.17349729 -0.14439626 0.030739741 -0.19253947 -0.098071575 -0.19890206 -0.03919926 -0.2354517 0.15504894 -0.43563306 -0.41391233 0.05191974 -0.28658563 -0.06873556 -0.031002978 0.30820057 -0.004623241 0.27191493 -0.06501821 0.23820148 -0.22761697 -0.11309356 -0.40279904 -0.7711315 0.055660166 -0.4122304 -0.15914026 -0.37164402 -0.20681806 0.04041852 -0.45031673 0.20369898 -0.24730352 0.09783553 -0.33417574 -0.18932584 0.024808409 -0.032748666 0.19410905 0.304181 0.71731496 -0.037826445 -0.23987517
215 0.03928582 0.036447067 -0.09530255 -0.31072178 -0.18937138 -0.29495487 0.23445705 0.2157998 0.25393373 -0.00728221 -0.19525063 -0.07904161 -0.11871929 -0.0649608 -0.13375098 -0.13584694 0.23770973 -0.17551647 -0.23667036 0.095392525 -0.07401194 0.252323 -0.35313973 -0.047565483 -0.02762976 -0.11057111 -0.19082591 0.15234692 -0.33360422 0.26089105 0.059480023 -0.06644697 -0.1531902 -0.4535113 0.3711987 0.17303388 -0.26305765 -0.26547503 0.06035465 -0.54449207 -0.065684505 0.0036240085 -0.088012055 -0.1505214 -0.32696232 -0.24231054 0.10285486 -0.0596649 0.06917196 -0.2874635 -0.08650477 -0.3460758 -0.1606989 -0.08401224 0.014274351 0.1444123 0.48755687 -0.040132303 -0.3641208 0.49934155 -0.29382077 -0.24747074 0.2458192 -0.105737254
365 -0.19478872 0.2751295 0.09315222 -0.092631094 0.28667617 -0.029132226 -0.122827925 0.2925381 0.3767233 -0.4496027 0.3896041 0.41546342 -0.0969717 0.13369954 0.16469201 0.2411637 0.22622722 -0.3095727 -0.14401259 -0.07118341 -0.18819334 0.37465844 0.027544964 0.1361719 0.011127861 -0.17864063 0.1266568 0.33689716 -0.27895567 0.17154892 0.22966118 -0.33814275 -0.25074026 0.006796829 0.0439091 0.066974625 0.2874849 -0.27665403 0.6157731 0.15421246 -0.021520237 -0.08558697 0.040437523 0.10831765 -0.35471717 -0.24095006 0.31255758 0.16678435 -0.20356889 0.05025904 -0.09627765 -0.24024741 -0.13003905 0.23131394 -0.01932132 0.06603365 0.22012511 -0.12532605 0.06247342 -0.09139039 0.17173363 -0.19452238 0.017107645 0.04374138
172 -0.12386599 0.4209797 -0.08348219 -0.2055544 0.03253373 -0.07493711 -0.084463544 -0.053166904 0.28955096 -0.30173638 -0.097055405 -0.055119675 -0.2587062 -0.060215693 0.22330303 0.13719866 -0.2194984 -0.24236415 -0.07118997 0.012595233 0.18228641 0.39175636 -0.07545573 -0.11917583 -0.29884812 0.19577074 -0.2308645 0.2065496 -0.21688586 0.17968278 -0.1743946 -0.3256192 -0.19260497 -0.08421004 -0.261516 0.3466951 -0.04513581 -0.26372814 0.25393373 -0.041602932 0.28784874 0.112752445 0.11914784 -0.10685644 -0.105045296 0.025293846 -0.3929805 0.14037457 -0.23789039 -0.15299772 0.28129885 -0.11746264 -0.0031914392 0.108154245 0.23300093 -0.41174966 0.14012656 0.29913077 0.131409 0.108804666 -0.073284395 0.5056413 0.030924087 -0.023963926
285 0.25425225 -0.14935924 -0.5455591 -0.1791187 -0.11271525 -0.04825128 -0.004371086 -0.3545627 0.20292288 -0.034495767 -0.038645566 -0.23611186 -0.035797812 0.07318563 0.5200469 -0.14148314 -0.15095428 -0.28034034 0.18975045 -0.37141562 -0.265271 0.50052345 0.00028058726 -0.009642302 -0.15282758 -0.21700852 0.062958546 0.27923223 0.27443805 0.37874594 -0.06373651 -0.029229807 0.043269914 -0.061916597 -0.15614676 0.017132102 -0.19450492 -0.3453544 0.34027073 0.37684754 0.08111368 0.040601805 -0.06286206 -0.46087 -0.41563907 0.004033633 0.116035685 0.360418 -0.12044115 -0.37410012 -0.062666975 -0.25731668 0.25064567 0.090967625 0.14500895 -0.008543342 -0.022496287 0.081841625 0.044875 -0.01895426 -0.23374866 -0.16629714 -0.049890507 -0.11811886
41 -0.07737589 0.3050904 0.037052922 -0.384282 0.31948146 -0.49711365 -0.35346827 -0.17866497 0.077259846 -0.3599392 -0.14129815 -0.040750463 -0.27716124 0.014882793 0.019208575 0.052719615 0.123345606 0.28882936 0.05508145 -0.1542177 0.12178171 0.2088861 0.06765212 0.065700285 0.14426427 0.14142536 -0.17682077 0.10965477 -0.09560447 0.13267079 0.23215891 -0.41313252 0.11011115 0.005237567 0.08811195 -0.027119374 -0.0039875163 0.076122984 -0.11364005 -0.040578082 -0.020818952 0.0205151 -0.038953803 -0.20503555 -0.010628668 -0.3012813 -0.37859708 -0.29633197 -0.0030903253 -0.094449766 -0.06276407 -0.28828028 -0.18591745 0.015016587 0.4880948 -0.42113274 -0.01258218 -0.057231504 0.0023206214 0.06882831 -0.054603666 0.5883609 -0.11031759 -0.25246412
498 0.30755106 0.76188385 0.10550055 -0.33364165 -0.46202096 0.19095443 0.269254 0.3426214 0.28006324 -0.0759741 0.01447422 -0.16524585 -0.15176405 -0.1753642 0.031620085 0.14739321 0.5260808 0.18315479 -0.1412289 -0.2013001 -0.09418052 0.13515253 0.37314072 -0.082641155 -0.047766034 0.2409607 -0.11165119 0.34673962 -0.079848215 0.27755195 0.015016497 -0.19016746 0.028444644 -0.3684083 0.14130291 -0.16827545 0.5562733 -0.30086404 0.53089964 0.01450542 0.27211985 -0.29764768 0.22774501 -0.1835048 -0.21083322 0.34602615 -0.097196445 -0.40543947 0.18303382 -0.44065586 -0.2068033 -0.21688405 -0.09072336 0.49890283 0.15871386 -0.08062014 0.03723656 -0.16715537 0.3191916 0.25279838 -0.10925271 0.09604688 0.07263529 -0.4737984
295 0.051716123 0.1968649 -0.2400607 0.11133688 -0.24973182 0.058723237 0.007810152 0.19186422 0.42645854 0.107746206 -0.018160272 -0.18308248 -0.19038725 0.37882328 -0.14733271 -0.1416252 0.3498423 -0.27217376 0.16827397 0.14190294 -0.10406152 0.15640621 -0.29823992 -0.0081851585 -0.16695169 -0.33726344 -0.037193924 0.2154081 -0.18939711 -0.15659717 0.14500041 -0.3887889 0.11575908 0.07214557 0.29830998 -0.48409495 -0.16051991 -0.36033887 0.109825 -0.75238055 0.29540035 -0.005933632 0.09111725 0.19512446 -0.55561596 -0.03365382 -0.20513546 0.41278064 -0.29426944 0.02635574 -0.107832655 -0.3796165 -0.015643287 -0.016679352 0.027124757 -0.105348624 0.09349709 0.6069158 0.17128642 0.6822475 -0.26087087 0.3808779 -0.33331305 0.13223329
493 -0.2207787 0.4235094 0.061774936 -0.15351392 0.035847146 -0.3507735 0.007182832 0.0023541744 0.089502275 -0.18243116 0.45624626 -0.43311432 -0.022147734 -0.029752107 0.2079867 0.13632722 -0.28106338 0.036062393 0.32588625 -0.17880823 0.044620443 0.24154778 -0.2008868 0.11365206 -0.22064191 -0.1499415 -0.06462089 0.06531962 -0.12579867 0.055442933 0.16801989 -0.261588 -0.3061216 -0.20976426 0.20223968 0.076503634 0.011002976 0.019467311 0.17856303 0.092036694 0.59494346 0.3725642 -0.073206194 -0.010431981 -0.31412572 0.08206389 -0.22420344 0.12722419 -0.059316702 -0.44027936 0.32259113 0.04543116 0.13633254 -0.17983928 0.29851407 -0.30224508 0.10975172 0.19826299 0.10393058 0.30459687 0.28222325 0.37242192 0.30722177 -0.11364545
371 -0.098817214 0.044706263 -0.021268157 0.2127951 0.008861203 -0.060222533 0.07962308 0.12505044 0.41397667 -0.090358675 0.011936757 0.087108776 0.18649074 0.17678618 0.36088026 -0.18389314 0.1517625 0.12628633 -0.15255992 -0.41137627 -0.04886132 0.5064107 -0.09292681 -0.08828421 0.0702971 -0.03083429 -0.23335473 -0.030829586 -0.038514063 0.24558881 0.15905835 -0.07035877 0.039565694 -0.06196515 0.22760548 -0.26747462 0.02829025 -0.27787212 0.31747139 0.18625662 0.06122186 0.0043075597 -0.055508617 0.11870456 -0.23035789 0.45106733 -0.094434194 0.21393542 -0.19124347 0.22944176 -0.22809198 -0.38352868 -0.19846468 -0.07940276 -0.015321827 -0.37728274 0.13200001 -0.14567243 -0.35440674 -0.27042192 0.16324121 -0.11598622 -0.009637761 0.016659755
209 0.06792404 0.092395104 -0.15368992 -0.3920328 -0.21253854 0.16057976 0.30773452 -0.26144877 0.14090207 0.1625514 -0.1703181 0.13267824 0.14538033 -0.17930067 0.011774289 0.4038439 -0.063168086 0.017116154 0.28926942 -0.550451 -0.56876934 0.449481 0.12632781 0.04600106 0.19282974 -0.06359581 -0.028045584 -0.012717729 -0.051627193 0.39386848 0.49892426 -0.41762927 -0.26544547 -0.09128527 0.21470231 -0.28181896 -0.12805934 -0.17604998 0.09139863 0.21999829 0.032701958 -0.27639648 0.1964595 -0.033796657 -0.08794233 0.053745378 0.18234554 0.19032916 -0.14843358 -0.3518376 0.085079 -0.29112273 0.120399915 -0.2192156 -0.20675085 -0.02830918 0.3906126 0.025008548 -0.014736133 -0.1439328 -0.087524466 0.21690887 0.312778 0.015996164
137 0.2726432 -0.22088267 -0.18538286 -0.24138351 -0.14318322 -0.138718 0.06821456 -0.12882262 0.25367668 -0.32982463 -0.33618876 -0.36711052 -0.15757832 0.26862764 0.46976045 0.1866484 -0.16366456 0.13965732 0.018043533 -0.35683727 -0.1906943 0.36502075 0.12408928 0.018752063 0.296145 -0.07042515 0.51722723 0.029367957 0.06527737 0.23261425 -0.211876 -0.15289617 0.11316735 -0.19829834 0.44043463 -0.048326336 0.21313292 -0.08990879 0.3438825 0.3170233 -0.06524098 0.116677865 -0.049845938 -0.059664793 -0.26110348 -0.087979004 0.007946825 0.33965728 -0.2426114 -0.06039927 -0.14533009 -0.19976409 0.08282325 -0.019528974 -0.2607799 -0.26821268 0.21268198 -0.20894216 0.019295458 -0.18838255 -0.29292384 -0.017653206 0.10266501 0.00919045
113 0.20981336 0.17379956 0.3089038 -0.53250825 0.20404038 -0.16793996 -0.0031589027 0.12284646 0.0265947 -0.112514116 0.08385668 -0.014438785 0.051196102 0.15643683 0.057855044 -0.08033168 0.3087125 -0.106995896 -0.014271265 0.11868495 -0.11785216 0.29181436 -0.33034226 0.20058078 -0.06004938 -0.21079116 -0.39241078 0.037550192 0.17429224 0.039279595 -0.23568138 -0.035173047 0.016459418 0.41041842 -0.17925255 0.027465485 0.29822066 -0.16541195 0.20419665 0.22967213 0.2343335 0.0127411075 -0.12713842 -0.3006448 0.06612592 0.06844899 -0.18708141 -0.082384795 -0.42672244 -0.31749153 -0.2044562 0.12523592 -0.4146092 -0.023198737 0.0012219418 0.02960455 0.32130316 0.22606349 -0.27930003 0.27506056 -0.033426188 0.6167347 0.050084945 0.09955034
409 0.16345742 0.63315684 0.21694939 -0.40441754 -0.0036268132 0.17664918 0.056137633 -0.2687133 -0.098616295 -0.09620884 -0.048954606 -0.021424336 -0.15113963 0.46674338 -0.09646408 0.27012527 0.106149174 -0.020508895 0.29586023 -0.224293 -0.11925103 0.21433625 0.019251315 0.15202148 -0.12717652 0.5896425 -0.69889665 0.03411922 0.17293891 0.0045016063 -0.0407983 -0.26059446 -0.24800196 -0.053039543 -0.26221693 0.3973936 0.0875151 -0.16827703 0.121531755 0.092858076 0.056167696 -0.17667873 -0.0973528 -0.18889984 -0.024841037 0.31533182 0.39128533 0.340348 0.12638853 0.18231802 -0.37190512 -0.05895158 -0.48528653 -0.019230463 0.07817413 -0.27696764 -0.07712935 -0.098328866 0.17907205 0.1948666 -0.64255977 0.26037124 -0.2839135 -0.37418017
393 -0.016808763 0.033494055 0.11515945 -0.079595745 0.15663536 -0.04363752 -0.1444085 0.3351994 0.0049848324 0.048384503 -0.20783257 -0.3046169 0.082163446 0.13600597 -0.23604855 0.008006037 0.034010455 -0.015010326 0.22148238 -0.117615044 0.24658214 0.25849378 0.13850784 0.067863494 0.36258233 -0.23789412 0.18483244 -0.0013385268 -0.097481415 -0.27665412 0.34595415 -0.2879991 -0.0123632625 0.010538973 0.27688316 -0.27557188 -0.2872743 -0.58551306 0.32256258 -0.5145187 0.28322607 0.13367727 0.28261942 -0.12823132 -0.45657644 0.18543182 0.01911037 0.1867224 -0.24785955 -0.07196717 -0.0056992224 -0.24538034 0.01604463 -0.05500421 0.34404665 -0.15594096 0.018322242 0.54778534 0.13651906 0.28714922 -0.29885516 0.55669236 -0.30901256 -0.03422277
93 0.11524711 0.22744688 -0.11686436 -0.29828385 -0.036460366 0.021731798 -0.09897405 -0.16530852 0.055931173 -0.20159611 0.369273 -0.16531646 -0.2802945 0.5594837 0.0767176 -0.072267905 0.06675854 -0.422314 -0.02931123 -0.010364955 0.026111977 -0.13759491 -0.123702966 0.082609296 -0.2753353 0.06795639 -0.32474616 0.052163713 -0.10135217 0.31402913 -0.071138225 -0.1832865 -0.5439361 -0.07180827 0.08800324 0.28186646 0.13415393 -0.016845204 0.035447806 0.09759402 0.14459705 0.3354554 0.25280234 -0.05242311 0.09744225 0.32278782 -0.5385564 -0.2572677 -0.075591445 -0.46107572 -0.16517834 -0.17786674 -0.46183646 -0.14082731 0.24538869 -0.10844291 0.10783898 -0.04450701 -0.07438042 0.07352272 0.037091997 0.6155029 -0.13902712 -0.26287058
269 0.07390658 0.27232373 -0.10580728 -0.20279412 -0.27146912 -0.061869994 -0.12921263 0.23346578 0.045226783 -0.1473852 -0.13920787 -0.22962958 0.08088533 -0.1609506 0.3381263 -0.10617259 -0.15216291 0.22744092 0.12834826 -0.51244354 -0.28249943 0.42852136 -0.28638926 0.11964608 0.3721422 -0.0438626 0.22624905 -0.62624854 0.2248603 -0.009648611 0.58978975 -0.29339844 -0.20842592 -0.03598522 0.363808 0.040355984 0.2730635 -0.0065641706 0.25099435 0.03536822 -0.08289293 -0.2526175 0.08174673 0.05542998 -0.21820907 0.30163658 0.06871102 -0.24534945 -0.10973744 0.024009435 -0.08094153 -0.30926213 -0.12510373 -0.07712986 0.02208551 -0.07052699 -0.13191046 0.17242874 -0.14281946 0.051609505 -0.24436603 0.12958682 -0.13513532 -0.15118827
290 -0.20186856 0.06855267 -0.079633296 0.36591244 -0.23502637 -0.46633807 0.045524403 0.2052194 0.32821527 -0.038703147 0.20659785 -0.14473225 -0.11564688 -0.20875928 0.2840139 -0.12421458 -0.24590825 0.13430421 0.21488269 0.013821569 0.063091956 0.1293088 0.102446154 0.31844994 -0.1386622 -0.25239986 0.0014448507 -0.08905984 0.16578668 0.33637318 -0.104499154 -0.4844657 -0.01718342 0.13030824 -0.10691416 0.26880482 0.19999708 -0.38304186 -0.2580074 -0.0017829437 0.23421049 0.49308494 -0.15637115 0.06041519 -0.47168148 0.3056461 0.057299424 0.058831144 -0.014966001 -0.089816116 -0.1476507 -0.112388074 -0.29190984 -0.08033085 0.17625271 -0.025496947 0.2023323 0.016036673 0.12503959 0.014117426 0.110028654 0.5642835 -0.11646998 -0.35403153
173 -0.007903005 0.081416965 -0.023116708 -0.50099677 -0.045549948 -0.026583603 -0.2343788 0.18873632 -0.097876765 0.10659857 -0.19663973 -0.3009095 -0.05699686 0.026813308 0.07752876 -0.26867047 -0.154188 0.43783692 -0.03584591 -0.001627187 0.23897177 -0.019693838 0.2654468 0.28897944 0.16523658 -0.18259996 -0.122301094 -0.09087244 -0.21902348 -0.011883443 0.5320894 0.060668033 0.074758776 0.11521702 0.056389466 0.21659349 0.15123011 -0.5391734 0.13103469 0.37240022 0.26393008 0.1091394 0.07811603 -0.024758764 -0.20781532 -0.058557577 0.109418474 0.0026790597 -0.16389768 -0.27064496 -0.21890123 -0.4569195 -0.5528636 0.13573197 -0.14184153 -0.24332818 0.13118209 0.11019573 -0.17365886 -0.061161056 -0.06020435 -0.08301182 0.41691375 -0.049828272
549 -0.123888426 0.32055527 -0.0931996 -0.117991656 -0.3020985 0.06778938 0.12089625 0.30247605 0.2794303 -0.23628427 0.06370661 -0.2843224 -0.23900583 0.2683969 -0.2830874 0.23096417 -0.21115379 0.4329793 0.33021995 0.13195342 -0.16685306 0.1228439 -0.39360544 0.038630687 -0.09642095 0.064312294 0.11470244 0.23890385 -0.008727717 -0.01051011 0.2964629 -0.05124288 0.20017892 -0.6861532 0.40316218 -0.16762687 -0.037168637 -0.38611656 -0.10731094 0.13555929 -0.017502021 -0.21281372 -0.29185453 0.29848152 -0.35789496 0.23438849 0.17362247 -0.24181779 0.19727111 -0.49873808 -0.43373305 0.020698901 -0.17669183 -0.15015653 -0.1507748 -0.47920105 0.018399904 -0.22848769 -0.25044304 0.50170314 -0.30553734 -0.01771127 -0.476618 0.28329164
141 -0.21760616 0.30224338 0.28231403 -0.20500666 -0.1542717 0.19685869 -0.25844496 0.52464134 0.22982538 -0.078584485 0.046862036 -0.015364496 -0.16930217 -0.036615584 -0.29917336 0.21065117 0.14076513 0.052393124 0.1416536 -0.33602664 0.10993358 0.35812396 0.3433656 0.07417821 0.078227915 0.29319683 -0.29595396 0.19056776 -0.13990624 0.14376041 0.041070145 -0.26700097 0.07271866 -0.15581498 0.14373721 -0.22622608 0.63732785 -0.18635683 0.50233066 0.42484057 -0.06637709 -0.0602308 0.43212125 -0.10834551 -0.35810572 0.18780778 0.027802786 -0.22909385 0.11372761 -0.58780915 -0.5203616 -0.15518421 0.15158623 0.24006815 0.17584038 -0.16511019 0.29602897 -0.27479866 -0.030670576 0.28710604 0.2122686 0.28235033 -0.14510962 -0.057095062
210 0.10244818 0.066936746 0.016862083 0.26224625 -0.049131658 -0.048273366 0.28996232 -0.14148325 0.41819602 -0.11035084 -0.16651572 -0.12653773 -0.0026242658 -0.061966024 0.16590433 0.1415594 0.15299836 -0.09391239 0.14182873 -0.405681 -0.45647955 0.16084021 0.1547942 -0.058265068 0.1628123 -0.17608887 0.11538124 -0.22434324 -0.0937219 0.11318699 0.32384294 -0.3691987 -0.06301601 -0.11862953 0.2789323 -0.07179336 0.13455328 -0.097416796 0.14400424 0.062956735 0.060430475 -0.12845078 -0.031901464 0.056519203 -0.2397986 0.14442268 -0.17602448 0.0988933 -0.39304417 -0.12340572 -0.18563463 -0.38957968 -0.24935609 -0.07087889 -0.0510424 0.2507181 0.35798928 0.11820121 0.07873329 -0.30574676 -0.21028686 0.20856288 0.113577984 0.0012379166
404 -0.17189863 0.10637115 -0.30195504 0.06843143 0.038749762 -0.10859461 -0.13783115 -0.008750191 0.1343479 0.25035447 -0.10850788 -0.24913429 0.11296277 -0.3098919 0.059301667 -0.27987203 -0.054840934 0.1438038 0.24810018 -0.66815096 0.1304934 0.45947683 0.10403867 0.19427943 0.46049 -0.059816837 -0.22112897 -0.18727826 -0.015359255 -0.007910633 0.36317083 -0.14252783 0.056706157 -0.120372735 -0.019268516 -0.28302583 -0.097946025 -0.45785183 0.47477183 0.14560099 0.07957918 0.1546706 -0.023660213 -0.012942401 0.0058606113 0.48720247 -0.0823979 0.005087015 -0.3442792 0.15178287 -0.21267506 -0.12396471 -0.4659002 -0.06760109 0.30093032 -0.37647006 -0.038714457 -0.045523364 0.048260476 -0.013234416 0.15469609 -0.013390654 -0.087330535 0.053020865
180 -0.20431022 0.3590504 -0.04295684 0.03178074 0.0057590995 -0.21612236 0.004765423 0.079561055 0.030953288 -0.4647727 0.10284063 0.04769417 -0.40755427 -0.06779942 0.008865542 -0.09292429 -0.15137644 0.16191044 -0.104721144 -0.49875084 0.26667726 0.17814417 -0.06205625 0.048705354 0.2528964 0.29198605 0.07722174 -0.094760135 -0.016980425 -0.44478583 0.3017352 -0.27075323 0.11647716 -0.10583725 -0.07343288 -0.1459594 -0.24263653 -0.10805626 0.43574587 -0.19895239 0.3992378 0.40691358 0.31971243 -0.29785866 -0.42601287 -0.16753787 0.1410721 -0.079769544 -0.3787425 -0.23962991 0.26167625 -0.05738238 -0.33990905 0.18112706 0.4148157 -0.05080861 0.06385083 0.29002872 -0.15409943 -0.004373212 -0.2880017 0.43115535 -0.038555976 0.13741039
367 -0.10443231 0.27280936 0.2314107 -0.40652835 -0.0678061 -0.051253457 -0.21764067 0.073453866 0.26088482 -0.13122037 0.06066929 0.13511683 0.116168655 -0.026428029 0.2028863 0.41877052 0.24629171 -0.19496022 -0.08530078 -0.023310667 0.034257736 0.18948132 -0.1668634 -0.024443382 0.034375157 -0.12108514 0.024979468 -0.10956859 -0.08930543 0.10587692 -0.18056108 0.042960405 -0.05192392 0.28869063 0.4853508 0.09292507 0.04560605 -0.35918355 -0.024736622 0.3543674 -0.044808988 0.34872633 0.039055232 -0.2756779 -0.026577575 0.206336 -0.09867087 -0.0857538 0.1108269 -0.21707132 -0.34762552 -0.08342425 -0.23884143 0.06613457 -0.2658104 -0.100467555 0.21603376 0.3369335 -0.02154026 -0.0764846 0.08736541 0.30137333 -0.08897075 0.15911731
157 -0.21175331 0.1254771 -0.10634517 0.03491413 -0.082718916 0.012610997 -0.010085819 0.23196214 0.2516633 -0.350726 0.22043264 -0.025223156 0.122930355 0.18087527 0.025928851 0.037903763 0.20661554 0.17327428 -0.19845416 -0.20607123 0.0756899 0.020805426 0.06004114 0.09476875 0.31430027 -0.1360351 -0.043178707 0.10507329 -0.07414947 -0.22231628 -0.22435632 -0.27447692 0.072868206 -0.043838453 0.16152668 -0.070518464 -0.5924191 -0.30315426 0.19840695 -0.31408998 0.13252112 -0.114425756 0.42622694 -0.16490272 -0.688713 -0.35567358 -0.10418336 0.35178107 -0.22214545 -0.24991933 0.20797352 -0.514056 -0.322309 -0.17556275 0.066224016 -0.1388967 -0.079011135 0.36806434 0.12240368 0.38863242 -0.7426012 0.6487624 -0.3505955 0.077803604
254 -0.07232731 0.11540195 0.16361053 -0.24093705 -0.04023651 -0.39196286 -0.02033739 0.0649613 0.13218084 0.16342974 -0.09561602 -0.16833054 -0.12550595 0.07208806 0.30162245 -0.047033407 0.16782047 0.2774942 -0.18934523 -0.30504897 -0.22055262 0.14751084 -0.14167896 -0.18192597 0.11575482 0.039247315 0.08644365 -0.04833031 -0.023337454 -0.39464918 -0.044229012 -0.15288429 0.015241693 -0.07436198 0.32105327 0.14161392 0.03545901 -0.17256436 0.15607238 0.14785986 -0.009228694 0.26489526 0.018752469 0.21141592 -0.23648931 -0.1470539 0.07790637 0.17887264 -0.12565953 -0.042597473 0.01358799 -0.7325175 -0.116333626 0.24987923 -0.035053194 -0.003815177 -0.030010788 0.21182984 -0.1871407 -0.09460434 0.33219138 0.059907448 -0.17650811 -0.16264112
438 0.301698 0.23185262 0.10862307 -0.35446578 0.019686196 0.07323318 -0.23662014 -0.1223238 0.04149806 -0.026842792 0.3558737 -0.022118839 0.018166365 0.062265344 0.15684094 -0.0081692 -0.021610357 0.012205875 -0.2658014 0.17818047 -0.14264928 0.13386498 0.048767224 -0.5968571 -0.08034075 0.2029133 -0.16781707 -0.20069148 -0.13801979 0.35072067 -0.33466822 -0.24095275 -0.13423482 0.23286803 0.20246804 0.10066295 0.10477925 -0.3745828 0.11356288 0.27654245 0.1977235 0.22687179 -0.15972728 -0.32908678 0.01725829 0.06693008 0.15185994 -0.0624558 -0.23786166 -0.34519395 -0.28694263 -0.11655281 -0.4234717 -0.16087149 0.06930332 0.03252113 0.12572117 0.35096127 0.10189433 0.40509513 0.16050005 0.21120217 -0.30670005 0.114432
116 -0.03380381 0.11630202 0.10442912 -0.5161498 0.022405779 -0.15664601 -0.19502658 -0.014401747 -0.006908231 -0.23970792 0.32611308 0.06185647 -0.17382018 0.15267794 0.023430033 0.082997 0.24595353 -0.055602822 -0.34042248 0.10732598 -0.04518043 0.21544684 -0.17363939 -0.29963982 -0.14031366 0.29900393 -0.16740072 0.08952206 -0.040578768 0.3803183 -0.010840304 -0.12467596 -0.11261928 0.1392209 0.30756804 -0.12995088 0.057779487 -0.23676951 0.048465602 0.30494353 0.11704542 0.065525085 -0.2059533 0.047585547 0.24275348 -0.0011287137 0.13290866 -0.11882731 -0.099561445 -0.18271683 -0.24274075 -0.023525564 -0.45857516 -0.13038209 -0.17164092 -0.13356356 0.31494227 0.26492637 0.27920702 0.0011589961 0.020092756 0.491867 -0.2665771 -0.18401633
495 -0.44719484 0.07695005 0.33639956 -0.012932546 -0.16312908 -0.1597888 -0.30264756 0.39699566 0.4829078 -0.34103143 -0.16132505 -0.090330824 0.17099342 0.035743106 -0.0057767276 0.1564457 0.102225445 0.03802965 -0.09031717 -0.27556372 0.11226406 0.43969214 -0.11383515 -0.057452943 -0.21737695 0.019180827 0.0033033711 0.2775789 -0.34982517 0.19054817 0.24203372 0.02800654 -0.003725642 -0.106420405 0.26845184 -0.0008489353 0.04438843 -0.26369694 0.02840303 -0.08662851 0.37999177 0.031993363 -0.030721586 -0.075819746 -0.12521239 0.12563021 -0.223059 -0.07033338 0.2305758 0.050272726 0.19672628 -0.40807694 -0.35782543 -0.3089821 -0.19206522 0.096030466 0.41305193 0.40994328 -0.22431304 -0.10716662 -0.3970306 -0.12807746 -0.15299968 -0.26549545
184 0.20528112 0.023352051 0.03472396 -0.05205419 -0.15220143 -0.23263809 0.10592647 -0.018068014 0.3358747 -0.18499717 -0.029707508 -0.18475467 0.0008389956 0.37600234 0.110475965 0.09317465 -0.19415238 -0.16406627 -0.2221883 -0.123337045 -0.05448033 0.25674447 -0.011730485 0.50533897 -0.13408838 0.012152458 0.29582173 -0.023567008 -0.13860536 -0.1928767 0.32684013 -0.14073582 0.09502637 -0.42320234 -0.07475844 -0.121510915 0.14040026 -0.49878392 -0.05272239 0.16337818 -0.1462147 0.011755265 -0.14735624 0.27723175 -0.5079246 -0.07953086 0.11378625 -0.19553894 -0.0348279 -0.42780763 -0.28840005 0.23590884 -0.2700781 -0.19582461 -0.23085262 -0.33937106 0.052258767 -0.17406987 -0.02408363 0.08879922 -0.03374047 0.09953554 -0.16449048 0.25238886
474 -0.39658454 0.034531157 0.08537669 -0.40418553 0.08387426 -0.43398133 0.24496461 0.045321546 -0.0410709 -0.08280953 -0.14097452 -0.54654974 0.03716334 0.078541696 -0.21948847 -0.11449518 -0.33389837 -0.017165342 0.02395146 -0.4446268 -0.14371735 0.089278154 -0.19295892 0.15644735 -0.031208774 -0.18145458 0.17900224 -0.34549838 0.074244894 -0.101198174 0.2249019 -0.13410781 -0.0057215784 -0.005263102 -0.029478827 0.099977486 0.027386302 -0.15337467 0.14954272 -0.048942816 0.031114807 0.07566251 0.11989124 -0.2723774 -0.116282746 0.22768493 0.092587836 0.07064063 0.057736304 0.062634446 -0.3316351 -0.14817384 -0.41241518 0.16369985 0.18456548 0.050917886 0.33172062 -0.18246883 0.13691446 0.22863139 0.31186885 0.45504975 0.12529957 0.15727617
14 0.24331632 0.37907162 0.13399778 -0.18339588 -0.02249063 -0.098744914 0.055838253 0.3158957 0.24724874 -0.47397962 0.31740043 -0.12315825 -0.084573045 -0.25718597 -0.16411626 0.012875995 0.097163424 0.100718714 0.109308444 0.2623294 0.23074791 0.354307 -0.15540805 0.06546754 -0.048189264 0.038366407 -0.19667986 0.18035592 0.010379917 0.2834288 -0.2469912 -0.33474794 0.3105686 -0.02406625 0.053930357 0.23266663 0.033223227 -0.05723078 0.20469889 -0.2768718 0.2826947 0.47830364 -0.070123106 -0.21130495 -0.56112814 0.21260025 -0.28678697 -0.08646956 -0.20996767 -0.2254949 0.21914878 -0.38645628 0.09278816 -0.06574828 -0.17174928 -0.44694194 -0.06430975 -0.25779626 0.34771618 0.30892742 0.13992831 0.65331537 -0.0026169019 -0.31025013
23 -0.20915619 0.32711568 0.31752172 -0.46003225 0.11299196 -0.38365778 -0.19355938 -0.17164057 -0.005725375 -0.28095725 -0.14194173 -0.015008692 0.12770212 0.28749096 -0.053308614 0.039064027 -0.030196168 -0.29065302 -0.027106564 -0.08337301 -0.14527737 0.17588796 -0.14394112 -0.075833544 0.097438954 0.10069952 -0.34816235 -0.115222454 -0.17580864 -0.039331537 0.024739616 -0.09449717 -0.1411253 -0.025358869 0.12375626 -0.059325404 0.08146747 -0.35670304 0.081184745 0.25802898 -0.047864836 0.4218129 0.014416894 -0.4030463 0.2830085 0.011093642 0.09464572 0.13446283 -0.32006338 -0.10469591 -0.45049623 0.018410238 -0.27484652 -0.13617681 0.29104078 0.16608942 -0.081148386 0.15991515 0.08635917 0.5134071 0.11702227 0.20222594 -0.010431452 -0.20618138
155 -0.14626428 -0.18012136 0.0655964 -0.50373155 -0.20264019 -0.08282886 0.16171233 0.32424858 -0.024572808 -0.3656664 -0.18586175 0.17643774 0.321086 0.037746437 -0.14464776 0.1569865 -0.34728676 0.16449907 0.033617426 -0.21873643 -0.031099824 0.25965342 -0.23652403 -0.10311311 0.3341936 -0.25864083 -0.07860272 -0.072460145 -0.39166516 0.6392214 0.06722044 -0.37119088 0.21404473 -0.34386083 0.2650484 0.20394497 -0.4948936 -0.2972852 0.23899518 0.10590547 -0.048381448 0.27162802 0.015400212 0.0015869637 -0.53048277 0.25882682 -0.0335401 -0.10089232 0.026807621 -0.008817145 -0.013853372 -0.20478164 0.019879373 0.31906638 -0.18615162 -0.61931056 0.0071131135 0.4282298 -0.19814062 -0.02485241 -0.1420923 -0.30152148 -0.12744279 0.0006229562
189 -0.14727856 0.31296304 0.096264064 -0.0028120184 0.08871242 -0.13698067 0.2716784 0.14143136 0.40720662 0.019664945 -0.20801368 -0.5546685 -0.33521286 0.6125028 -0.08145298 0.21121426 0.17054093 0.04768082 0.1867351 -0.28098482 0.0018837815 0.19760004 -0.4071373 0.069631174 0.111116335 -0.050892256 0.14018759 -0.106047764 -0.41359076 0.09331332 0.05130463 0.29274574 0.3416726 -0.60178745 0.06720131 0.32480967 0.068391934 -0.5078863 -0.15421927 -0.07721293 -0.3281965 -0.11599423 0.14967528 0.26479363 -0.47223064 -0.1921679 0.32324404 -0.12904443 -0.041261148 -0.3514316 -0.054151703 0.20268136 -0.26887295 -0.34024638 -0.08269995 -0.30428252 -0.04401981 -0.22467971 -0.15390867 0.149423 -0.20298709 -0.066489354 -0.29251876 -0.16104217
168 -0.18378393 0.38804385 -0.014958698 0.08610976 -0.16763146 -0.16030864 -0.15281792 -0.09997488 0.10861912 -0.10352581 0.15856989 -0.2146979 0.036646258 -0.053118926 0.31891578 -0.20835301 -0.018074336 -0.1679312 -0.08209383 0.13297908 0.06528701 0.35354957 -0.22724652 0.43200898 -0.5607367 -0.035913248 -0.23247895 -0.014957895 -0.011923993 0.35560426 -0.14506194 -0.62532437 -0.026201278 -0.18412326 0.056139156 0.23260848 -0.119493976 -0.07017831 -0.1121222 0.15518758 0.16204333 0.55240184 0.1309503 -0.18810754 -0.45239982 -0.13402279 -0.13545084 0.3275806 -0.34002542 -0.3602025 0.2596943 0.14503835 0.16019079 -0.091854304 0.121883176 -0.17809466 0.08384519 0.069905974 -0.086320564 0.12168978 0.22700106 0.55918825 -0.08887493 -0.0066897036
11 0.1410405 0.7481333 0.15029931 -0.30833283 -0.41556752 0.22027642 0.09673381 0.45699543 -0.049582288 -0.15720628 0.08481455 -0.23981453 0.14046806 0.18035068 -0.39124894 0.17143779 0.22672902 -0.09676857 -0.13008165 -0.47290522 -0.12552579 0.31263712 0.37061712 -0.08825306 0.2792368 0.114439964 -0.27214462 0.120047435 -0.35646513 0.36085564 0.3142059 -0.30594212 0.26116464 -0.13372542 -0.09236771 0.16284527 0.6348549 0.0832445 0.3717365 0.13245773 -0.037467588 -0.15571755 0.13084264 -0.19955859 -0.5626833 0.1328392 -0.0013323463 0.21173312 0.052997183 -0.43202776 -0.33953336 -0.1745259 -0.012326172 0.4788212 0.046183407 -0.105293065 0.41013548 -0.08413374 0.22162335 -0.31320867 0.18861692 -0.023117667 0.19638652 0.19310665
342 -0.37848338 0.24588393 0.13590808 -0.21629615 -0.27263197 -0.23869164 0.010789673 0.15831119 0.3480337 -0.29910472 0.17543826 0.11894446 -0.4581954 0.15554936 -0.0057513355 -0.33837062 0.009733927 0.3915017 -0.18405776 -0.19659907 0.19055991 0.38967502 -0.03798999 0.079548545 0.17015849 0.35418096 0.09066168 0.16774572 -0.22934166 -0.043070152 0.07019407 -0.3741563 0.046226565 0.12911089 -0.004546182 0.20312531 -0.2189743 -0.11209847 0.0372562 -0.3718948 0.4871776 0.0534381 0.2997009 -0.32459852 -0.5681793 -0.17037228 -0.020472849 -0.118889056 -0.26478472 -0.08507282 0.46472335 -0.2973421 -0.12548941 -0.019399814 0.08266536 -0.21807083 -0.2099074 0.30403635 -0.37571716 0.018326126 -0.2877162 0.45686632 0.14308988 -0.081267424
300 -0.2645783 0.14411429 0.09921913 0.15986998 -0.21059196 -0.13724706 -0.19015758 -0.1206295 0.027762769 -0.14480555 0.06477581 0.03664794 0.44845477 -0.11852348 -0.008917899 -0.039939713 0.24452849 0.44790077 -0.10151047 -0.46143514 0.030057272 0.12907293 -0.043048 -0.08846363 0.027656123 -0.17883328 0.272844 0.18892978 -0.3393507 0.15787901 -0.087182105 -0.54162407 0.15663096 0.07352016 0.22624148 0.055244267 0.3100942 -0.25249317 0.110231794 0.0674425 -0.18076442 0.0062528625 -0.14473416 0.17653081 -0.16426836 0.24976724 -0.10535823 0.31662205 0.055723693 -0.1778632 -0.39469102 -0.3222801 -0.46614158 -0.21294825 -0.21783188 -0.6000606 0.44594374 0.024180874 -0.27844906 -0.07503129 -0.032849763 -0.18806738 0.063214384 0.05929123
459 -0.11407808 0.32952344 0.17085092 -0.3320776 0.067753695 0.108562455 -0.14773956 0.33853403 0.18938017 -0.14114724 -0.0050007585 -0.19059512 -0.1229749 0.2267172 -0.3763742 -0.24426264 0.47030824 -0.28106865 0.05357849 -0.3298535 0.08947218 -0.27931786 -0.27782342 -0.32372645 -0.19030398 -0.30115655 -0.1264399 0.3193702 -0.09293752 0.112666406 0.38464296 -0.16735816 0.18387203 -0.69985116 0.12681898 0.07693047 0.13298249 -0.4621693 0.19534102 0.06539531 -0.22100273 0.093724124 -0.1416328 -0.16971183 -0.3481894 0.1418289 0.47088453 0.17127717 0.052486807 0.22860324 -0.17394876 -0.28115857 -0.01892997 -0.28447253 0.087872826 0.19208886 0.22282901 -0.11450515 -0.14387396 0.53477645 0.06354595 0.061902363 0.09911326 0.0585387
20 0.046343576 0.19049042 -0.017565984 -0.36939487 -0.06907734 -0.036157046 -0.1832391 0.57493395 0.18481898 -0.08337934 -0.1931807 -0.479909 0.009208747 0.61719245 0.04487811 0.0029848805 -0.103175014 -0.078471206 0.023794863 -0.20725995 0.11412225 0.06333445 -0.04807497 0.22542858 0.047546882 -0.22658971 -0.011084566 0.0169535 -0.3194708 -0.03317131 0.20319095 -0.17413968 0.42486286 -0.43181774 -0.28625035 0.032981846 -0.054293383 -0.32841894 0.039371807 0.23100013 0.036670607 0.13031021 -0.024832249 0.08839331 0.19617942 -0.25238198 0.4515255 0.20412353 0.042447306 -0.36594126 -0.26769912 -0.37905017 -0.21280795 -0.08475996 -0.06422762 -0.040512707 0.22760451 -0.057171535 -0.07278067 -0.11071945 -0.25377625 -0.1154161 0.24981031 -0.20343709
450 -0.24464111 0.36969164 0.0012871373 -0.004570354 -0.020016031 0.10167599 -0.028813098 -0.1392807 0.08557897 0.048521053 0.3605744 -0.3170935 -0.30075073 0.12546062 0.0935188 0.021151636 0.009568181 0.03750286 -0.22471844 -0.048771 0.20559597 0.35339338 -0.32355133 0.114285976 -0.5907188 -0.027846703 -0.17103393 -0.023014875 0.044247843 0.16832119 0.20810331 -0.42418265 -0.1198031 -0.12484653 -0.15909825 0.3771253 0.10546928 -0.13321587 0.09446772 0.0065080035 0.2745274 0.20384088 0.1622098 -0.25220656 -0.18423314 -0.1499845 -0.55651987 0.26158336 -0.32908252 -0.3325021 -0.03222437 -0.35449883 0.23416935 -0.028257977 0.13171364 -0.07489114 0.10736978 0.13922194 -0.15626231 0.060339313 0.119042024 0.39937893 -0.12762651 -0.040044546
16 -0.05068585 0.11502783 0.21140769 -0.17428514 0.024880843 0.183206 -0.39860943 0.12461874 0.4794445 -0.09692975 0.27768221 -0.09516478 -0.12142212 -0.058059264 0.22158776 -0.120818384 0.11588729 0.12297321 0.25449875 -0.51194584 -0.52508044 -0.020336062 -0.004072983 -0.045499746 0.15915619 -0.46351042 0.18492028 -0.1596394 -0.18331504 0.1645452 -0.17978291 -0.39983833 -0.4307024 0.057818003 0.054290015 0.10344265 -0.2919143 -0.35163897 0.28050053 -0.36535615 -0.18869768 0.15846674 -0.14150658 -0.04080493 -0.34066573 0.1333605 -0.16192938 0.11972495 0.2782726 0.058289092 -0.24317168 -0.06142433 -0.27580413 0.017553478 -0.27725884 -0.102826595 -0.0004488482 0.019693078 -0.05507005 -0.06152552 -0.07013905 0.118663326 -0.14254123 0.15340026
42 0.026848119 0.18254764 0.12187822 -0.37913126 -0.019141968 -0.49871168 -0.3922643 0.0906681 0.31968015 -0.22229466 -0.0027820203 -0.2577379 -0.048989367 -0.04858195 -0.37690443 0.0702519 0.20337681 -0.1694781 -0.17849715 -0.2575359 -0.09688192 0.19844939 0.06837446 -0.02696433 -0.12999763 0.08390125 0.09802764 0.11462032 -0.055366028 -0.100456916 0.26003698 -0.27837172 0.14283638 -0.39250404 0.12147538 -0.20531252 0.06297411 0.029266838 -0.08615141 -0.29626268 -0.30592254 -0.061839286 -0.02081893 0.24561457 -0.37043014 0.08646178 0.27401587 0.062284175 0.1373517 -0.1682559 -0.09907272 -0.13063905 -0.30641952 -0.008695495 0.1131349 -0.12602793 0.16964726 0.19387858 -0.37018502 -0.017581118 -0.0035723068 0.2723105 0.12986133 0.10712493
859 0.15935105 -0.18222255 -0.20103186 -0.2229188 0.059931405 -0.13348152 -0.029934045 -0.31079647 0.14937112 -0.051194333 -0.23166926 -0.3380001 -0.11241731 0.014570324 0.137827 -0.2325569 -0.45169926 0.19964388 0.12819232 -0.6150415 -0.21829362 0.40328145 0.16445652 0.3154966 0.13090451 -0.016016422 0.25858644 -0.076307565 0.038859006 0.2206525 -0.07822116 0.13837597 0.109168164 -0.19439597 0.38471013 -0.31372738 -0.17594811 0.1323716 0.1538016 0.29317248 0.05740682 0.023480697 0.06799339 -0.2965148 -0.35132858 -0.16716385 0.19682516 0.055415586 0.03747003 -0.2959786 -0.22807473 -0.3970106 -0.13461326 0.094696954 -0.20806128 -0.03852888 0.08381598 0.26892304 -0.09000167 0.24873614 0.18739343 0.1432325 -0.038098484 -0.29245073
7 -0.34832823 0.44742623 0.358028 -0.33666506 -0.26808766 0.2370688 -0.16014652 0.37093136 0.26529422 -0.28249544 -0.20116602 -0.12210149 0.22835562 -0.052856278 -0.12699525 0.10749763 0.34925735 -0.2479812 -0.091771364 -0.47349092 0.06991544 0.22118793 0.11008158 0.2387616 -0.065752156 0.21940279 0.110166796 0.28355736 -0.29010195 0.11331065 0.21005371 -0.41692036 0.052565143 -0.11471708 0.029648833 0.07219226 0.39793834 -0.19460882 0.5872714 0.16279924 -0.0022569466 -0.055811927 0.42073706 -0.1860168 -0.55106354 0.16104382 0.21599841 -0.24180827 0.038667694 -0.5842244 -0.4867259 -0.14499252 0.14590718 0.080669 0.2453811 -0.04479855 0.28171733 -0.30346644 0.54169434 0.17662339 0.44024912 -0.06398437 -0.24037713 -0.17283343
61 -0.17019257 0.2574094 0.064157225 -0.16594048 0.11041882 0.1289155 -0.08914625 0.43180245 -0.18737046 -0.36653242 0.24666344 -0.37142307 0.30484074 0.014575162 -0.15146302 -0.020003796 0.3833566 0.058737 -0.46229166 0.067837924 -0.1791693 0.16276368 -0.03291617 -0.0763312 0.13235138 -0.08897992 -0.02225091 0.39394557 -0.2600035 -0.03323527 -0.15842332 -0.15975925 0.2925059 -0.3808082 -0.13667552 0.040049724 0.021192664 -0.65174776 0.48230097 -0.44422358 -0.040448084 -0.24686252 0.5135833 -0.32926753 -0.67167056 -0.03310605 -0.19338553 0.019895095 -0.2637553 -0.08091727 -0.18823841 -0.29878882 0.16113403 -0.01831855 0.26954097 -0.21312623 -0.035104856 0.19437602 0.08920407 0.20621295 -0.38167885 0.6143793 -0.2968769 -0.20412105
19 -0.11104125 0.31494212 0.20984335 -0.17837238 -0.30538076 0.11181784 -0.044268597 0.45220667 0.11307565 -0.1844912 -0.050009374 0.02047948 0.1859955 -0.03502979 -0.3362975 0.11586098 0.30173886 -0.2675916 -0.1388229 -0.31787968 -0.15718542 0.39649808 0.2480448 -0.044955842 -0.19401231 0.2017829 0.031028397 0.24124774 0.05647462 -0.00034548205 0.5353057 0.07857808 -0.0009635504 -0.23411646 0.09677714 -0.13575022 0.5845374 -0.38082987 0.440052 0.20178269 -0.14405878 0.19001377 0.1631974 -0.011883317 -0.72209936 0.10090734 0.063202 -0.22527635 0.03686841 -0.3272236 -0.5304956 -0.1199593 0.07751586 0.06199366 0.39357495 -0.108581476 0.23160127 -0.18056682 -0.05093059 0.16504416 0.07510792 0.059925653 -0.29281804 0.00020933966
440 0.012398405 0.40045366 -0.118734084 -0.09747947 -0.05246319 -0.05347886 -0.025480097 0.063174136 0.026604095 0.10036853 0.22793393 -0.20259742 -0.08101579 -0.14829333 0.042229358 0.2471613 0.32078055 -0.05039819 0.11428514 0.17051932 -0.007711419 0.31411007 -0.28386793 0.07046535 -0.54111683 0.24180709 -0.14174494 0.013652658 -0.11604251 0.1177089 -0.1278719 -0.33513728 0.09571613 -0.58716196 0.71112025 0.21954197 0.6090701 -0.2744253 0.433112 -0.050905947 0.17906322 -0.42407018 0.32136184 -0.693472 -0.23298484 -0.046761993 -0.18724644 0.22190396 -0.32523632 -0.33175832 0.0062968456 -0.25797352 0.1909066 0.020722445 0.2880285 -0.18513422 -0.46777597 -0.112116 0.070069015 -0.23141941 -0.15300272 0.4259612 0.08116095 -0.24561758
174 0.39336416 0.043576617 -0.013877392 -0.031091994 -0.076669715 0.032120287 -0.10863393 -0.19896412 0.10945919 -0.2314224 -0.24601908 -0.113892175 -0.038170498 0.093328215 0.43424553 0.040466413 0.20799908 0.20735995 0.24202105 -0.620464 -0.44644478 0.37971926 0.2872254 0.17036167 0.2851621 -0.07207356 0.32684565 0.012124664 0.0395035 0.16111359 -0.0045923116 0.16087283 0.018568922 -0.034787722 0.31264165 -0.117763355 -0.32178697 -0.10060649 0.33079666 0.27925923 0.07924058 0.042065617 -0.27097556 -0.41818762 -0.4163778 0.15246171 -0.08207369 0.2261349 -0.014987051 0.014393681 0.028905846 -0.5196329 0.13986656 -0.1359168 -0.33420867 0.06296052 0.13622312 0.10448094 -0.05574723 0.08871059 -0.33672276 0.1820814 0.0017114839 0.1027838
486 0.34971014 0.2905326 -0.18096566 -0.3820043 0.13333395 -0.1286798 -0.011303797 0.3636777 0.37116975 0.07993579 0.40864074 -0.18814735 0.06265564 0.23135188 -0.28861117 0.24105988 0.2632208 -0.42956644 -0.07775223 -0.13242254 -0.051415794 0.18127088 -0.21316373 0.21074124 0.013626336 -0.17508602 -0.45878896 0.24823868 0.32315478 0.13793951 -0.16339865 -0.4616449 0.033396065 0.09795183 0.0990268 0.07232837 -0.11675711 0.050831556 0.09151578 0.5861569 0.20264226 -0.0073376196 0.049788065 -0.04765383 -0.48385844 0.006944439 -0.3892678 0.19332792 -0.109721705 0.011565039 0.15538363 0.04875891 -0.23097111 0.15415983 -0.1747854 -0.15496139 0.043686204 -0.11165242 -0.0121155 0.05693184 -0.084128544 0.24180818 -0.19859256 0.119082
296 0.0547183 0.066573545 0.16046633 0.33589312 0.13828526 -0.034903813 -0.32428095 0.25307542 -0.062987775 -0.36193562 -0.07893933 -0.2507202 -0.22432064 0.158653 -0.053679354 0.018153429 0.07587297 -0.027262239 -0.047332387 0.00010718806 0.14816956 0.4430377 0.1994181 0.04444071 0.037769068 -0.028512374 -0.117529325 -0.043143436 -0.16485786 -0.0708609 0.26214835 -0.010249837 0.16786617 0.08109685 0.38434404 -0.066632345 -0.12147546 -0.43692434 0.1165953 -0.44573367 -0.056078997 0.031101404 0.0017551236 -0.23260438 -0.71916354 0.36856455 -0.0010399716 0.10539948 -0.23392065 -0.10327021 0.025062783 -0.484968 0.036092468 -0.09080776 -0.010752163 0.17645499 0.11716267 0.23008697 -0.17385234 0.2000669 -0.30167982 0.69764 -0.11277774 0.17862688
518 -0.042133737 0.40297893 0.020290686 -0.33140385 0.037925567 -0.20010918 0.088432916 -0.07535684 0.05581995 0.000117937685 0.071358114 0.1966485 0.18430927 0.153443 0.28774595 -0.18077683 -0.046872694 -0.31668937 0.29690462 -0.5247135 0.20561911 0.18199585 -0.22034368 -0.16715372 0.33862734 -0.4554399 0.020631338 -0.039948173 0.052766677 -0.025748882 0.1982888 0.008576474 0.0137063945 -0.4017227 0.08928952 -0.2685926 0.1022992 -0.49440524 0.20841399 -0.15983891 0.27297717 -0.049583733 0.005696837 0.22416462 -0.48432755 -0.107492 -0.031608827 0.00837036 0.20903884 -0.27340016 -0.31077084 -0.26300493 -0.044236623 0.208962 -0.075608805 -0.009675526 -0.036498737 0.2055829 0.034018632 -0.34597185 0.09963828 -0.07200942 0.12625085 -0.0061310036
412 0.4257958 -0.009613467 -0.06310011 -0.16879958 0.123004295 0.16962744 0.047809128 -0.50331336 0.25523183 -0.099726364 -0.15051486 -0.38722774 0.025003742 -0.04079723 0.26705325 -0.5090502 -0.507864 0.03454401 -0.0042972034 -0.441572 0.03437736 0.47609398 0.14408012 0.2808797 0.10605922 0.068330504 0.28916186 0.07847014 0.3277528 0.634251 -0.13017538 0.09201844 0.041125964 -0.4857753 0.21101722 -0.31915617 -0.3373615 -0.099057734 0.4419238 0.2633405 -0.098224886 -0.17484647 0.14598508 -0.19538917 -0.33370563 0.023187645 -0.12674342 0.23448925 -0.18284856 -0.10158135 -0.21705398 -0.31655338 -0.2297052 0.16210876 -0.096475855 0.054848157 0.12933199 0.044690076 -0.0705659 0.12810118 0.087011024 0.053978883 -0.04878531 -0.17998056
222 -0.22914816 0.13144016 -0.12224765 -0.3032962 0.045383632 0.079001516 -0.30242756 0.22331502 0.6665832 -0.026203671 -0.08718096 -0.26421824 -0.018978674 0.3267482 -0.11467343 0.031536028 0.28098235 0.012632347 0.12494296 -0.117551506 0.23510848 0.34760168 -0.44606146 -0.22875303 0.025411272 -0.25813547 0.045319572 -0.034311388 -0.44551915 0.060907375 0.20670344 -0.10286917 0.09736549 -0.38412198 0.04567909 0.28389704 0.17894414 -0.21510255 0.26696122 -0.31993842 -0.13064186 0.14141099 0.09509947 0.283788 -0.2510843 0.018214457 0.12751906 -0.05785656 0.093753584 -0.29635555 0.019700052 -0.341622 -0.22070387 -0.47932482 -0.108714655 0.26577052 0.31524608 -0.3119517 0.14655453 0.19860142 -0.26945195 -0.17764539 0.09029353 -0.17379302
46 0.15673874 0.23123443 -0.06495767 -0.02091796 -0.30777413 -0.00832646 0.08702182 0.30833834 0.43190548 -0.26454622 -0.071408704 -0.13992625 0.0006878217 0.020623598 0.39785767 -0.14623986 0.08490354 0.13874362 -0.029416876 -0.47402522 -0.43080503 0.3632755 -0.2746674 0.07098021 0.095442325 -0.03390449 0.33181915 -0.38019156 0.10383647 0.086209275 0.15328461 -0.24770424 -0.2070135 0.24436611 0.35033208 0.06682736 0.2118301 -0.3539059 0.16062446 0.21166341 -0.004311764 -0.104038104 0.05871484 0.15996847 -0.019426374 0.27181607 0.019117702 0.177572 0.056413244 0.28660107 -0.15930207 -0.32331365 -0.005172558 0.012499309 -0.23462985 -0.053590406 -0.051511597 0.2620391 -0.30657378 -0.08033348 -0.3359698 0.075746395 0.03875723 -0.44549522
167 -0.15363853 0.52071 -0.04050813 -0.11723006 -0.21298653 -0.5395894 0.0072721187 -0.0092709595 0.11757002 -0.14172967 0.0131402 0.19689515 -0.34663168 0.29154763 0.3091601 -0.01571348 0.08514534 0.14323571 0.17216675 0.08623838 0.27044144 0.30692902 -0.01855985 -0.09144467 -0.25019893 0.31684363 -0.3955142 0.24138235 -0.07993489 0.47581676 0.04183419 -0.38827386 0.24986692 0.1576729 0.16944537 0.024772378 -0.14614479 -0.101737946 -0.04416826 -0.57579064 -0.02404324 0.07573959 0.08718891 -0.39124596 -0.6841158 0.0014982065 -0.2750513 -0.24885808 -0.15914716 -0.13085209 0.30612043 -0.31649485 -0.11566894 0.10353672 -0.10269703 -0.25341693 -0.14566441 0.011688524 0.06221371 0.059817187 0.035927374 0.51768 -0.14404698 -0.32593077
145 0.17134549 0.28261974 0.115348265 -0.36170584 -0.03550647 -0.27251792 0.040013414 0.0789324 0.12422142 -0.088528216 -0.005522707 -0.2400401 0.10409347 -0.14987075 -0.06797602 0.07030231 -0.18587767 0.08767083 -0.040790256 -0.24111821 -0.073613524 0.09944675 -0.21953788 0.0918967 0.12696469 -0.14442803 0.42144924 -0.18916367 0.12633167 -0.14041021 -0.15580077 -0.33697996 0.05901268 -0.0922906 0.0073816967 -0.26110205 -0.22105096 -0.42313686 0.02827303 -0.056284893 -0.052007124 0.13970229 0.20643578 0.32813722 -0.54298353 0.23506309 0.16672364 0.014465955 -0.18167147 -0.06393104 -0.39462695 -0.29325426 -0.3584057 0.271062 0.46305314 -0.014675466 0.09864941 0.25561848 -0.10109904 -0.2154459 0.1298533 -0.27546734 0.3516987 -0.24685782
80 -0.16845094 0.12925322 0.103437774 -0.24563038 -0.13386858 -0.07627988 -0.18923976 0.27155057 0.76608384 0.00687585 -0.12478349 -0.4958075 -0.355503 0.19053236 0.09609545 0.35986048 -0.22321714 -0.1171195 0.13115136 -0.10469031 -0.16031748 -0.03476056 0.0264387 0.18861276 0.08396668 0.013494823 0.4024306 0.025956515 -0.034767486 -0.11513331 -0.07993987 -0.035769444 0.27863154 -0.1549668 0.16242406 -0.2309026 -0.28575248 -0.5359271 0.2749759 0.09250771 0.059862364 -0.07518845 -0.124185584 -0.1083177 -0.034262046 -0.11150279 0.0790464 0.20317939 0.26936424 -0.06385744 -0.33694208 -0.009777224 -0.20981638 -0.08757478 -0.32914835 -0.21622618 0.062053807 -0.17972028 0.17373328 -0.04941644 -0.119655766 0.3109385 0.11337235 0.21988645
271 0.18553281 -0.23440772 -0.1885488 -0.3233643 -0.118030936 0.14517042 -0.13682915 -0.4061345 0.027701063 -0.0056426814 -0.033326406 -0.08787492 0.033112742 -0.2263631 0.38851884 -0.29744506 0.028249916 -0.1864433 -0.058064118 -0.45275107 -0.049741093 0.08986873 -0.27292868 0.07328277 0.4154304 -0.09715767 0.30373302 -0.21083726 0.042293027 0.5887945 -0.08467048 -0.3400294 0.22240382 -0.31728807 0.045596275 -0.22093832 0.17199217 -0.44865555 -0.011739982 0.2048651 -0.026664874 -0.17487216 -0.23756392 0.17094682 -0.23834342 -0.11423633 -0.10402411 0.4941167 -0.08988971 -0.32620722 -0.24510284 -0.49921447 0.031454667 0.46245193 0.110562734 0.20939992 0.12900518 -0.15139915 -0.10073347 -0.1340017 -0.38493428 0.02110702 0.0408342 -0.17094995
89 0.54245234 0.013688117 -0.4515319 -0.13864766 0.036047857 0.21594381 0.114109516 -0.33819914 0.15323259 -0.031785514 -0.19439293 -0.44414154 0.059405446 -0.16890845 0.17604296 -0.33019224 -0.32451242 0.06084263 -1.2262315e-05 -0.37808686 -0.08928252 0.11578437 -0.09644229 -0.0992177 0.13086186 0.04930517 0.052072998 -0.12826058 -0.28544676 0.46678784 -0.3167789 -0.31934905 0.251766 0.18728648 0.13508086 0.23723911 0.2846687 -0.08643212 0.1878119 0.15829308 -0.31767172 -0.094920285 -0.20299324 -0.5159655 -0.295371 -0.14067926 0.06435257 0.043108564 -0.13407126 -0.123109356 -0.16771074 -0.010427162 -0.2751984 0.27988023 0.32554272 0.29384798 0.7010749 -0.14211664 -0.23448858 -0.050018676 -0.22343172 0.38729843 -0.10928742 0.12807822
3 0.28688034 -0.057374906 -0.15554431 0.084185265 -0.018989941 -0.005641942 0.08040547 -0.24275947 0.19411306 -0.16876338 -0.17541412 -0.04918435 -0.058343947 0.036600813 0.254297 -0.011927841 -0.3328574 0.28776506 -0.15740035 -0.5171462 -0.17209756 0.43877098 0.07213234 0.29765013 0.17457938 0.09154423 0.291685 0.1599601 0.19592014 0.42373994 -0.2818103 -0.037011694 0.026804117 -0.34855145 0.36276302 -0.30766195 -0.21399076 -0.0056383926 0.26653424 0.44664368 0.061377287 -0.09221474 -0.09058741 0.050812144 -0.17582624 0.049289677 0.10129876 0.26817292 -0.10040478 -0.058218956 -0.33612102 -0.52473706 -0.06781862 -0.1321463 -0.12806617 0.06588302 0.40410075 -0.0606362 -0.14171569 0.22958551 0.032271255 0.14356156 0.06512008 -0.27086782
152 -0.1491888 0.1374303 0.22663204 -0.40864763 0.4056647 0.13045663 0.13558176 0.4201583 0.2047098 0.29079217 -0.020565262 -0.04569642 -0.4171983 -0.0371746 0.17326838 -0.1512095 -0.0034339346 0.171363 0.029402804 -0.2732639 0.012169136 0.4079743 0.13377462 -0.04723445 0.112127915 -0.17140801 0.15005948 -0.26473737 0.22387816 -0.06345344 0.09367172 -0.028732121 -0.19831932 -0.32058296 0.112316415 0.117514014 0.041923698 -0.39532697 0.22750287 -0.23018043 0.29181054 0.28573424 0.11442031 0.12488272 -0.12444449 -0.32746887 0.23003663 0.0005288615 -0.3888859 0.03345011 -0.16156396 -0.4449509 0.121894255 0.10174095 -0.008975989 -0.24229082 0.22067502 0.060194407 -0.295628 -0.15239538 0.26498535 0.19283661 -0.17088372 0.049506467
231 -0.2839595 0.41439393 -0.060506213 -0.008242318 -0.18046504 -0.04890331 0.1608267 0.44835815 0.3747147 -0.10401279 0.14844973 0.11122607 -0.16153304 -0.1585254 0.13722798 -0.05923392 0.2552347 -0.15669641 -0.0009837495 -0.041279532 0.32866436 0.33418685 -0.23260279 0.28306398 -0.27859253 0.25848305 -0.28371778 0.21914612 0.01960392 0.024174558 -0.2931467 -0.21256343 0.11472224 -0.00961152 -0.01864519 0.15203299 -0.28814128 -0.09068545 0.22864278 -0.32432267 0.22478803 0.16062179 0.0310082 -0.6504243 -0.76856923 -0.25668573 0.18287277 -0.10228673 -0.33015013 -0.1358845 0.4539097 -0.21432957 -0.6313527 0.22034074 -0.18283795 -0.037391614 -0.25949088 0.1347515 0.14567028 0.06745333 -0.15094627 0.5709786 0.041458897 -0.5119858
51 -0.2698599 0.34429425 0.14774795 -0.32743976 -0.1455203 -0.11226919 -0.19153243 0.021317098 -0.051655002 -0.15593666 -0.053465195 0.25878352 0.06990634 0.3408698 0.39122912 0.07412379 0.20534074 0.06912303 -0.07161094 0.14264485 -0.036324535 0.32852647 -0.089940414 0.16091347 0.050645284 0.15863702 -0.33127078 0.35549757 -0.026362572 0.22783116 -0.25205228 -0.5984913 0.07529588 -0.1196503 0.00877478 0.0023942625 -0.3143285 -0.088848695 -0.21620378 0.0056667253 0.109016016 -0.05757951 0.11784971 -0.21476468 0.16220544 0.06643124 -0.5016632 -0.1726643 0.036050797 -0.08628214 -0.28174326 -0.5328308 -0.17477234 0.23301499 0.043774687 -0.6065867 0.116410166 -0.5550889 0.108670466 0.08504497 0.2912547 0.4437376 -0.029560605 -0.35988453
362 0.049966265 0.6339712 0.0019187246 -0.06780364 -0.2329895 0.032722484 -0.010394411 0.36889574 0.4401056 -0.38909394 0.09151449 0.13135144 -0.03882106 -0.0962918 0.1775042 0.11860243 0.15993223 -0.1715088 0.13668273 -0.14024504 -0.19655153 0.40094852 -0.06957779 -0.07023953 0.1549917 -0.049184546 -0.24814609 0.3940926 0.108828895 0.006955295 0.20397845 -0.11514035 0.017951498 0.018064335 0.21136455 0.020682184 0.113063216 -0.17074354 0.43738306 0.07398368 -0.16703232 -0.0523335 0.022673491 -0.07103517 -0.43335298 0.019726051 0.112844974 -0.02665671 0.37277403 -0.3220745 -0.7172632 0.0051320163 0.06559374 0.19684066 0.23177151 0.0069664456 -0.0064879553 -0.23744072 0.123557955 0.17048398 0.23397881 0.10154484 0.21705663 0.17876844
218 -0.1402644 0.09851987 -0.1612757 -0.29969892 -0.31076226 -0.13866346 -0.2663566 0.063044734 0.38130555 0.009925879 0.12993027 0.25584927 -0.16910626 0.41612288 -0.2589648 -0.30472463 0.52067375 -0.0058358917 0.0032987099 0.14752057 0.22993079 0.4825682 0.021420933 -0.13529325 -0.047783747 -0.043989904 0.04973458 -0.1119441 0.06183537 0.018344697 0.30072132 -0.2236127 0.29714644 -0.36029437 0.06701659 0.35282034 0.08148785 -0.23204786 0.20037974 -0.31874692 -0.16629638 0.097821325 -0.20453963 -0.29215807 -0.4362092 -0.13449302 -0.22502875 -0.4359616 0.056225695 0.055443216 0.06379556 -0.42771667 -0.22399506 -0.40401295 0.09126637 0.031279605 0.6578853 -0.057810843 -0.064440735 0.4332109 -0.08929176 -0.09608658 0.14513293 -0.16514137
